2104 100
<unk> -0.0313112549484 -0.0182977467775 0.0388401001692 0.0439556092024 0.0456281788647 -0.0483812987804 -0.0169658884406 -0.0402915216982 0.00859502330422 0.0515555627644 0.0347465202212 0.00400676298887 -0.0446434989572 0.0667836591601 0.0328754149377 0.00719269597903 0.0492580868304 -0.0313157178462 0.0499913394451 -0.0501319207251 0.0061832908541 -0.0512219369411 -0.0565888658166 0.00777296023443 -0.0635935589671 0.0123133789748 0.00983370747417 -0.0209559295326 -0.0493949651718 -0.0114860059693 -0.0712846815586 -0.0182364974171 -0.0117944134399 -0.0483252257109 0.0327070765197 0.036567684263 0.0404840894043 -0.0288739986718 -0.0436439812183 0.00450140889734 -0.0507901422679 -0.0156074771658 0.0332756191492 0.0500306226313 -0.00431895349175 -0.0169038493186 -0.00925761088729 -0.0338133387268 0.00504844682291 -0.0238014031202 0.0306142009795 0.0196963455528 -0.0261876825243 -0.00388650991954 0.00116208719555 0.00398024357855 0.0523571223021 -0.0313464254141 -0.0484547801316 -0.0504004918039 -0.0127804549411 -0.00895308330655 -0.0404952690005 0.0187830906361 -0.00256134034134 -0.0237526353449 -0.0643622279167 -0.0337495356798 0.0436366423965 0.067530721426 -0.0643905103207 0.00215267087333 -0.0502649359405 0.027741106227 -0.00342244212516 0.018858300522 -0.0034777361434 -0.00774065265432 0.015212725848 -0.0345414504409 0.0131977666169 -0.00065268704202 -0.0450004376471 0.0382505841553 -0.0240755416453 0.0465243682265 -0.0511723794043 0.00306026916951 0.0415168628097 -0.0586548931897 -0.0169096048921 -0.00961422082037 0.0108224889264 -0.00810451712459 -0.0448460839689 -0.0321297198534 0.0305665489286 -0.0118132689968 -0.0503916963935 -0.0289769116789 
wow 0.0272159054875 0.0312895327806 0.02006483078 -0.00553536554798 -0.0687850490212 0.0103870565072 -0.00560458004475 -0.0433722138405 0.0215822402388 -0.036314766854 -0.0314632356167 -0.0137348398566 -0.0249849483371 0.00907286535949 0.00149831664748 -0.0684162825346 -0.00915504898876 -0.0345290899277 -0.0761668682098 0.0563473105431 -0.0219528973103 0.00482831057161 0.0370412655175 0.02972063981 0.0216229725629 -0.0631262287498 0.0220582764596 0.0112889287993 0.0122057795525 0.0508043728769 0.0248660668731 0.0329539068043 -0.0662207975984 0.0146019952372 -0.0374261178076 -4.9667822168e-05 -0.0158740598708 0.0323531925678 0.00829288363457 -0.0753242522478 -0.0230483133346 -0.0192946624011 0.00583383906633 0.0249663498253 0.00691667664796 -0.0498422160745 -2.43740087171e-05 -0.0179830603302 -0.021899683401 -0.028563644737 0.0476712621748 0.0341902822256 -0.0367631316185 0.0270008500665 0.0503762103617 0.0192028228194 -0.00545580172911 0.0127249248326 -0.0122159374878 0.027600068599 -0.0412732176483 -0.0586907714605 0.00305779301561 -0.00992580037564 -0.0161652881652 0.0420590154827 -0.00685716886073 0.0716707184911 -0.0154304765165 0.000523410504684 0.0324262455106 -0.0424214042723 -0.0404454693198 0.0214363150299 -0.022054174915 -0.0638039335608 -0.0636115595698 0.0263146236539 0.00198353640735 0.0124742304906 0.0136830629781 0.0196972396225 -0.0647911056876 -0.0341486185789 0.0119946906343 -0.0141302030534 0.0317912437022 0.0329447463155 0.0317717641592 -0.00860449019819 0.00113718002103 -0.05688617751 0.0113456500694 -0.0110880723223 -0.0560729689896 0.0184513423592 0.0463947393 0.0272435098886 0.0340115763247 -0.0142578734085 
loved 0.115138009191 0.0191958416253 0.0138261485845 -0.0572496242821 -0.0279931556433 -0.0258567854762 -0.0556570962071 -0.0344366058707 -0.0385483540595 -0.0391274616122 -0.0273675918579 -0.0338040143251 -0.0250462535769 0.0431958064437 -0.0166475716978 -0.0730276852846 -0.0466237850487 -0.0977314859629 -0.0336184836924 0.0928046926856 0.0819162130356 0.0836239680648 0.0462501980364 -0.0524903349578 0.0322554856539 0.0379632338881 -0.0332575291395 -0.000246353301918 0.0131923751906 0.0455922521651 0.0213391575962 -0.0065004886128 -0.092780187726 0.055486522615 -0.0440512672067 -0.0446499064565 0.0279669128358 0.0516146421432 0.0973991304636 -0.0323175527155 0.0179460924119 -0.0615937113762 -0.0592192523181 -0.00622544437647 -0.0508367419243 -0.0419223830104 -0.11088873446 -0.0243423618376 0.0395289212465 -0.021612809971 0.0670116767287 -0.0251879543066 0.0270323324949 -0.0665908977389 0.0396902821958 0.0263681448996 -0.0825571492314 -0.00716869067401 -0.017280401662 0.0351010113955 -0.0402473323047 -0.0357595309615 -0.0827948078513 -0.0132676670328 -0.0026948209852 0.112919092178 -0.0139951268211 0.0705377459526 -0.0205742623657 -0.068075761199 0.0870176255703 -0.0614760406315 -0.0848153829575 0.029283285141 -0.00234882510267 -0.00704748183489 0.0301802325994 -0.0205479431897 -0.0886007398367 -0.0883885473013 0.102118223906 0.0483041442931 -0.0345646552742 -0.00526486942545 -0.0602560117841 0.101261176169 0.0231919679791 -0.0461045317352 -0.0254495237023 0.0750998482108 0.0613425672054 0.0505664348602 -0.0323250330985 -0.0809221863747 0.00992032233626 -0.0403128378093 0.0022746482864 0.0324543789029 0.0683738067746 0.00408268673345 
this 0.00270225037821 0.0197103023529 0.0467952080071 0.0136075736955 -0.015310883522 0.0390254408121 -0.0252688955516 0.00976393558085 -0.0478165596724 0.0183096844703 0.0212834440172 0.00644819298759 -0.0204745195806 0.0265057329088 -0.0158074963838 0.0127286249772 -0.0227688476443 0.0218001212925 -0.0102277742699 -0.00113913824316 -0.0658438131213 0.04029096663 0.027717679739 0.0126308761537 0.00303630111739 -0.0384435802698 -0.0345605500042 -0.023868734017 -0.0339200049639 0.0227192491293 0.00778516707942 -0.0424686707556 -0.073790833354 -0.074378952384 0.0220169275999 -0.00137736927718 0.054976593703 -0.0359168201685 -0.0587177276611 -0.0253460835665 0.0159222446382 -0.0315386094153 -0.0441130362451 0.0132886394858 0.0454370863736 -0.00917667802423 0.04174830392 0.0072832335718 -0.0685260072351 0.039524782449 0.0291576739401 0.0415511578321 -0.0650071948767 0.0313619412482 0.0286465920508 -0.0413607023656 0.0552990920842 -0.0230373609811 0.0364312566817 -0.0429038442671 -0.0371225140989 -0.0294370390475 -0.0547553040087 0.0139198508114 -0.0166215486825 5.37700543646e-05 -0.0338927619159 -0.00841749738902 -0.0450190380216 -0.00375120295212 0.0136964572594 -0.00552414404228 0.0725481361151 0.0163719467819 0.0211996771395 -0.0485911630094 -0.0220756325871 -0.0083224568516 -0.046243134886 0.0433350466192 -0.0149977365509 0.0400226898491 0.010784377344 -0.0380807667971 -0.0363134033978 0.0562246106565 0.0160629190505 0.0325580276549 -0.0210517961532 -0.0241577569395 0.03037327528 -0.0414358377457 0.0375402197242 0.0180578827858 0.00164920091629 0.0239041950554 0.0482821241021 0.033297996968 -0.083948969841 0.0210018884391 
place 0.0502839833498 0.018891338259 0.00780686875805 -0.0253530591726 0.0663497969508 0.00363927381113 0.0430114008486 -0.0101804267615 0.0326422713697 0.00694808131084 -0.0420489795506 0.0177088137716 0.0198004636914 0.101155750453 0.0351264625788 -0.0871898829937 -0.0613823160529 -0.0433253347874 -0.00184297736268 0.0598124675453 0.0153897022828 0.0944781824946 0.0142522975802 -0.0369599014521 0.0263349153101 0.0135814361274 -0.0701028853655 -0.0098889991641 0.0237955246121 0.0492295920849 -0.0289022997022 0.0637529194355 0.0441200472414 0.0901308655739 0.0057077803649 -0.038879390806 -9.46476211539e-05 -0.00895832292736 -0.0171323642135 -0.00948166381568 -0.0357358939946 0.0377287678421 -0.0198180247098 0.0486987642944 -0.080385632813 -0.0625375285745 -0.0098899230361 -0.0334045104682 0.0183748845011 0.0154755068943 -0.0235634315759 -0.0736065283418 0.00612695189193 0.045848287642 0.00352274347097 -0.035803206265 -0.101973518729 -0.0606578923762 0.0172969736159 -0.0189922116697 -0.0215808972716 0.0529970787466 0.014155481942 0.014508811757 0.00435984460637 0.0248297732323 -0.0101092634723 0.0367812141776 0.0232582669705 -0.0316575281322 0.0654200538993 -0.0202708076686 0.0593142025173 -0.0448933579028 0.0468887351453 0.0731313899159 0.00174915336538 -0.0412561483681 -0.00829196441919 0.0145943397656 -0.0155636463314 0.00775593100116 -0.0179100763053 -0.0177652519196 0.0435453057289 0.0201881453395 0.015005772002 -0.0518650114536 -0.014333717525 0.0408553592861 -0.0406101644039 -0.00254820310511 0.019385991618 -0.00629403302446 -0.0623142682016 -0.04060421139 -0.00399082479998 0.0249207969755 0.0199019666761 -0.0548067204654 
1 -0.0718732103705 0.0596796385944 -0.0658892244101 -0.0020109617617 0.0129316365346 -0.0191453620791 0.00849274080247 -0.0314374379814 0.0282008647919 -0.0554172508419 -0.00630287034437 0.013111891225 0.0597905479372 -0.0665907263756 0.0141985341907 -0.0392310246825 0.0665360093117 -0.0148529596627 0.0267789699137 0.00541562354192 0.0458798892796 0.0034487566445 -0.0106937289238 -0.0151320593432 0.0745692327619 0.000608732225373 -0.0368816889822 0.023349666968 0.0750027894974 0.0308575592935 0.030991718173 -0.0133177349344 -0.0180432032794 0.0438795611262 0.0201932210475 -0.071616537869 0.0299043655396 0.000963106285781 -0.0746358856559 0.00410537142307 0.0444985851645 -0.0144602665678 0.0824560970068 -0.0522974580526 0.0176469534636 0.0765532031655 0.0263908691704 0.0251429397613 0.056882251054 -0.0659886449575 -0.016915678978 0.0417823269963 0.0138369305059 0.0219463407993 0.0168175976723 -0.0378711111844 -0.0352044776082 -0.055758677423 0.0831812396646 0.0537168048322 0.0630944222212 0.0189686566591 0.0641459599137 -0.0575072541833 0.0151709672064 -0.055278275162 -0.0177858490497 -0.0144368484616 0.0282115787268 -0.00884742103517 0.066204354167 0.0368893295527 0.0655160322785 -0.00817355513573 0.00405530957505 0.0361248329282 -0.013839546591 0.071719609201 -0.0181793998927 0.024131514132 -0.0288338717073 -0.0659224316478 -0.0196483451873 0.0274299029261 0.0439627356827 -0.026010742411 -0.00787875335664 0.038256585598 -0.0163289699703 0.0596888996661 0.0252256821841 -0.00596057809889 -0.0239494554698 0.0352269634604 -0.00306401657872 0.0629757717252 0.0360608398914 -0.00866060797125 0.00630605220795 -0.0091249300167 
crust -0.0691396743059 -0.0307350512594 0.00846481136978 0.0497826859355 0.0200784336776 0.055006492883 0.0208011437207 0.0297940727323 0.0848978385329 -0.0330420359969 -0.00443329056725 0.0683319866657 -0.00402792356908 0.00578918261454 0.0502233952284 -0.00969140511006 0.0548244789243 -0.00653244880959 -0.0195441041142 0.0312128197402 0.0192533936352 -0.0547285936773 0.0383132845163 -0.0234843268991 0.0279633775353 0.0185653883964 -0.0354938842356 -0.00485909963027 0.0756526812911 -0.024945858866 0.0491223968565 -0.00380666973069 0.0139490570873 -0.0557628236711 0.039361897856 -0.0419663116336 -0.0194091778249 -0.0892110615969 -0.0489610806108 0.0628241896629 0.0748717933893 -0.035340745002 -0.0439925976098 -0.0529916509986 0.0012730571907 0.023610221222 0.0295834559947 0.0453674755991 0.0393711775541 -0.0262211672962 -0.0678536966443 0.00984321348369 0.0661732107401 -0.0601535961032 -0.0689773336053 -0.0559000261128 -0.0408907718956 -0.0734246745706 0.0448493361473 0.0565366558731 0.056171361357 -0.0187183115631 0.0637390241027 -0.0169574078172 -0.00553037505597 -0.00489765591919 0.00163309916388 0.00374226272106 0.0590960681438 -0.047703448683 -0.0438009276986 0.074133977294 -0.0252094380558 0.00845339242369 0.0369181968272 0.0224483124912 0.0239001363516 -0.0545438975096 -0.00537994224578 0.0575300753117 -0.0602826587856 -0.00926273316145 0.0394277982414 -0.0051727630198 0.0260049235076 -0.0687033757567 0.0255905818194 0.0390709601343 -0.00919315591455 0.0291561670601 0.0656642466784 -0.00807967316359 0.0416516847908 0.017763895914 -0.0216839592904 0.0136050209403 0.0684309899807 -0.0141613325104 0.0692107155919 0.0086212027818 
is 0.0124833993614 0.0106985829771 -0.0349702015519 0.0107439281419 0.00987426470965 -0.00447087595239 -0.0243460405618 0.0450989566743 -0.0736278891563 0.027683114633 -0.0124564878643 -0.0389443002641 0.000977950985543 0.0447292663157 0.0427587255836 -0.0280308183283 -0.0126950563863 -0.012717159465 -0.0296017993242 0.0157820377499 0.0262955818325 0.0543299913406 0.0187497269362 -0.0203602947295 0.0304228048772 0.0275155659765 0.0142867602408 0.00976276677102 -0.0387019701302 0.0363130420446 -0.0102051580325 -0.0264493487775 -0.0325024686754 -0.0145848570392 0.0593655481935 0.0072877840139 -0.00262974947691 0.0118205742911 -0.0126030165702 -0.018930837512 -0.0324639342725 -0.0384831130505 0.0366772860289 0.0434648171067 -0.0318737328053 -0.0469292737544 -0.0167918205261 -0.0612357854843 -0.0258696023375 -0.00899072177708 0.0609077475965 -0.0267518740147 0.0216651652008 -0.0167226996273 0.00866518821567 0.035273745656 -0.00505510950461 -0.0597014240921 -0.0826910659671 0.00714842835441 0.00374920875765 -0.00970323290676 -0.0353688746691 0.0456370525062 -0.00859530735761 -0.0656102448702 -0.0266799777746 0.00231664208695 -0.0346238650382 -0.0117360595614 -0.0259419996291 0.0055419919081 -0.00423920806497 -0.0258141886443 -0.00124968995806 -0.0671835690737 0.0369191840291 0.027956020087 -0.0126078343019 -0.0466097407043 0.0077239703387 0.0123247858137 -0.0506802499294 0.0500610880554 -0.0116462856531 0.0251672714949 0.000246718671406 0.00518468907103 0.0101895499974 0.00575134065002 0.00850504916161 0.0271653421223 -0.00340015557595 0.0200062468648 -0.0901401340961 -0.0408780053258 -0.0307656358927 -0.0157906375825 0.017586119473 -0.0122621571645 
not -0.0594289302826 -0.0292243342847 -0.0591924339533 -0.0516947358847 -0.0724841654301 0.0762375965714 0.0361084491014 0.0667358189821 0.0115958377719 -0.00923395995051 0.0217495560646 0.0810052976012 0.0801049247384 -0.00136891962029 -0.0313471220434 0.0441405139863 0.0937906950712 0.0976099967957 -0.0697113499045 -0.0128297144547 0.0468080751598 -0.100864686072 0.0574093386531 0.028597868979 0.00302705285139 0.0826750397682 0.0250771418214 0.01827063784 0.0661848857999 0.0490373112261 -0.0402635373175 -0.0797083899379 0.0812057852745 -0.121908836067 0.0337965674698 -0.0568336211145 -0.0742596536875 -0.05065330863 -0.0355856046081 0.0666915625334 -0.00508383382112 -0.081049144268 0.0550963506103 -0.0469169728458 0.0439835190773 0.0862579494715 0.0952887609601 -0.0420356094837 0.0338915884495 -0.00128028064501 -0.0632731169462 0.033424410969 0.0249878596514 0.0371906347573 -0.0438616275787 -0.104658320546 -0.0543147884309 0.011184358038 0.0541936904192 0.00388180976734 0.109711013734 0.0202984083444 0.0508015491068 0.0457947589457 -0.0438045337796 0.00967919640243 0.0771292075515 -0.0442946888506 0.0550636425614 0.0191274974495 -0.0895014032722 0.0669301748276 -0.0683967247605 -0.0199488159269 0.0344381891191 0.0263144578785 -0.00993899721652 -0.0693266689777 0.0948406979442 -0.00045225318172 -0.0965238139033 -0.0692555680871 0.108006067574 0.103965379298 0.0715694352984 -0.0329469963908 0.0462972559035 -0.0510682798922 -0.014893037267 0.0852330178022 0.0904503911734 0.0535809919238 0.10779697448 -0.0192506555468 -0.0479940213263 -0.000435838970589 0.0889068841934 -0.0685317739844 -0.00536532374099 0.052785821259 
good 0.0209431331605 0.0037622617092 0.0418921560049 0.0200013555586 -0.0453364476562 0.025535967201 -0.0282599534839 -0.0513546280563 -0.0329537689686 -0.022378705442 -0.0593047477305 -0.0430579744279 -0.0704894959927 0.00551337609068 -0.0122039066628 -0.046971026808 -0.0565279088914 -0.0872367620468 -0.0282235629857 -0.0520764775574 -0.0195990018547 0.0493179187179 -0.0250884741545 0.0480542555451 0.0563147217035 -0.045241355896 -0.0339485630393 0.0150019796565 -0.00782825797796 -0.0223590936512 -0.0319819673896 -0.065633893013 -0.0651754140854 -0.00611877162009 -0.0405927635729 0.0796289667487 -0.0167183745652 0.0725614130497 -0.0217448994517 0.0536644421518 -0.0254491697997 -0.032243296504 -0.040253572166 0.0563848987222 0.0110598420724 0.0307552311569 0.00733143370599 -0.037011243403 0.0154575491324 0.0334414951503 -0.0041365865618 0.0752041935921 -0.0773265883327 0.0509512685239 -0.0218894518912 0.00282620778307 -0.0479885973036 0.0258818883449 -0.092347368598 -0.00103983224835 -0.0296931378543 -0.0543978065252 -0.078355781734 -0.017734689638 -0.0349513329566 -0.0114556066692 0.0732029527426 0.0734508708119 -0.0668860599399 0.0201067812741 0.106697373092 -0.0388215258718 0.0317521169782 -0.0260360930115 -0.0824498534203 -0.0523076914251 -0.00181482371408 0.0401822403073 0.0205496549606 -0.111609719694 0.0876113697886 0.0281285550445 -0.0335031375289 -0.0198630914092 -0.0259381663054 0.0364372432232 0.0239513292909 -0.103702887893 0.0989720672369 -0.0453403256834 0.00975803565234 -0.0378455221653 0.00847948063165 -0.0982290804386 -0.00264237192459 -0.0711008608341 -0.0285871420056 -0.0686756372452 0.00796320848167 0.0539918132126 
0 0.00792523473501 -0.00191273540258 0.00413546711206 -0.047053873539 -0.0274239182472 -0.0075852163136 -0.00319258123636 0.031869892031 -0.0263603683561 0.0465175844729 0.0295189134777 -0.0211217049509 -0.0308495759964 0.0283688940108 -0.0208511594683 0.0388318039477 0.033342693001 -0.00494545698166 -0.0455893166363 0.00797309726477 0.0348858498037 0.002381850034 -0.040345467627 0.0358307845891 0.0371526367962 0.0222666300833 0.0185712240636 0.00317753478885 0.0468848459423 0.0346771739423 0.0159053839743 0.0356050021946 -0.00821789354086 0.0484427474439 0.0484339334071 0.0337286703289 0.00655729696155 0.0202236510813 -0.03603015095 -0.0228718519211 -0.0375921614468 0.0120870582759 -0.022953664884 0.0369697250426 -0.0473538637161 -0.0459751002491 0.0317039601505 -0.0447960011661 -0.0380944237113 -0.0169836990535 -0.0120234265924 -0.0297333952039 -0.0174180977046 0.0211477614939 0.0488520748913 -0.0181385502219 0.000948525965214 0.0126577876508 -0.00366430357099 -0.0112451203167 -0.023900045082 -0.0168395861983 -0.00263864919543 -0.0284620411694 -0.0135432370007 0.0392310880125 -0.0327353253961 -0.00875513628125 -0.035825945437 -0.0498871691525 -0.0412289611995 0.0434955097735 0.016769234091 0.0172347463667 0.00179650634527 -0.0145021192729 0.0434229038656 0.0482806824148 0.0412433035672 -0.00697750970721 0.00447056442499 0.0231610797346 0.0215343274176 -0.042002774775 0.04690483585 0.0491893403232 -0.0244803912938 0.0290314666927 -0.00734234973788 0.0426683314145 0.0124912858009 -0.0433925762773 -0.0246486905962 0.00190936401486 0.0324925296009 0.00931660085917 -0.0189694166183 0.0445933230221 -0.044227220118 0.0191815830767 
tasty 0.0651305243373 -0.0104610966519 0.0226345844567 -0.033176921308 -0.0566656216979 -0.0345772765577 0.00267504551448 -0.0656666383147 -0.0694529563189 -0.0262325089425 -0.0817164555192 -0.0577980168164 0.00363067118451 0.00422199768946 -0.0162312164903 -0.0165653638542 -0.0532258078456 -0.0688480660319 -0.049613058567 0.00172144558746 0.0473339855671 0.0658789500594 0.00202733417973 -5.48924290342e-05 0.047083593905 -0.0150010325015 -0.034463506192 0.0318229719996 -0.0536045581102 -0.00567454937845 0.020952410996 -0.0647526681423 -0.072680272162 0.0398921445012 -0.0157941486686 0.00308197829872 -0.0494369976223 0.0246342755854 0.0690419450402 -0.0371661037207 0.0324116870761 0.0515931285918 -0.0270269233733 0.0358919687569 -0.0505252406001 0.00909784156829 -0.0955446735024 -0.0285243149847 -0.018366407603 -0.00238870549947 0.0319175794721 0.0387953706086 -0.00498295947909 0.0894323140383 0.0560294650495 0.0462069921196 0.0123953931034 0.0644304081798 0.00974565465003 -0.0571514628828 -0.00848089531064 0.00543851871043 0.00647923583165 0.0434006266296 -0.0673709288239 0.00897015724331 0.0714411437511 0.0344236642122 -0.0492025986314 -0.0407269485295 0.0231345556676 -0.0335579551756 0.0326293893158 0.0364718511701 -0.0525904037058 -0.0443314127624 0.0177500527352 -0.0429141297936 -0.0534447096288 -0.0549889802933 0.0748120844364 0.00569825991988 0.0092267524451 -0.0513720177114 -0.0631157308817 0.0166529715061 0.0025493898429 -0.0974646806717 0.000256539002294 0.0348778292537 0.00920799281448 -0.0270650926977 -0.0376623235643 -0.0640718191862 0.0472608245909 -0.0920190066099 0.047682043165 0.0210132077336 0.0165927708149 -0.0266950260848 
and -0.0175684355199 0.0189680438489 0.0135970795527 0.0333820395172 0.000724180310499 0.0221465770155 -0.0590164326131 -0.0482100024819 -0.0591172538698 0.0391599424183 -0.0684226378798 -0.00672937743366 -0.0357464626431 -0.0265433751047 -0.0183411724865 -0.00723435916007 -0.0244941469282 -0.0337459370494 0.043508708477 -0.0957531780005 0.0376564599574 0.00313163804822 -0.0395928435028 0.00188693683594 -0.083209387958 -0.0395835749805 0.0121749797836 -0.00772066786885 -0.0161594059318 -0.0098435189575 0.0472292527556 -0.0938537493348 0.0567930974066 -0.00280533311889 0.0154212582856 0.0113742817193 -0.0502740368247 0.0768334195018 0.0552258454263 -0.00610931077972 0.00182766967919 -0.0155232679099 -0.000324609689415 -0.00947062578052 -0.00214771437459 0.0207493212074 0.0373511649668 -0.0431843735278 -0.0357827395201 0.0281245335937 -0.0251772515476 0.0639164447784 -0.0216586329043 -0.0360400043428 0.075206078589 -0.00378396292217 -0.0133932996541 -0.0766563117504 0.0111246118322 0.0281566176564 -0.0287805665284 -0.0377604998648 -0.0180931985378 -0.00201564282179 -0.0888760089874 0.0453699715436 0.0572341494262 0.000916462857276 -0.0364208221436 0.0343707837164 0.00992822274566 -0.020040506497 0.0265555642545 0.0627305954695 -0.0617962740362 -0.0546647943556 -0.0378650650382 0.0446636006236 -0.0377500802279 -0.0579206869006 -0.00674656499177 0.0464706867933 0.00457163061947 -0.0140855563805 -0.0648240596056 0.016584539786 -0.095348790288 -0.0652976855636 0.0111117828637 -0.070973418653 -0.021895641461 -0.0891892388463 -0.0124103669077 -0.062930315733 -0.00789197534323 -0.0618606321514 0.00963833555579 0.0280017424375 -0.0778925418854 -0.0118329590186 
the 0.0247001815587 -0.0234808865935 -0.0583400093019 0.0207452978939 -0.01511172764 0.0338287316263 -0.0273647867143 -0.0414037890732 -0.0761793553829 -0.0372795946896 -0.086309581995 0.049659807235 -0.0392962060869 0.0739007219672 -0.0466574728489 -0.0458553396165 0.0348704122007 -0.0204730983824 0.00908479653299 0.00417637266219 0.0212396774441 -0.0180140808225 -0.0507142618299 0.0238024201244 -0.0468035489321 -0.0418373122811 -0.00751308677718 0.00795168150216 -0.0105212889612 -0.00484503991902 0.0103105856106 -0.00572804361582 -0.0229285359383 0.0170798245817 0.022189617157 0.0169296301901 0.0130639402196 0.0505114123225 0.00442961417139 -0.0175169371068 -0.0724966526031 0.00664867879823 -0.034825194627 0.0146169122308 0.0292705595493 -0.0119884759188 -0.0314681641757 0.0206555128098 0.0426623523235 0.016313130036 0.00515147345141 0.0640528276563 -0.0184578262269 -0.0461493358016 0.00116862135474 -0.0240740738809 0.0347642339766 0.0137558216229 -0.0214597452432 -0.0116235679016 0.0250494033098 -0.0464093461633 -0.0294375382364 0.0410442650318 -0.00851331930608 0.0219066105783 -0.0279564000666 0.0317445844412 -0.0189976245165 0.0147551102564 0.0197355262935 0.000818495987915 -0.0444871634245 0.00168025121093 -0.0552951283753 -0.00163368089125 -0.0345567725599 -0.00400294363499 0.0175165943801 0.0297941956669 0.0571539737284 -0.0436468608677 -0.0442469380796 0.0351560376585 -0.0149809364229 0.069903075695 0.0165678970516 -0.0163622871041 0.0435974895954 -0.0696932822466 -0.0448587462306 -0.0581972263753 -0.0135415233672 -0.0349046848714 0.00356304412708 -0.0242787804455 0.00982931721956 -0.0743703171611 0.0149868614972 -0.0647385045886 
texture -0.0747943818569 -0.0429433695972 0.000644977379125 0.0238042902201 -0.0143198426813 0.0347473062575 0.0331895016134 -0.0185057781637 -0.000903679814655 0.0447170548141 0.0591853968799 -0.0282522868365 0.0145741561428 0.0143535127863 0.0147423231974 0.0698526576161 -0.0278985649347 0.020311543718 -0.0201561767608 -0.0291604883969 0.0258930176497 0.00355212227441 -0.0274023171514 0.0296728461981 -0.0115034431219 0.0245018545538 0.042099326849 0.0232945270836 -0.0434701219201 -0.0251223519444 -0.000360238336725 0.0226913671941 0.0371460989118 -0.029663534835 0.0413821823895 -0.00784133095294 0.0464882440865 -0.0292557720095 0.0378355421126 -0.0476792939007 0.0427718572319 -0.005675396882 0.00437517883256 -0.0507715903223 0.0100267641246 0.0310390647501 0.0282496511936 0.00365767488256 0.0382807403803 0.0186881106347 0.0227476879954 -0.005122249946 -0.0456253699958 -0.0307095255703 0.0182369351387 0.0276717692614 -0.0512622483075 -0.0135557809845 -0.0101596191525 0.0536741875112 -0.00303040421568 0.00496917357668 0.0235301069915 -0.0265885218978 0.0200282316655 -0.034399677068 0.0338266268373 -0.0404117517173 -0.00151733402163 -0.0450251512229 0.000824788876344 0.0133951017633 -0.0499995201826 -0.0315293595195 0.0431943722069 -0.00736264605075 0.032088149339 -0.0233039464802 0.00402725394815 -0.0375369675457 -0.03446367383 -0.0604132078588 0.0203343182802 0.0709449499846 0.000439209165052 0.00657446449623 -0.0145705472678 -0.0132954306901 0.0399148985744 0.0273643620312 0.0330000072718 -0.00688995560631 0.0623202174902 0.0265304241329 0.0307542011142 -0.0381493009627 -0.00953708495945 -0.0220813360065 0.0394330844283 0.0388463810086 
was -0.0247491467744 0.0157065223902 0.0456515513361 0.041647836566 0.0100389095023 0.0123406341299 -0.0541051439941 0.0782068744302 0.00331744644791 -0.0466913357377 -0.0542344599962 0.0116762248799 0.0410526059568 -0.0340121984482 0.0429409891367 -0.0240739770234 0.0142741175368 0.0261870548129 0.0522863306105 -0.0290007777512 -0.0376961939037 0.0180425811559 0.062965169549 0.000837418308947 0.0253880638629 -0.0347924418747 0.0125072486699 -0.032123696059 0.0522684827447 0.0476458482444 0.0202223602682 0.023312876001 0.0173056926578 0.0432196967304 9.85053848126e-05 0.00531005533412 0.00360158202238 0.0228500664234 -0.00222535454668 0.0119758863002 -0.00895000435412 0.0238011460751 0.0316953919828 -0.0453836880624 0.04812123999 -0.0155294444412 0.0281941704452 0.0374708548188 -0.0402174666524 0.010353862308 0.0197922103107 -0.0222580656409 0.000420311436756 0.0107966801152 -0.0183275397867 -0.0414614379406 0.0688329041004 -0.0248757768422 -0.0110943578184 0.0464065000415 -0.0157366544008 0.00929711945355 0.0193361453712 -0.0327112413943 -0.0180315021425 -0.0561011210084 0.0477910153568 0.0207109563053 -0.0090715335682 -0.0170085169375 -0.0246678330004 0.00464118923992 0.0614268407226 0.0236997548491 -0.0393747165799 0.0500359982252 -0.000553862017114 0.00883521512151 -0.0658702105284 -0.0187250562012 -0.0417031757534 -0.034274045378 -0.0141667211428 -0.0537643544376 0.0443202294409 -0.0355315171182 -0.0499674379826 -0.00135884329211 0.0569401085377 0.0416871793568 -0.019326640293 -0.0549084283412 -0.0430082567036 -0.022133063525 -0.00216299667954 0.0428619608283 -0.00487041985616 -0.039116717875 0.0374819599092 -0.0408105067909 
just 0.0852920114994 -0.0192540995777 0.0362357497215 -0.00154441909399 -0.0444244146347 -0.0566290952265 -0.0440292134881 -0.0649982690811 0.0150809474289 -0.0284953825176 -0.082035921514 -0.0823516845703 -0.0157720372081 -0.0387999974191 0.00946068949997 -0.0674609169364 -0.00661986600608 -0.0581540167332 -0.00569264637306 0.0679072141647 0.00227024545893 -0.000424223690061 0.0646103098989 0.0379456058145 -0.0144268544391 -0.00682076485828 -0.0532987117767 0.0668166130781 -0.0341263562441 -0.0177493970841 -0.0153872473165 -0.00670215114951 -0.0491196364164 0.0425690226257 -0.066976852715 0.00679206429049 -0.0723899528384 0.0017965399893 0.0527300164104 0.00798147730529 0.00885987281799 0.0528120547533 -0.0392340682447 -0.0134649220854 -0.00842650607228 -0.016557238996 -0.104174494743 -0.0760566368699 -0.0613708868623 0.0292112063617 -0.0170846320689 0.0274182148278 0.00625080289319 0.0499484613538 0.0668439045548 0.0631178915501 -0.0498065501451 -0.0196004230529 -0.0260674580932 -0.032480314374 -0.0189121551812 -0.0506780818105 -0.0700786933303 -0.00152372464072 -0.0626200288534 0.0548046156764 2.86347731162e-05 0.0337550267577 -0.0393392704427 -0.0333655029535 0.110918477178 0.012447476387 0.0174485873431 -0.00540459435433 -0.00017391583242 -0.00916339084506 -0.10791067034 -0.0531310588121 -0.00655630417168 -0.0914678126574 -0.0190439373255 -0.00143057480454 -0.095126695931 -0.0594002641737 -0.00512953242287 0.0597395785153 -0.0465328022838 0.0221519730985 -0.00672580581158 0.0349828898907 -0.0311733856797 -0.0511678978801 -0.0945198908448 -0.0118915336207 0.0921047627926 -0.0127618461847 0.0278775878251 0.0384731478989 0.0346782058477 -0.0277776438743 
nasty -0.0289736893028 0.0546032190323 -0.0382143631577 0.0599380880594 0.0270348992199 0.0462552607059 0.0615651085973 -0.0117317382246 0.0653903931379 -0.00122241163626 0.0641435980797 0.00128854520153 0.0705559775233 -0.0541280396283 0.0296875350177 -0.00176696409471 0.0826712921262 0.0403664149344 0.038671631366 -0.0785237401724 -0.00849647633731 -0.00596263539046 0.00639997748658 -0.0264676623046 0.00206516939215 0.00173263228498 -0.0807886049151 0.0498762875795 0.00337203964591 0.0219909101725 0.0616832226515 0.00243076705374 0.0600968934596 0.051322620362 -0.0484944880009 0.00129697448574 -0.00546631682664 0.00129019585438 0.0102908946574 0.0126861250028 0.0547727420926 0.0139972874895 -0.0148421255872 -0.0502462163568 -0.00769426533952 -0.0248523000628 0.0406686998904 0.00529520772398 -0.0108369393274 -0.0431492440403 -0.0330183058977 -0.0495187453926 0.0483591109514 -0.0344323702157 -0.068128965795 -0.0767025128007 0.0723324194551 -0.00535126309842 0.0536074899137 0.0569901056588 0.0168199986219 0.0455880388618 0.0808890536427 -0.00468151364475 0.0205841250718 -0.0460224971175 -0.00623466307297 -0.0653777718544 0.00615576282144 -0.0386576354504 0.0261972732842 -0.0110614588484 -0.0544961839914 -0.0123789692298 0.0754385739565 0.0418239943683 0.0728046372533 0.0105160996318 -0.021873889491 0.0781514942646 -0.0268746782094 -0.017540410161 -0.00958528276533 0.0198750570416 0.0433809496462 -0.0574200898409 -0.00480558909476 0.00531978067011 -0.0269535090774 -0.0732653439045 -0.00458056945354 0.0244276057929 0.0343950875103 0.0151782827452 0.0431522876024 0.0634650737047 0.0640181452036 0.0262146685272 0.0487477332354 0.0381166525185 
stopped 0.014100657776 0.0203237421811 0.0672158077359 0.00193202716764 -0.0538976043463 -0.0468894541264 0.0462050661445 -0.0559746436775 -0.00860740337521 0.0481779016554 -0.0301719345152 -0.0441057495773 -0.0741231292486 0.0118571585044 -0.0183834526688 -0.0720893740654 -0.00980460178107 -0.061814699322 -0.0785910189152 0.0244752261788 0.00823143683374 0.0114398822188 -0.00945396628231 0.0146956732497 -0.0155391050503 -0.0486352816224 -0.0382087379694 -0.00572802731767 -0.0328751914203 0.0178186427802 0.0318077504635 -0.0291371438652 0.0082431724295 -0.00526970624924 -0.004115909338 0.0468467250466 -0.0276488773525 0.0367871001363 0.0336841084063 -0.0130853932351 -0.0492423921824 0.0381820611656 -0.0675312951207 0.0152524085715 -0.0585681758821 0.0360973551869 -0.0255783479661 -0.0203029792756 -0.0468364618719 -0.012338670902 -0.00736646912992 -0.0353627093136 0.00352275487967 0.0712917745113 0.0429222434759 -0.0348304919899 -0.0684328526258 0.0409146137536 -0.0526302717626 0.015180262737 0.0193293932825 -0.0412325076759 -0.0670601055026 -0.0498749725521 -0.049803994596 -0.0218750983477 -0.0409738123417 0.0342266559601 -0.0203591864556 -0.0384660251439 0.0282121822238 0.019678954035 0.0360629409552 -0.0348384864628 -0.0411337912083 0.00804292969406 -0.0470429621637 -0.021603571251 0.0153315691277 -0.0572186261415 0.0665313526988 0.0583393611014 -0.028949432075 -0.0182826332748 -0.0562020726502 -0.00626340322196 -0.0584420748055 0.00896433461457 -0.0343570746481 -0.00660858256742 -0.0247731804848 -0.0103623690084 0.00586916320026 -0.00922952778637 0.0136068733409 -0.00389263522811 -0.0105856899172 0.0724945068359 -0.0191195439547 -0.0101104704663 
by -0.0136650167406 0.0390933565795 0.0728032141924 -0.0230953916907 -0.00936218071729 -0.0445469804108 -0.04432689026 0.0222691260278 0.0103747053072 0.0482174046338 -0.000331632007146 -0.00290150078945 0.0219742506742 -0.00987552478909 0.0284641571343 -0.0146784074605 -0.0498207062483 -0.0382992103696 0.00728861289099 0.056991558522 0.0229566954076 -0.00510715134442 0.0202203951776 0.0228572953492 -0.00760673219338 -0.0508412048221 0.00320473569445 0.0273075271398 0.0385770536959 0.0256314836442 0.00181696098298 -0.00607197824866 0.0304112229496 0.0474320240319 0.0159914419055 0.0276687256992 0.0216929893941 0.0602981522679 0.0333658643067 -0.0385712124407 0.00115531822667 -0.000534989754669 0.0156455803663 0.0236850641668 0.0198788736016 0.000119455165986 -0.0519785918295 -0.0576656498015 0.00167329679243 -0.0194317344576 -0.0257546808571 -0.0159518942237 -0.0146109191701 -0.0296076554805 -0.020511187613 0.00105383247137 -0.0209446232766 0.00184647354763 -0.036514673382 0.026643820107 0.0013531766599 -0.0573588311672 0.0186020825058 -0.0237008538097 0.0213298331946 -0.0135094318539 -0.0314283370972 -0.0217377785593 -0.0143601531163 -0.0396867208183 0.0562992095947 -0.00203404505737 -0.00156029255595 -0.0404989942908 -0.037827193737 -0.036204803735 -0.0159482695162 -0.029751740396 -0.027065359056 -0.0523240640759 0.0680081322789 0.0451422147453 -0.0298972204328 -0.046384498477 0.00995886605233 -0.0281870160252 -0.0103375082836 -0.00204757903703 0.0277535524219 -0.00548202823848 0.0506373271346 -0.068374581635 -0.022368663922 -0.0137965623289 0.0208343528211 0.00556902401149 -0.0336382612586 0.0208199527115 0.0388186946511 -0.0501991100609 
during 0.00872368272394 -0.00759956194088 0.0283330716193 0.0529344379902 0.0398406758904 -0.060884334147 0.0420910902321 -0.0367003008723 0.0503800176084 0.0420388653874 -0.0318745300174 0.0457844622433 0.0120631847531 -0.0468005314469 0.0228187032044 -0.032033700496 -0.00253054010682 0.00484384549782 0.0375660248101 0.022569404915 0.0221907049417 -0.0145151950419 -0.0265297181904 -0.0272012855858 -0.00691281165928 -0.00762160075828 0.00211182748899 0.0359110049903 0.0284816212952 -0.0138313360512 -0.0340154767036 0.0692956373096 0.00738982018083 0.020587079227 -0.00322807161137 0.00242144078948 0.041018884629 0.0104736750945 0.0129036456347 0.0530294626951 0.0607809126377 0.066451497376 0.0229367315769 -0.0103958239779 0.0506430193782 0.0620589442551 0.00488275568932 0.013388954103 -0.0453065820038 0.0425021573901 0.0107058165595 -0.0231001209468 0.0427738688886 -0.0539730601013 -0.0316535308957 0.0409858338535 0.00482171727344 -0.0422896817327 -0.0438259691 0.0233913268894 -0.0220100693405 0.062582269311 -0.0436191149056 0.0151688000187 0.0183829236776 -0.0207250751555 0.037767753005 0.0612116232514 0.0184632465243 0.0355866774917 0.0678706616163 0.00888446345925 0.0442040748894 3.73095535906e-05 -0.0458857826889 0.0375538989902 -0.0257610771805 -0.0708565935493 -0.0335939712822 0.0668821409345 0.0181354619563 -0.00197699572891 0.024159533903 -0.0128161674365 0.057722914964 -0.0142870042473 0.0546869039536 -0.000461833784357 -0.0189979542047 0.0441275089979 0.00417225342244 -0.0109057957307 -0.0190124008805 0.0501943193376 0.0605070888996 0.033113244921 -0.0589495822787 0.0610309429467 -0.0204943828285 0.0181572195143 
late -0.0145946415141 0.00956637971103 0.043317116797 -0.0365750528872 -0.0153754167259 -0.026574390009 -0.0509956777096 0.0359575301409 -0.0303019955754 0.0488104335964 0.0249436572194 0.0396119579673 0.00861173961312 0.0467876903713 0.0234236232936 0.0219915900379 -0.0202146358788 0.0325911343098 0.0409824959934 0.0473086424172 -0.0216092187911 0.0510142371058 0.0420155152678 0.0532316602767 0.00469334702939 -0.0173344314098 0.0479214005172 0.0280877631158 -0.0161950532347 0.0151850963011 0.0139890285209 -0.00593503098935 -0.0538288764656 0.0687328651547 0.00611135084182 0.0194538235664 0.00190517434385 0.00173856236506 0.0376201309264 0.0402827784419 -0.0365186929703 0.0717528611422 0.00549488142133 0.00847257860005 -0.0259452629834 -0.0313804782927 0.0298442300409 0.0151932891458 -0.00247671524994 0.0311648882926 -0.0303581375629 -0.0241108387709 0.0197628866881 -0.00230144150555 0.0108428588137 0.0293039977551 -0.0233808793128 -0.0417965911329 -0.0459284670651 0.0198362395167 -0.0369294583797 -0.00150530494284 0.00162964966148 -0.0124206105247 -0.0559760481119 -0.0268659275025 0.0255047734827 -0.0259910672903 -0.0358474180102 0.00430378178135 0.0705950260162 -0.0677690654993 0.00402058754116 -0.0289474520832 0.00262124859728 -0.013936156407 -0.0575377009809 -0.0163490455598 -0.0335170440376 0.00452947523445 0.00266455183737 -0.00220966525376 -0.0200545862317 -0.0422008223832 -0.0189845133573 0.0236140005291 0.0186232496053 -0.0418680198491 -0.0400494635105 0.0219067782164 0.0128470864147 -0.0573225915432 -0.0478245653212 -0.00414444878697 0.0283878557384 0.00343257747591 0.000479286100017 -0.00755745731294 0.0290284287184 0.026428218931 
may -0.0173566285521 0.0267768353224 0.0244935490191 -0.0331021882594 0.00905663333833 0.0140056330711 -0.0311584733427 0.00151270034257 0.014078062959 0.0629939511418 -0.0464107617736 -0.0447142645717 0.024022705853 0.0171767491847 -0.00353491841815 -0.0137762092054 -0.0301882438362 -0.00437250360847 -0.0201488286257 0.0447926074266 -0.0666437447071 -0.0325881503522 0.040708988905 -0.0211842022836 0.0314538739622 0.0181542783976 0.0224677175283 0.0295629333705 -0.0633335188031 0.0126321678981 -0.0270781368017 0.032587684691 -0.0327905714512 0.00373899610713 0.0175743941218 0.0564801059663 0.00347054353915 0.00793008692563 -0.0284046959132 -0.0341374613345 -0.0410153120756 0.0693167895079 -0.0218517445028 -0.0244196336716 0.0158646143973 -0.00181435339618 0.0140924472362 -0.0610635392368 -0.0173333268613 0.0204565580934 0.0623606853187 -0.0405219681561 -0.0716010257602 -0.0122561482713 0.0736989155412 0.0303326286376 -0.0604616589844 0.0420294888318 -0.0404477193952 -0.017396884039 0.0220775194466 0.0190989393741 0.0341296121478 0.0275090206414 0.0316326059401 -0.0306898448616 0.0196829233319 -0.0397777110338 0.00630483636633 -0.0220083594322 -0.0376702100039 0.0231664534658 0.0546782501042 -0.00501900864765 0.0201919898391 0.0203973371536 -0.0418839342892 -0.0367513634264 0.0340349636972 0.021841796115 0.00642224773765 0.0440428517759 0.00350926164538 -0.0195022914559 -0.0336781106889 -0.0260457228869 -0.0148512627929 -0.0403283238411 -0.0183791145682 -0.00249555660412 -0.0325267761946 -0.0121118444949 -0.04227681458 -0.00674097752199 -0.0129323238507 0.0307328775525 -0.005249673035 0.0489860922098 -0.0329881981015 -0.00143658113666 
bank 0.0364798977971 -0.00876412075013 -0.051522128284 -0.0252955891192 0.0309677589685 0.0407027304173 -0.00265289982781 0.019602091983 -0.0411056876183 0.0354854092002 -0.0120335323736 -0.059048615396 -0.0701967179775 -0.0280477181077 -0.010028205812 -0.0360948368907 -0.00357728148811 -0.0511857643723 -0.0643436834216 0.0394592732191 0.0365894027054 0.0429863706231 -0.0165945570916 -0.0157730672508 -0.0526603870094 -0.00892450753599 -0.0364617332816 0.0497486628592 -0.00569139048457 0.0149775836617 0.00564881181344 0.0170812085271 -0.0075247338973 -0.0321703888476 -0.0336523167789 0.0664925351739 -0.0316538624465 -0.0260551348329 -0.0352914258838 0.0191346947104 0.0334312580526 0.0607074573636 -0.00369173684157 -0.0257971845567 -0.0141398953274 -0.0317453853786 -0.0448983199894 -0.000712850014679 0.0191516000777 0.0518135912716 -0.0289176981896 -0.00850095320493 -0.0556566156447 0.0694349855185 0.0509240143001 -0.0163922924548 0.0312467534095 0.0337795615196 -0.0555905215442 -0.0122764967382 0.018721178174 -0.0269054844975 -0.058514457196 0.0100618330762 -0.0669431760907 0.0545363537967 0.0102176414803 -0.00715592363849 -0.0739996805787 0.00548939872533 0.0690004453063 -0.0282734688371 0.0298301912844 0.0409631058574 -0.0452039577067 -0.0245041251183 0.0198523905128 0.0232809260488 -0.045789975673 -0.0166755318642 0.00819652993232 -0.00594823341817 -0.027331629768 0.0209258962423 -0.0457033924758 0.0073889545165 0.0263000372797 0.00645768502727 0.0260579548776 -0.0203150324523 0.0368230342865 -0.0632553547621 -0.0506496764719 0.0125782564282 0.0359812527895 -0.0539380311966 0.0420273840427 0.0253088716418 -0.00506299268454 0.0389593020082 
holiday 0.0676529183984 0.0162852350622 -0.00281106308103 -0.0306547917426 -0.000557864783332 -0.0150156663731 -0.0505418404937 0.0228493642062 -0.0193342529237 -0.0362185947597 -0.0473301336169 -0.000833490223158 -0.00570065481588 -0.0152567271143 -0.0297690052539 0.00876502506435 0.0145455934107 -0.0562234483659 0.0336007624865 -0.0368849895895 -0.0255686677992 0.056042265147 0.00469558499753 0.0411896146834 0.0141090760008 -0.0168509390205 0.0447361432016 -0.0223946273327 -0.0542244166136 0.0491145402193 -0.0278357584029 0.0304583888501 -0.0291204247624 0.00682635931298 -0.0017472585896 -0.0140333790332 -0.0377523377538 0.0295868963003 0.0495861805975 -0.0357496477664 -0.00290107890032 -0.0527820661664 -0.0277296062559 0.0060714748688 -0.031752359122 0.0192430280149 -0.00188361888286 -0.0352735184133 -0.0188111923635 0.0377841405571 0.0479971244931 0.0536169297993 -0.039061460644 -0.0417252629995 -0.00304193468764 -0.0153324473649 -0.0545367784798 -0.00082009419566 0.0210010632873 -0.0446578748524 0.0073331692256 -0.0393727943301 -0.00927155185491 0.0412558913231 -0.00118665641639 0.00456377258524 -0.0560835301876 0.0384708307683 -0.0521214976907 0.00581830507144 0.0125561691821 -0.0293978899717 -0.0183384381235 0.0304325371981 -0.0215151701123 -0.00676643894985 0.0247982218862 0.0584869757295 0.0247046295553 -0.0208538919687 -0.00350162177347 0.0484303086996 -0.0286091044545 0.0271432250738 -0.056440345943 0.0305782705545 -0.0300798546523 -0.00453252112493 0.0683866217732 -0.00820002797991 -0.0507800653577 -0.0429002419114 -0.0423380658031 -0.0226900577545 -0.0538708157837 -0.0104688424617 0.0396358519793 0.0384599193931 0.00817729067057 0.00738037610427 
off 0.00174358393997 -0.0314426645637 0.0282897278666 0.0414730459452 0.04042692855 -0.00600640336052 0.0492032170296 -0.0530776157975 -0.0183222126216 0.0190979465842 0.0250002481043 0.0501653589308 0.056007899344 -0.0504185706377 0.0585131645203 0.0288380328566 0.061547100544 -0.0144179351628 0.0200089327991 -0.00563309434801 -0.0288932342082 -0.00411577569321 -0.0210518762469 -0.0460983514786 0.0392608828843 0.0696793273091 0.0235957950354 -0.00382858654484 0.0455915518105 0.0206089131534 0.00557905668393 0.00330605264753 0.0501014441252 -0.0177553966641 0.0073801795952 -0.0209485702217 -0.0351396091282 0.014108360745 0.0232818294317 -0.00854529161006 0.0379515402019 -0.0584986023605 -0.0193643718958 -0.0241702608764 0.00266458815895 0.0590430907905 0.0631233081222 0.0472036935389 -0.0298424735665 0.0328211262822 0.0298707783222 -0.0499420911074 0.0433277450502 -0.014202634804 -0.0674483552575 0.0432743802667 0.00661799544469 -0.0459114648402 0.0168891046196 0.014269316569 -0.0331383012235 0.00805953145027 -0.0197855867445 -0.0077026039362 -0.00228426419199 -0.0134407309815 -0.0198939554393 -0.0179769359529 -0.0223348494619 0.0112322447821 0.0365362130105 0.0173438675702 -0.0426476895809 -0.0218692943454 0.049790866673 0.01430622302 0.0353310033679 -0.0094689829275 -0.0421422794461 0.053911074996 -0.000122142984765 -0.0500797405839 0.0590005777776 0.0447267629206 0.0324352681637 -0.0235984101892 -0.0189043618739 0.0424750633538 -0.0299856737256 0.0296219103038 -0.0059606754221 -0.0176732782274 0.0375537388027 0.0553323701024 -0.0368510335684 0.0112189054489 0.0375726781785 0.00850701145828 0.0450447387993 0.0369475707412 
rick 0.0461324267089 -0.0422031618655 -0.0667003318667 -0.0238545183092 -0.0361742600799 -0.00483379513025 -0.0384737625718 -0.000166757701663 0.0146593553945 0.0281683336943 -0.026712378487 -0.0234845262021 -0.0260917171836 0.0471233688295 0.0237136185169 -0.000544140348211 -0.0193092152476 -0.003873961512 -0.0462294444442 -0.0405967272818 0.0383950322866 0.0640398710966 0.0215276367962 -0.00625384133309 -0.063450910151 0.00164232845418 0.0605761483312 -0.0292189009488 -0.0507677160203 0.0282857026905 0.0374816730618 -0.0160215720534 -0.0608613453805 -0.0188036970794 -0.0476862341166 0.0342707261443 0.00194132328033 -0.0196137074381 0.00451350212097 -0.0459440648556 -0.0340132638812 -0.0180719047785 -0.0624624527991 -0.0203093849123 0.00946144666523 0.00408190209419 -0.0526916198432 -0.0444874167442 0.0381688587368 -0.0223306752741 0.0237728524953 0.00403572106734 0.0263179577887 0.0072600976564 0.0100758653134 -0.0146164642647 -0.0355016998947 0.00802761316299 0.0218465346843 -0.0230186246336 0.00718190148473 -0.0392417572439 -0.0261148680001 -0.0024432875216 0.000941641977988 0.036361861974 -0.00301498523913 0.00992199778557 0.0460496656597 -0.0219785068184 0.0372088551521 -0.0263324547559 0.0383862741292 0.0238925665617 -0.0590258873999 0.000127518826048 -0.0305884033442 -0.005874206312 0.0183527432382 0.0251920968294 0.0510314442217 0.0143711920828 -0.0703243091702 0.0149728273973 -0.0642330348492 -0.0204336754978 -0.0152318980545 -0.0466432981193 0.0339926034212 -0.00920681655407 -0.0281358994544 -0.00138941733167 -0.00514328572899 -0.0227147713304 0.0302680302411 -0.0165489092469 -0.0199750214815 0.019269220531 -0.0124961314723 -0.0156730338931 
steve 0.0238671507686 -0.0267198290676 0.0481853671372 -0.0532586500049 -0.0252473689616 -0.00699486769736 -0.00288599147461 -0.00496027246118 0.0213606860489 -0.00736090308055 0.016367694363 -0.0700731948018 -0.0615483224392 -0.0341450572014 -0.0300881993026 0.0377364121377 -0.0338526815176 -0.0213953442872 0.0134541848674 -0.0357479192317 0.0292020067573 0.00248444196768 0.00274304230697 0.00179683812894 -0.00379732297733 -0.0424848981202 0.00342525541782 0.0223498865962 -0.0279916599393 -0.0204914659262 0.0244188923389 -0.00534439692274 -0.0152422282845 -0.0329265408218 0.0315602570772 -0.00326652103104 0.00874746218324 0.0209751836956 -0.0201180484146 0.00996986869723 0.0177006851882 0.0380841754377 -0.0365377292037 0.0623313635588 0.0352318435907 -0.00566528365016 0.0210917331278 0.00253213127144 -0.0199477523565 -0.0383352674544 0.00755801144987 -0.0200821608305 -0.0506486967206 0.0246932525188 -0.0264753103256 -0.0205611046404 0.0212550889701 0.0532250888646 -0.0352428667247 0.00117254722863 -0.0505192726851 -0.0342905782163 -0.0160063691437 0.00700339302421 -0.017765969038 -0.0379124060273 0.074570864439 -0.0318870134652 0.00772736594081 -0.00325701595284 0.0234845262021 -0.0223939213902 0.00369015522301 0.0680083781481 0.0359727069736 -0.00792042259127 0.00636339839548 -0.0394413843751 -0.000105018974864 -0.0403769426048 0.0291379727423 0.0441916845739 0.0121454950422 -0.0352939553559 -0.0564031153917 0.00252487859689 -0.00606069620699 -0.038925010711 -0.00916035380214 -0.0279988255352 0.0104764979333 0.047541167587 -0.0042955679819 -0.0110149141401 -0.0419280417264 -0.0491626337171 -0.0214489903301 -0.00111863552593 -0.0209529213607 0.00305971316993 
recommendation 0.000490284699481 0.0293909367174 0.0174558199942 -0.00352754117921 -0.0495110303164 -0.074870981276 -0.0361888892949 -0.0169746372849 -0.000107799605757 0.00422435859218 -0.00786363054067 -0.00994975492358 -0.0501220971346 0.000348435714841 -0.00663691945374 0.00077415589476 -0.0191463213414 -0.0557539276779 -0.0608790107071 0.00354860560037 0.0409870743752 -0.013764526695 -0.028165737167 -0.023164363578 -0.048007208854 -0.0136402025819 0.0821499377489 -0.0309380460531 -0.0476045235991 -0.0203950256109 -0.0375581718981 -0.0351275615394 -0.0366379134357 -0.0257914122194 -0.0677453204989 -0.00980948843062 -0.0499752797186 0.0118503253907 0.025860702619 -0.0499589145184 -0.0238947421312 0.0248481798917 -0.0035401196219 -0.0211972799152 -0.0387043952942 -0.0119618074968 0.0348441079259 -0.0369782708585 -0.00556196039543 0.0189081225544 0.0295604206622 0.0114960847422 -0.0225698165596 0.0153755601496 0.0751958340406 0.0476244874299 -0.0151262003928 0.0646469593048 0.0120981698856 0.0246347095817 -0.0405561774969 -0.0533775053918 -0.060440517962 -0.0297345519066 -0.0781826004386 0.0073229870759 0.0448673702776 0.00653162132949 -0.0194732714444 -0.0460249781609 0.0364706516266 -0.00878857448697 0.0335069186985 0.0197567548603 -0.0830597057939 -0.0615541785955 -0.0115636978298 -0.00696442835033 -0.0412361957133 -0.0869604200125 0.0174473654479 0.0518389008939 -0.0439217537642 -0.0474208146334 0.00686542410403 0.00680621620268 -0.0126331970096 -0.0159247927368 0.0280687306076 0.00834463443607 0.0294594485313 -0.0565791726112 -0.00841107498854 0.00193411961664 0.0103697460145 -0.0753292515874 0.0254015475512 0.0288470219821 -0.0106491409242 -0.00402235472575 
it -0.0129153095186 -0.0253298263997 -0.0446062646806 -0.0403244867921 -0.0130291385576 -0.0135879805312 -0.00565068237484 -0.0145087838173 0.00264404644258 0.03095677495 0.00561807490885 -0.0317744314671 -0.0439675860107 0.0543283037841 -0.0399332344532 -0.0147969070822 0.0402817241848 0.0329340323806 -0.00742379622534 -0.0288092736155 0.00859055481851 0.029790872708 -0.0517134480178 -0.00645731575787 -0.0617177262902 -0.00905645266175 0.0492152236402 -0.0141927143559 0.000673837086651 -0.0332915447652 -0.00889316853136 -0.0164585486054 -0.0288588479161 0.0199274551123 -0.0471089184284 0.00360077340156 -0.0813279077411 -0.0137923331931 -0.0280279647559 -0.0274069719017 0.0288781635463 -0.00740122096613 -0.0870242938399 -0.0251765586436 0.0227497629821 -0.00815810076892 -0.0272832103074 -0.0588749274611 0.0174428988248 0.0158370416611 0.0764349102974 0.00138249224983 -0.0247975904495 0.000365758111002 -0.00458969594911 -0.0493776239455 -0.027780925855 0.017585914582 -0.00176765862852 0.0317285209894 -0.00677355378866 -0.0198501721025 -0.0479774028063 0.0213311780244 -0.0371302440763 0.0723254159093 -0.0144303543493 0.00965516921133 0.0315717868507 -0.00671685487032 0.0067479358986 -0.0060702348128 -0.017218567431 0.0521343797445 -0.0849101245403 0.00882286857814 0.00555559620261 -0.00190264813136 0.0394851118326 0.0381468720734 0.0568434819579 -0.0273678917438 -0.0100240968168 0.0088878357783 -0.01191929169 0.0557791665196 -0.0196773950011 0.0275546051562 0.0378454178572 -0.0298069752753 -0.0728584080935 -0.0144671062008 0.0184853859246 -0.0690706521273 -0.0302778482437 -0.0289434995502 0.0121660800651 0.0154238138348 -0.0166801121086 -0.0178561452776 
selection 0.0118385860696 -0.00665625790134 -0.0154088810086 0.0615017861128 0.0191790480167 -0.0140928849578 -0.0296469312161 -0.0212501306087 -0.0488500222564 -0.0436085499823 -0.0565628558397 0.0167385507375 -0.00993125792593 0.0410586073995 -0.0108423177153 -0.0137059148401 0.00863290019333 -0.0469509735703 -0.0106360130012 -0.0305750221014 -0.0461097732186 0.0239574424922 0.00996561348438 0.0254076290876 -0.0286816637963 -0.00357396318577 0.0570001676679 -0.0405312217772 0.0358531288803 -0.0809984505177 -0.0362455658615 0.00777563126758 0.0209998562932 0.0423286929727 -0.0484029836953 0.0287271831185 -0.0275108646601 -0.0133861843497 -0.0285260286182 -0.0109725054353 -0.0232846643776 0.0308037418872 0.000213632258237 -0.0269355289638 -0.011289967224 -0.0241981428117 0.0163725987077 -0.03071491234 0.0254764351994 -0.0291096065193 0.00191094959155 -0.0119892209768 0.0143755767494 0.000757798552513 0.0272640287876 0.0108084371313 0.0622687935829 -0.0203476212919 -0.0442768484354 0.012316532433 -0.0056090769358 0.0136301219463 0.0434013344347 0.058420535177 -0.0398614183068 -0.0470475591719 -0.0452439934015 0.0138031607494 -0.0142338257283 0.0460858792067 0.027044352144 0.00716255232692 0.0439962930977 0.0725581049919 0.00841896608472 -0.0452717319131 -0.0413426011801 -0.0185671821237 0.0121108759195 -0.0262992866337 -0.00728344079107 0.0232175793499 -0.0183931421489 0.0442152433097 0.0464511886239 0.00716498773545 -0.0315881408751 0.0103459656239 0.000300066341879 -0.0560141950846 -0.00627724872902 -0.0279112029821 -0.0347871184349 0.0268511306494 -0.0387729518116 -0.00371947372332 -0.0503934584558 -0.00650340644643 -0.00994941871613 0.0164760239422 
on 0.00993848778307 0.00945001468062 0.0187969524413 -0.0230488497764 -0.00323470425792 0.00780710298568 -0.0303173866123 -0.042767547071 0.0109106507152 0.00149862770922 0.0134848607704 -0.00707305734977 -0.0172380078584 -0.00838043820113 0.0227936673909 -0.0319696292281 0.0042502200231 0.0265800990164 -0.0518469586968 0.0352882444859 0.0259374435991 0.0442821569741 -0.00229411339387 0.0154634704813 -0.024675315246 -0.0158453956246 0.0359997041523 0.0180585421622 -0.0575652197003 0.000294528232189 0.0369569845498 -0.0439416505396 -0.0734926238656 -0.0452239029109 -0.0119670266286 0.0410659424961 0.0401112735271 0.0448240935802 -0.0335403122008 -0.02879681997 -0.00520240142941 0.0419796556234 -0.0595390461385 0.0407536178827 0.00732384063303 0.00663592619821 -0.00709841353819 0.00862378440797 0.0110087739304 -0.00357453059405 -0.00417614588514 -0.00641849590465 -0.0170962419361 -0.029890563339 0.000690106127877 0.0260724052787 0.0215140655637 0.0218644179404 -0.03911870718 0.0137962624431 0.0258584357798 -0.010961282067 -0.00735238287598 0.0110522918403 -0.0341595299542 -0.00771016161889 -0.00110265484545 0.0477176494896 0.0130248488858 -0.0239348020405 0.0202204417437 0.0273044724017 0.0231132302433 0.0376139469445 0.0281051769853 -0.0575071759522 -0.0139827067032 0.0459561385214 -0.0444921739399 -0.0100465258583 0.0295301787555 0.0572695359588 0.0208835247904 0.00122147460934 -0.0316988416016 0.0632300525904 -0.0525135882199 -0.0308384224772 -0.0395861640573 -0.0234664343297 0.0338693633676 -0.0192242991179 -0.0478618219495 -0.033926513046 0.0637724176049 -0.0299180019647 -0.0469954498112 0.00893991719931 -0.0364077202976 -0.0341730006039 
menu 0.0435425676405 0.0504780523479 -0.027100360021 0.0274905171245 -0.0357669107616 -0.0123960068449 -0.00884632300586 -0.0449763312936 -0.0448273420334 0.0219473540783 -0.00568411685526 -0.0424751639366 -0.040066357702 0.0891311317682 -0.0405886098742 0.034307140857 -0.0531952492893 -0.0665664002299 -0.0488435737789 0.0511530153453 0.00228103459813 0.0354247391224 -0.00620280299336 -0.0276829507202 -0.024159591645 -0.0527402162552 0.0502089671791 -0.0242682658136 0.00182428653352 0.0498387478292 0.00339072057977 -0.01010161452 0.00357498880476 -0.014926886186 -0.0570387691259 -0.000812042446341 -0.0291895326227 -0.00333412084728 0.0395357944071 -0.0298637598753 0.00937251932919 0.00949696265161 -0.0379186086357 -0.0261144917458 0.0173824001104 -0.0569278523326 -0.0547930411994 0.00880252942443 -0.0168547425419 -0.0169012043625 0.0751348733902 -0.00781466718763 -0.0367948524654 -0.0169341377914 -0.040248721838 -0.0242217853665 -0.0498087853193 0.0195400845259 -0.0742552652955 -0.0429877378047 -0.0580564029515 -0.00117726321332 -0.00298748048954 -0.00963382422924 -0.0659242942929 0.00800899788737 -0.00535248313099 0.0452620498836 -0.00614474387839 0.0138459643349 0.0472030974925 0.021689357236 0.0426479391754 0.0145840616897 -0.0424945391715 -0.056836374104 -0.00371620012447 -0.0186207853258 -0.0381203591824 -0.0494714304805 0.0295766647905 0.0108288750052 -0.00253158039413 -0.0548091866076 -0.049143794924 0.0652379766107 0.0322938226163 -0.0302041266114 -0.000900789862499 -0.0159380994737 0.0209149494767 -0.0489750057459 0.0233996510506 -0.0537501610816 -0.0403283089399 -0.0692225322127 -0.0339113287628 0.0232703182846 -0.0108851501718 -0.0448926091194 
great 0.142912864685 0.0224906504154 0.0695320516825 -0.104022249579 -0.125255897641 -0.0171736124903 -0.0675137192011 -0.0615569986403 -0.0553495883942 -0.0262219775468 -0.14637182653 -0.0444265194237 -0.0943182185292 -0.0461586043239 -0.0401996336877 -0.109262339771 -0.0753078311682 -0.0909790694714 -0.131296038628 0.0450622662902 0.0941332727671 0.0984148010612 0.0323121249676 -0.0033773011528 -0.00364825478755 -0.0922028198838 -0.0375792048872 0.0836037024856 -0.075896166265 0.041491035372 0.00328335887752 0.0455674529076 -0.130759730935 0.0444962531328 -0.0774424523115 0.0263738054782 -0.0495649948716 0.138641580939 0.0885485708714 -0.0650319382548 0.0153517667204 0.0333759747446 -0.057933755219 0.0286882258952 -0.0415542237461 -0.0519040636718 -0.0250978171825 -0.139547049999 -0.0182480402291 0.0833133012056 0.00922740623355 0.026589859277 -0.0456849299371 0.0890139564872 0.0329018831253 -0.0691573247313 -0.0744720622897 -0.067256860435 -0.0938206389546 -0.0761259719729 -0.133968323469 -0.0406642258167 -0.0899347290397 -0.0748004168272 -0.0970014184713 0.116991691291 -0.0222977511585 0.118933059275 -0.0259958915412 -0.0528002679348 0.141377925873 -0.00685957632959 0.0127872675657 0.0235787257552 -0.122733645141 -0.0203723441809 -0.111053742468 -0.0565448626876 -0.00738570513204 -0.0689743384719 0.120155699551 0.106537260115 -0.104320243001 -0.0564694963396 0.0121021103114 0.0665481984615 0.0540498197079 -0.0265072453767 0.0177842583507 0.0852795913815 0.0197876337916 -0.0713535547256 -0.00689438777044 -0.0775576978922 0.0738045573235 -0.0984396189451 0.0339750647545 0.0135891195387 0.0505603663623 0.0100683541968 
so 0.0429851785302 -0.0294941980392 -0.0537275411189 0.000760990544222 -0.0305020306259 0.0169948618859 -0.000347553082975 0.00604799157009 -0.00190824992023 -0.0262274537235 0.0106394272298 -0.0611897557974 -0.0117971049622 -0.0219071209431 0.0193206183612 -0.059966608882 -0.0269538927823 -0.00427524186671 0.0324962548912 0.0477515533566 -0.068877518177 0.0136074004695 0.0700597390532 0.0240057576448 -0.00697777094319 0.0234883408993 0.0373321473598 0.0302780847996 -0.0224032253027 -0.0098982360214 -0.00911948736757 0.0019069648115 0.00725349085405 0.0413637422025 -0.014020184055 0.0338062793016 -0.0449839569628 -0.0154979526997 0.00714054703712 0.0225737262517 -0.00335699412972 -0.0418909788132 -0.0532510876656 -0.0447068475187 0.0327936857939 -0.024812059477 -0.0394278839231 -0.0572578459978 -0.0173043385148 0.0336632803082 -0.0166316665709 -0.0366184264421 -0.00834329146892 0.0656621754169 -0.0206835512072 0.0290287137032 -0.0475349761546 0.00452718883753 -0.0115340230986 0.0462803021073 -0.0225027129054 0.0289035476744 -0.0510058254004 0.0522204041481 0.00366138340905 0.0255884975195 -0.0114366598427 0.014994410798 -0.0373617038131 0.0791193842888 -0.00554219353944 -0.0158114079386 -0.0298519954085 -0.00377938617021 -0.0673168301582 -0.00563338818029 -0.0067218602635 0.00764541188255 0.00629472220317 -0.0207292437553 0.0278121121228 0.0423781909049 -0.021199574694 0.0294631831348 -0.0301710776985 -0.00408558640629 0.0238977950066 -0.011026205495 0.0540549345315 0.0273329392076 0.018656488508 0.0220601614565 0.025064310059 -0.0532479807734 -0.0220425780863 0.0520680621266 -0.0247551612556 -0.0552539341152 0.0303557664156 -0.0318849422038 
were 0.014250962995 0.00555401807651 0.0376909188926 -0.042636346072 -0.0446431525052 -0.048955719918 0.0268595032394 0.0107817901298 0.0350157395005 0.00734391575679 0.0243791844696 0.0328319333494 -0.00127165124286 0.030379505828 -0.0245325509459 0.0281591750681 0.00282686110586 0.0521134324372 0.0242401976138 0.0168193206191 0.0375866442919 -0.010604467243 -0.00513453641906 -0.0511730015278 0.0104704461992 0.0555975809693 -0.0366962552071 -0.060809276998 0.0166246630251 0.0165220145136 0.0259383749217 -0.00293582142331 -0.0351215340197 0.0853418186307 -0.0272302366793 0.0079214470461 0.0172349512577 0.0507474690676 -0.0311763994396 0.0454761385918 0.0287418290973 -0.016673328355 -0.0221961010247 -0.0154897151515 -0.0288323648274 -0.000619402970187 0.0227471273392 -0.0175251308829 0.00824578292668 -0.0453162044287 0.0236310642213 0.0242836140096 0.0524570420384 0.0199560169131 -0.0151112917811 0.00643422966823 -0.0183044523001 -0.0273267291486 0.0525826662779 -0.00996061973274 0.00892479345202 -0.00300765340216 0.0246588215232 0.00277234450914 -0.0286093372852 0.0274728219956 -0.0650459825993 0.00341012561694 0.0402493104339 0.0559401251376 -0.0518951378763 0.0413091666996 0.0224056784064 0.0362231172621 -0.0374019667506 0.000176886140252 -0.0360750220716 -0.022835386917 -0.0267184898257 -0.0176488831639 0.0424507148564 0.0120573146269 0.0163888931274 -0.0454617515206 -0.0317837782204 -0.0204601176083 0.0103985592723 0.0363939031959 0.0421111322939 -0.0818220153451 -0.00720925489441 0.00886743981391 -0.0215088576078 -0.0301868878305 0.0241854228079 -0.0231290254742 0.0161807462573 -0.000210865473491 -0.0120615595952 -0.00842841900885 
prices 0.0365143083036 0.0519749224186 -0.0357335694134 -0.00564620643854 0.00407931488007 -0.0159636549652 -0.061284519732 0.0250351950526 -0.0712669864297 0.0337233655155 -0.0645821169019 0.00208522262983 -0.0108770672232 0.00425118068233 -0.011225104332 -0.0652496218681 -0.0714214891195 -0.0685669034719 -0.0496247299016 -0.01098069828 0.0179805774242 0.0680878013372 0.0271874871105 -0.0469077192247 0.00760321784765 0.00514914654195 0.00893536489457 0.0112189631909 0.0176264084876 -0.0342653393745 0.00198284164071 -0.0739637538791 -0.0291719753295 0.0483437180519 -0.0509650371969 0.038360863924 -0.0713516697288 0.0683614239097 0.0354248583317 -0.0820147544146 -0.023382730782 0.0194441229105 -0.0255158171058 -0.0459331981838 -0.0602122172713 -0.0169179923832 -0.0149853853509 -0.0443393103778 -0.0616925619543 0.00399605557323 0.0255383756012 0.0270111132413 -0.0290764439851 0.0598537027836 0.00593356555328 0.067291483283 0.00915357097983 -0.0409422405064 -0.0344263166189 0.0323160812259 -0.0363919325173 -0.0431029386818 -0.0258662384003 0.035101313144 -0.0473124012351 0.0649366304278 0.0016953125596 0.061185695231 0.0335273295641 0.012867808342 -0.00131761538796 -0.00253705005161 -0.0523657910526 -0.0117327747867 -0.00173030933365 -0.0809854343534 -0.0543601736426 0.0343897454441 0.00864786095917 -0.0220046751201 0.073108099401 0.0301600843668 -0.0397654920816 0.00987809430808 -0.00303561147302 0.0758121758699 -0.0366528593004 -0.0277186855674 0.0512923561037 -0.00673711486161 -0.00156354915816 -0.011331521906 -0.00649992795661 -0.0522974953055 -0.0174976643175 -0.0373891703784 0.0353947468102 0.0397992692888 -0.0214533209801 -0.0562087148428 
now -0.012214765884 0.0203617252409 0.00754521228373 0.0343216210604 -0.00578036904335 -0.0263407658786 0.00666703376919 0.0500529669225 -0.0752025395632 0.0166473966092 0.0226469691843 -0.0384397320449 -0.0151222525164 -0.0212547034025 -0.0619531609118 -0.0216131433845 -0.00668910611421 -0.0562966018915 -0.0333088487387 -0.0424787439406 0.0495352521539 0.0256431698799 0.0386855192482 0.0462712310255 -0.0633825138211 -0.060397952795 0.0785855874419 -0.0703642815351 -0.0786991789937 -0.0331152305007 0.000263434863882 -0.000209269550396 0.0381991937757 -0.0510858856142 0.0270886402577 0.0643136948347 -0.0160446017981 -0.0079350033775 -0.0161160323769 -0.00501708500087 -0.00815466791391 0.0132677303627 0.0235019773245 0.0517365150154 -0.0372610613704 -0.0372020043433 0.00411366671324 0.0231084339321 -0.0364310517907 0.0191730447114 -0.0125893456861 0.0384545214474 0.00469752959907 0.00873914081603 0.0480374917388 -0.0194574631751 0.0491527281702 -0.0412558093667 -0.0464221686125 0.00604083947837 0.00453455932438 -0.0396684333682 0.00100671721157 0.0287302751094 -0.0222066268325 0.0119814388454 -0.0489496961236 0.0138367926702 0.000511307211127 0.0385297350585 -0.0342020019889 -0.0114230932668 -0.0129178641364 -0.0139551153407 -0.0447934642434 -0.0658403337002 -0.0491691976786 -0.00449680676684 0.0494348630309 -0.0502486601472 0.0473710186779 0.0186708401889 0.0140133108944 -0.0132033256814 -0.00512820342556 -0.0239757075906 0.0179255120456 -0.0422163642943 0.0214388724416 0.043647095561 -0.0185436345637 -0.0697390288115 0.0264564603567 0.0167541224509 -0.01530413609 -0.0245330464095 -0.0162609964609 0.0161690041423 -0.0022866781801 -0.0217735674232 
i -0.0290781725198 -0.0304299574345 0.048650033772 -0.0687753856182 -0.0197925642133 0.011040228419 -0.0631687790155 0.0763139352202 -0.0398239791393 0.0101901208982 0.00359376193956 0.0125014195219 -0.0381358005106 -0.0126690194011 0.0103604765609 0.00894605647773 0.0157918203622 -0.0138258766383 -0.0202326755971 0.0261084623635 -0.0380035825074 0.0226665008813 0.025759767741 0.0607523620129 -0.00239702058025 -0.00587759818882 0.0713983252645 -0.021379224956 -0.0544844083488 -0.0765583142638 -0.0583568550646 -0.0609915032983 0.0226448178291 -0.00416785152629 -0.010238465853 0.0360897816718 -0.000430545042036 -0.00729132024571 0.0152272153646 -0.00438568880782 -0.000162996046129 -0.0188697054982 -0.00674714753404 0.0497010946274 0.0254220701754 -0.0253354962915 -0.0237519238144 -0.0553625710309 0.0650743693113 0.0332754701376 0.0585275255144 0.0284967143089 -0.0303396526724 0.0523917898536 -0.00869785901159 0.0121320197359 0.0144239310175 -0.0223793778569 0.0361138507724 0.0342274419963 -0.00299337762408 -0.0296612530947 -0.00754363276064 -0.0085640437901 -0.000802859780379 -0.00286189117469 -0.030938886106 0.0307934619486 0.0479937009513 0.0365399308503 0.0280833169818 0.0309152472764 0.00696239992976 0.0152393411845 -0.0255221035331 -0.0441360138357 0.00974584091455 -0.0116572137922 0.0402819849551 0.0076178945601 0.0259255450219 0.0150169860572 0.0100148608908 0.0332476980984 -0.0180454105139 -0.0102565353736 -0.0501480065286 -0.0142747117206 -0.0268991496414 -0.0367027595639 -0.00285732629709 -0.0062804738991 0.00790462456644 -0.0400633327663 -0.0270343553275 0.0228396300226 -0.0347946472466 -0.0587986260653 -0.0730882957578 -0.00637125317007 
am -0.00388992973603 -0.0137123484164 0.00747098587453 -0.00582808256149 -0.0486651323736 0.0368911065161 -0.0214583668858 -0.00225265650079 0.0495777092874 -0.0558215864003 0.0300933886319 0.0645066350698 -0.00179330829997 0.000641243997961 0.0402373075485 0.0653967037797 -0.023076178506 0.0287011750042 0.00791685190052 0.0129804816097 0.0081482110545 0.0192467924207 0.00690425373614 0.0230238828808 -0.00945420749485 0.0193453095853 -0.0425426997244 -0.00957213155925 -6.00851235504e-05 -0.018841072917 -0.0336558818817 -0.0547080487013 -0.0221761297435 -0.00379733764566 0.0406703911722 0.0146882822737 -0.00689814705402 -0.028304675594 -0.0233789123595 0.0335045345128 0.0346349552274 0.00734153576195 0.00537253823131 0.0185255110264 0.0552034564316 -0.014218410477 0.0564620345831 0.0367180816829 0.0276408717036 -0.0601839050651 -0.0506569370627 0.00320022227243 0.0201257634908 0.0165612082928 0.0398608595133 -0.0467546284199 -0.022610662505 -0.0205999612808 0.0193235874176 0.0164648406208 0.0279291104525 0.0375795774162 0.00476198270917 -0.0153675936162 -0.037360612303 -0.0652112066746 0.0569672510028 0.018751880154 0.0634588375688 -0.045587349683 -0.020041808486 0.0427901893854 0.00332594919018 0.0393733717501 0.0604213625193 -0.0177633855492 0.0116392364725 0.0691198185086 0.012427167967 0.0268498938531 0.012798005715 -0.0319274514914 0.0409969501197 0.0463182702661 -0.00194034166634 0.00734753906727 -0.0371145829558 0.0257090870291 0.0122503759339 -0.0304925255477 -0.000428395840572 0.00986972358078 0.0535631738603 0.0290228072554 -0.0118211852387 0.0172707531601 0.0412088632584 0.0171188656241 0.0599160008132 0.0426726564765 
getting -0.0291544236243 0.0278910920024 0.0509395040572 0.0689007639885 0.0542633906007 0.0754321217537 0.0517929904163 0.0259586777538 0.0605451613665 -0.0144910281524 -0.00610988587141 0.0316891372204 0.00322206690907 -0.0335666760802 0.0842112079263 -0.00242576235905 0.0117152081802 0.0634080171585 0.0472674146295 -0.0638373419642 0.0272030513734 -0.0554230064154 -0.021739685908 -0.0185959655792 0.0681515038013 0.043620865792 -0.0315279327333 0.0545447207987 0.0798320621252 -0.00588835636154 0.0815276131034 0.0496052615345 0.0788053274155 -0.0542158596218 -0.0114658828825 -0.0244024787098 -0.0304576978087 -0.00661740079522 -0.0118901217356 0.00658433232456 0.0404590629041 -0.0727884173393 -0.00434426404536 -0.05419293046 0.0247905123979 0.0375238470733 0.0787090882659 0.0752203986049 0.0307608079165 0.00976908393204 -0.0227568540722 -0.0413538105786 0.0769513100386 -0.0236134491861 -0.0649026855826 0.00941661931574 0.00195928290486 -0.0260609090328 0.00851093698293 0.0708259269595 0.0527172572911 0.066777728498 0.0361328683794 -0.0152321346104 0.0630705282092 -0.0121413469315 0.0161644909531 -0.0159599632025 -0.0181074719876 -0.0105802612379 0.00221938849427 0.0698942318559 0.0336621589959 -0.072771333158 -0.00208568712696 0.0474097244442 0.00811800640076 0.0208871532232 0.0314401201904 0.0244961734861 -0.0131800388917 -0.013791706413 0.0190865024924 -0.0366253443062 0.0355266332626 -0.0419436581433 0.0287281982601 -0.00953374803066 -0.032129149884 0.020291922614 -0.0109102735296 0.0060122446157 0.0242174752057 0.0770488008857 -0.0172603651881 0.0297372210771 0.0591528862715 -0.0593532174826 0.0119779538363 0.0687901824713 
angry -0.0145765449852 -0.04641886428 -0.0638812035322 0.0638186559081 -0.00850319024175 0.0436822399497 -0.0157397352159 -0.00980252400041 0.0465926192701 -0.0446998365223 0.000218189597945 0.0441206358373 0.0145842917264 -0.0465510636568 -0.0102296844125 -0.00112566107418 -0.0120646925643 0.0222786329687 0.0293369162828 0.0190864987671 0.071086704731 -0.0727902129292 -0.0210250467062 -0.0426309593022 0.0298811104149 0.0292593427002 0.00618055975065 -0.0139541551471 0.0591392852366 0.00125392479822 -0.0184621401131 0.0588551014662 0.0403207540512 -0.0638602748513 -0.0264105927199 -0.0631156340241 0.00559498555958 -0.0456203259528 0.0383545905352 0.00972697511315 0.0290176197886 -0.0505501814187 0.0433918572962 -0.0644709989429 0.0592340752482 0.0488220304251 0.050716817379 0.0464228503406 0.063181899488 -0.0529717393219 -0.0606056451797 -0.00114696717355 -0.0159569028765 -0.0206778012216 -0.0636829659343 -0.0246167127043 -0.0140317082405 0.0631701275706 0.0244340673089 0.0476382784545 0.0281253885478 0.0142689459026 0.0604757964611 0.0295920036733 0.0183667428792 -0.0522424168885 0.0310448072851 0.010624948889 -0.0257665831596 -0.0530846118927 -0.00527171604335 0.0602272599936 -0.0294712986797 -0.0543739423156 0.0552243068814 0.0474142506719 0.0128081189469 0.00867180433124 0.0670177415013 0.0105226980522 0.021607035771 -0.0160127803683 0.00245767855085 0.00153308745939 0.0193482171744 -0.0594139657915 0.00145848467946 -0.0136423297226 -0.0225593391806 0.02775596641 0.0356519185007 0.049990862608 0.00274728727527 -0.0106877665967 -0.00457363622263 0.0107596991584 0.0640170872211 0.00982671137899 0.03079726547 -0.0170340761542 
want -0.0340049415827 -0.00305934040807 0.0407441519201 -0.0170694515109 -0.0395783670247 -0.0215170737356 -0.00442064506933 -0.0568623319268 -0.0120284352452 0.0310193467885 -0.0173726975918 -0.0468262583017 0.0258023105562 0.0171579644084 -0.0203048046678 -0.0177175290883 0.0354724228382 0.00540709169582 -0.0287887565792 0.0323454886675 0.026243371889 0.0829200893641 -0.069016829133 0.0633932799101 -0.0293467324227 -0.00231927726418 -0.0669588819146 -0.0539416894317 0.0432985983789 -0.0127505762503 0.0150155434385 -0.013280059211 -0.0413144119084 0.019679877907 0.0845798030496 0.0257386546582 0.0126935243607 0.0344579406083 0.0120098544285 -0.00586322322488 0.000184418095159 0.0239476040006 -0.0116124413908 0.000723903591279 -0.0447975769639 -0.0496050082147 -0.0111482068896 -0.0296972244978 -0.0744552761316 -0.0114758135751 0.015417387709 0.0259766802192 -0.0299319829792 0.00262153358199 -0.0367090366781 0.0575055107474 -0.0438364818692 0.00039504293818 -0.0552626848221 -0.058548733592 0.0174007769674 0.0361139439046 -0.00711853709072 0.0564129799604 -0.0325102470815 -0.0218847095966 0.0525748170912 0.0382577180862 -0.046867441386 0.0351515188813 0.0315312966704 0.0261258948594 0.0389221273363 -0.0307494122535 0.0148691432551 -0.0403982326388 0.0371173992753 -0.00565912760794 0.019611466676 -0.083455093205 -0.0110046919435 0.0266937948763 -0.00449573760852 -0.0699074566364 -0.0022893154528 0.0159284509718 0.0512596815825 -0.00517238024622 0.0360754877329 -0.00180688034743 -0.0300695542246 0.0102981440723 -0.0160637143999 -0.0203933753073 -0.0204021539539 -0.000438014481915 -0.0477713793516 -0.0316684655845 0.026102270931 0.0277000833303 
my 0.0165680646896 -0.000525485607795 0.0664369314909 -0.0463866703212 -0.0710251778364 -0.0207629483193 -0.0312270689756 0.031136604026 -0.0445767082274 -0.00971819553524 0.00137877406087 -0.0435146056116 -0.00485527468845 0.0427789352834 -0.0568307265639 0.0130063546821 0.0253824498504 0.0425722524524 -0.0611886531115 -0.0267458371818 -0.0103259244934 0.0735917016864 0.0558465458453 0.0875274688005 -0.0161312613636 -0.0432363376021 0.0560275316238 0.0530171953142 -0.00578779913485 0.035180862993 -0.0220534559339 -0.00452172476798 0.0186003260314 -0.0147691853344 0.00255009019747 -0.031793795526 -0.0543773174286 0.0454998463392 -0.00624836143106 -0.0469461530447 0.0432226248085 -0.00437328172848 -0.0359871461987 0.064626827836 0.027626818046 -0.0367600731552 -0.0548662468791 -0.0542867220938 -0.0113744456321 -0.0198173876852 0.0305411573499 0.0243394896388 -0.0460112206638 -0.000524453411344 -0.0401212610304 0.0329685881734 0.0226803645492 0.0522356964648 -0.0150509849191 -0.0259348452091 0.00570431910455 -0.0689700171351 0.00827642250806 0.0451639406383 0.0354490242898 -0.0119591457769 0.0386136844754 0.0306026898324 -0.0244023129344 0.03040368855 -0.0192555952817 -0.0292172804475 0.0646717473865 -0.00171923451126 -0.0168946124613 -0.0208903886378 -0.00529502239078 -0.0320359021425 -0.023960005492 0.0335005484521 -0.027400104329 -0.00546459015459 0.0117400316522 -0.0624979883432 -0.0242169648409 -0.0316845700145 0.00835400167853 -0.0681022703648 -0.0104431575164 -0.0418485216796 -0.0320286303759 0.01560249459 -0.0603535063565 -0.0551612339914 0.0297657251358 -0.0290887393057 -0.0163306035101 0.0107467509806 -0.0460690781474 0.0473845861852 
damn -0.00422818865627 0.00240099383518 -0.000731990206987 0.0116318911314 0.0660096332431 0.015139721334 0.084720633924 -0.0441052913666 -0.0126500492916 0.0480313040316 -0.0193636119366 0.00064810924232 0.050364356488 -0.0268753357232 -0.0233625005931 0.0286648534238 -0.00167967006564 0.0546817630529 -0.0241209696978 0.0101935425773 0.0399588756263 -0.0320272780955 0.0481991544366 -0.0454395636916 0.0473131164908 0.0630526691675 -0.0352113544941 0.0520965345204 -0.0321395620704 0.0309574939311 -0.039451032877 -0.0200498215854 -0.0339443311095 -0.0152818989009 -0.0086347674951 0.0330521129072 0.0534748882055 0.00950874853879 -0.0213041510433 -0.0467822439969 0.0186498071998 -0.0777247473598 0.0132644595578 0.0679493546486 0.0369317568839 0.0631809905171 0.0106430677697 0.0594423599541 -0.0592954941094 -0.0148008484393 0.0121630150825 0.00776733877137 -0.0276733767241 -0.00822650175542 -0.0180271770805 0.0354730896652 0.0564397014678 0.012466756627 0.0171585828066 -0.011280650273 0.0245416760445 -0.00946167483926 0.00632002390921 -0.0178398825228 0.0609048083425 0.00604081572965 -0.0485693924129 0.0020597781986 -0.0173346344382 -0.0366008915007 -0.0065009528771 -6.6017593781e-05 -0.0342402383685 -0.00722188455984 0.0489989556372 0.0280526597053 0.0178646743298 -0.0184120181948 -0.00557786459103 0.0844561085105 -0.024148311466 0.00704900594428 0.0660190135241 0.02038044855 0.0130205508322 -0.0100871743634 -0.0483014248312 0.0798400118947 -0.0504678040743 -0.0684510543942 0.0287310946733 0.0577261559665 -0.0172485411167 0.0354865007102 0.0506945252419 0.00317242671736 -0.00758014526218 0.0864704921842 -0.0605694763362 0.0440306961536 
pho -0.0508529804647 0.0101522626355 -0.0310015045106 0.0281244255602 0.0203406494111 -0.0119437724352 -0.00444218143821 0.00790165830404 0.060575876385 -0.0205788481981 0.00148997688666 0.0253890622407 -0.0185468867421 -0.0451540760696 -0.0385959707201 -0.0141759812832 -0.0206380151212 -0.0188232045621 -0.015734270215 0.00788430869579 0.0402960181236 -0.00495225889608 0.0471984110773 -0.0281297303736 0.0401462689042 0.0590631738305 -0.00537843815982 -0.0206292252988 0.0252213794738 0.0296018328518 -0.0139290383086 -0.0373518429697 -0.0356629863381 -0.0537245050073 0.0269415788352 -0.0512174516916 0.00505631836131 0.0587066523731 -0.059336591512 0.0487232543528 0.0389861613512 -0.0324744097888 0.0186941437423 -0.00262484303676 -0.0275609456003 -0.0101346392184 0.0337061583996 0.0494976602495 -0.0128097860143 -0.00489119626582 0.0391159057617 -0.0102456500754 0.0113586643711 0.000531858531758 -0.00753401406109 -0.0223023723811 -0.00519822444767 -0.0431470423937 0.0380881987512 0.016630301252 -0.0177447292954 0.0340493433177 -0.0205874182284 0.0575324259698 0.0437905192375 -0.0515670515597 0.0120019800961 -0.0679611116648 -0.0436055660248 -0.0167484711856 0.0226903930306 0.0497320331633 0.0430450215936 -0.00639737118036 0.0432368926704 -0.0204729344696 0.0238101221621 -0.0286719780415 -0.00185281713493 -0.0078446669504 0.0414440669119 0.0234006345272 0.0420465394855 0.0340054742992 0.0196289084852 -0.00113864510786 -0.0330837741494 -0.0207642186433 -0.0334829762578 0.0277840569615 0.0503128953278 -0.0190710052848 0.0203807670623 -0.0407040603459 0.0360693857074 0.0175893027335 -0.0461533255875 -0.0553113743663 -0.000544898502994 -0.0364608578384 
honeslty 0.024928893894 -0.078028023243 -0.0278683155775 0.0775034427643 -0.00267809769139 0.0236869826913 0.0424764342606 -0.00480986200273 0.00761575438082 -0.0697088763118 0.0595490559936 0.0738548189402 0.0325213298202 -0.0529421903193 0.0232404842973 -0.0153022967279 0.0524815656245 -0.0100961849093 0.037285618484 -0.00212934915908 -0.033344630152 -0.04708840698 0.0555425286293 -0.0813483446836 0.00536115700379 0.0262987036258 0.0113664902747 0.00325198471546 0.0101825520396 0.00230163615197 -0.0039913598448 -0.00674555636942 0.0269007850438 -0.046120557934 -0.0441689230502 -0.0366681218147 0.0482535585761 -0.0787847042084 -0.0331783853471 0.0516039803624 0.00346981058829 -0.0145859159529 0.0207413453609 -0.006137621589 -0.0270770229399 0.0312673449516 0.0633929073811 0.0302132833749 0.0511132068932 0.0257098134607 -0.0307827107608 0.0274239219725 0.0378353521228 -0.0625769421458 -0.000954222807195 -0.0673307776451 -0.0240307021886 0.00619799178094 0.0185196399689 0.00234754779376 0.0401820018888 -0.00504190288484 0.056270159781 0.00345332804136 0.0634422078729 -0.0321585275233 -0.00385745987296 0.0125988414511 0.0179473068565 0.00222798669711 -0.0392909795046 -0.0204920955002 -0.00756418146193 -0.0623569488525 -0.0251512937248 0.0351989604533 0.00221890583634 0.00580339878798 -0.0158928278834 0.00326414685696 -0.040851674974 -0.0771852061152 0.0867214277387 0.0317507535219 0.0680684149265 -0.0408913493156 -0.0217033103108 0.0245138797909 -0.0489699840546 0.0425912216306 0.0851689279079 0.0232515241951 0.0327198840678 0.0702680423856 0.0300423800945 0.0315997749567 0.0376118458807 -0.0822527781129 0.0710792541504 0.0315323174 
didnt -0.0595688819885 0.054278947413 -0.000842842273414 -0.041962094605 -0.0130715295672 -0.0172666236758 0.0927773863077 0.036243006587 0.000622840132564 -0.0473647452891 -0.0230610333383 0.0349789075553 -0.0193865280598 -0.027476426214 0.0524405241013 0.039428576827 0.0878876075149 0.0333126671612 0.0185038670897 0.00561325438321 0.0440556332469 0.0206912122667 0.00761737301946 -0.0161549076438 0.0870269760489 0.0332883819938 -0.0535733215511 -0.0281729940325 -0.0104406923056 -0.0203333124518 0.0104938419536 0.0254298336804 0.0693363770843 0.00353351002559 -0.0844512656331 0.0244771894068 0.00875486712903 -0.0298768505454 -0.0494510568678 0.0672202110291 -0.0197981223464 -0.000776403059717 -0.0509716011584 0.00885256379843 0.01359258499 0.0282613784075 0.00806821044534 0.0290296506137 0.0176436062902 0.0166794881225 -0.0334017835557 -0.0617977082729 0.0763677060604 0.0102129280567 -0.0831000879407 0.0272963345051 0.0390227884054 -0.0586999952793 0.0735095888376 -9.59878962021e-05 0.0182290561497 -0.00299312314019 0.0757538750768 -0.0207846015692 -0.0330738127232 -0.00369605654851 -0.0173221006989 0.0123935742304 -0.0451202578843 -0.0335150770843 -0.0177165251225 -0.00487778102979 -0.0227633118629 -0.00142610433977 -0.03243483603 0.0481694713235 -0.0412253588438 0.000933172763325 -0.0135008264333 0.0535727068782 -0.000508620112669 -0.0902986302972 0.0318941138685 -0.0517004132271 0.0656214803457 -0.0143737215549 0.0408361889422 0.0655403509736 -0.0158026218414 0.0454057492316 0.0528298020363 0.0255907773972 0.0836090296507 0.040580406785 0.0119754886255 0.0847007706761 -0.0387923084199 -0.0392543673515 0.0493835695088 0.0203372016549 
taste 0.031581223011 -0.0261714160442 -0.0137624498457 -0.0178519040346 -0.0148432822898 -0.00118157593533 -0.00304569932632 0.0276029594243 -0.0285918880254 -0.0191341564059 -0.00530534284189 0.0336245372891 0.00121225253679 -0.0408596284688 -0.00925526767969 0.0339086875319 -0.0278123710304 0.0132146868855 -0.0369816757739 0.0252902377397 -0.0690992772579 0.00171750003938 0.0549653284252 0.0845865309238 0.0186790414155 -0.00586302392185 -0.0308863483369 0.0491140037775 -0.041362658143 -0.0766694992781 -0.0238331072032 -0.0586305633187 0.00349787645973 -0.0239053741097 -0.0196306388825 0.00844272784889 -0.00259089563042 0.0350120179355 0.0145669626072 -0.0387228354812 -0.0117327682674 0.0482713915408 -0.0399235486984 0.0541777051985 -0.0247285962105 -0.0207007545978 -0.0247847959399 -0.0306208766997 0.0258774328977 -0.00152591930237 -0.0603360086679 0.0253563206643 -0.0553245209157 -0.0313631668687 0.0569855012 0.0387234911323 0.0472625046968 -0.0548980720341 -0.0204894952476 0.00688337115571 -0.00506837945431 -0.0150588592514 0.0521170385182 -0.0111219249666 -0.0251947976649 -0.0422558002174 0.0172185581177 -0.00973294302821 0.0137140341103 0.030809186399 0.00237902463414 -0.0541083663702 0.051789637655 0.0506999753416 0.0311914458871 -0.0451509132981 -0.0589537285268 0.0475591011345 -0.0309884045273 0.00136243167799 0.0185632742941 -0.0559914633632 0.0353312566876 0.0470939725637 0.00880714133382 -0.011174117215 0.0118040833622 -0.0415046736598 0.0252596903592 0.0178981609643 -0.0394523814321 -0.044567078352 -0.0370660535991 0.0323030129075 0.0116782551631 0.0531999059021 0.0067818602547 -0.0413216426969 -0.016327444464 -0.0097944997251 
that 0.021673688665 -0.0234819948673 0.0624296478927 0.00727732107043 0.033410910517 0.0298247579485 -0.0224491339177 -0.00788284931332 -0.00969928503036 0.0548432320356 0.0458526983857 0.0122021427378 0.0451240837574 -0.046554107219 -0.0191071014851 -0.0362539812922 -0.0515220463276 0.0311884935945 0.0452710613608 -0.0134266708046 0.0494254790246 0.0114529784769 -0.0301637444645 -0.0230918545276 0.0414486937225 0.0349537804723 0.0057857548818 -0.0502047762275 -0.0213688239455 -0.0244487617165 -0.0904636383057 -0.0650691390038 -0.0256398227066 -0.0101742437109 0.0204538945109 0.0262260902673 -0.0319613330066 -0.0408145785332 0.030059048906 -0.00786717049778 -0.00454020500183 -0.0072681736201 0.0185524448752 -0.0184877812862 0.0068962816149 0.0168348085135 0.0562801770866 0.01587119326 0.013289147988 0.0205445531756 0.0404008068144 0.00671985978261 -0.032942134887 -0.00338751869276 -0.0108833713457 0.0585429109633 0.0465250313282 0.00406585400924 0.0166099909693 0.0548791140318 0.0182855930179 0.0451192855835 0.0370185188949 0.0322349444032 -0.0175371579826 0.0180294867605 -0.0260329451412 -0.0269468110055 0.0454978309572 0.0377261675894 0.00582807976753 -0.0122206546366 -0.00704809837043 0.0537983700633 0.0278661046177 0.00856669060886 0.0282099377364 0.0494119599462 -0.0155762508512 -0.0400485880673 -0.0298401899636 -0.022073764354 0.0364468954504 0.0215580333024 -0.0414632037282 -0.0325061306357 0.0265402905643 -0.0107998521999 -0.00631576776505 -0.0716892704368 -0.0565025955439 0.0411732159555 -0.00522843189538 0.00801991764456 -0.00965681206435 0.0259736832231 0.0277385544032 0.00632485747337 0.0349255315959 0.0304114110768 
fresh 0.0428750999272 -0.0271335933357 0.0364713445306 0.0179750546813 -0.016226330772 0.00413776934147 -0.0194332525134 0.00222442834638 0.000162583804922 -0.0111358975992 -0.0419167988002 0.0148421041667 -0.0101177208126 -0.0105470214039 -0.0284142754972 -0.0593685247004 0.0514292344451 -0.0451629534364 0.00846958626062 0.0380736961961 0.0356971696019 -0.0142562817782 -0.0400390028954 0.0798655375838 -0.000104775870568 0.00334080448374 0.0231145787984 0.0210851114243 -0.0604173615575 0.0091557726264 -0.0193166602403 -0.0235577281564 0.014486595057 0.0371701791883 0.0566887743771 0.0804719403386 0.0443989597261 0.0482230894268 0.0148148667067 0.0325744077563 0.019036507234 0.035577159375 0.0209811534733 0.049551371485 -0.0205251853913 -0.0417119562626 -0.0472923852503 0.0357546061277 -0.0201768111438 -0.0254572983831 0.0139240752906 0.00156289967708 -0.0444598533213 0.0169966463 0.0314478427172 0.0178224910051 0.0266724545509 -0.0444117151201 -0.0562900193036 0.0070576434955 -0.046322837472 0.0295638293028 0.0245863944292 0.00949294771999 -0.0143715264276 0.0144215077162 -0.0123484767973 -0.0401567704976 -0.0186621770263 0.0238613821566 0.0392189212143 -0.0122434832156 0.0396724864841 -0.0195510666817 -0.0273706670851 0.0313075222075 0.00111487193499 0.0226561240852 -0.0067852800712 -0.073359683156 0.0196858774871 0.047763992101 0.0189594905823 0.0476377792656 0.0160365644842 -0.0214455835521 0.0021195767913 -0.022903194651 0.0516706071794 -0.00683622993529 -0.0492334738374 0.0450824014843 -0.00522099435329 0.0149785066023 -0.00547566125169 -0.012952612713 0.0290379337966 -0.00529973115772 0.00361541309394 0.0132591323927 
potatoes 0.0190377812833 0.0133259668946 0.0195799786597 -0.0137982228771 -0.0272031631321 -0.00195512664504 0.00167689251248 0.0552327595651 0.000218374232645 -0.0511861480772 0.0150303822011 0.0166469383985 0.0721940174699 0.00486812042072 0.0216479133815 0.0513541549444 0.0553783364594 -0.0130771147087 0.0474545918405 0.007509207353 0.022272316739 0.00344144785777 0.0759599283338 -0.0192576274276 0.0301627889276 -0.0456397607923 -0.0311054158956 0.0121452156454 0.0362661145627 -0.0705029815435 0.0154959019274 0.00606077956036 0.0362130180001 0.0110734859481 -0.00235983217135 -0.032026540488 -0.0134343663231 0.0169119164348 -0.0134406695142 0.0361986495554 -0.00472318055108 0.0340146385133 0.0387009568512 -0.0094718458131 0.0239665620029 0.0267695449293 0.00274222996086 -0.0270064305514 0.0225111264735 -0.00760900229216 -0.0715738832951 0.0477540306747 -0.0374184474349 0.00249816360883 -0.0323490202427 -0.00484154513106 0.00621024519205 -0.0462824292481 0.0407266132534 0.052576944232 -0.00820196606219 0.0362730324268 0.043555509299 0.0323117189109 0.0179901216179 -0.059367518872 0.0629917383194 0.0350451208651 0.0104144364595 0.0309654567391 0.00167449784931 -0.00386698916554 -0.00919853430241 0.0192568469793 0.00232157064602 -0.00873496476561 0.0357803329825 0.0231696330011 0.0352971144021 -0.0220266561955 -0.0525879785419 -0.0267150718719 -0.00882798898965 -0.0181364584714 0.0219408720732 -0.0509559065104 -0.0373338349164 -0.0149796148762 0.042566690594 -0.0137782106176 0.0505871549249 0.0276872999966 -0.0208725202829 0.046553324908 0.0345290750265 0.0103002395481 0.0615407600999 -0.0725528299809 -0.0481291338801 0.0525470376015 
like 0.0271619092673 0.0279133692384 -0.0326073653996 -0.0277000423521 0.0252715181559 0.0109026245773 -0.0491471923888 -0.0654848068953 0.00211213668808 0.00279211089946 -0.0615368299186 0.0155373448506 -0.0361115634441 -0.0367517247796 0.0181294288486 -0.0369336344302 0.0338864736259 0.0128718577325 -0.0254990104586 0.0367003232241 0.0107171880081 -0.00501849502325 -0.0846535637975 -0.00408485438675 -0.0468826405704 -0.0358252339065 0.0735125020146 0.0320549085736 0.00410738913342 -0.0738588422537 0.0147038474679 0.00400527194142 -0.0449943765998 -0.0169722810388 -0.0057869926095 -0.0231901686639 -0.0502845905721 -0.0211637560278 -0.0268222447485 0.00401417259127 -0.0260210614651 0.0285176411271 0.0155928721651 0.0175736024976 0.0157312098891 -0.0523683279753 -0.0137988394126 0.0413595028222 -0.00297052972019 0.0320934057236 -0.0108222225681 -0.002795888111 0.0235071107745 0.0725625157356 -0.0409670136869 0.0223584827036 -0.0518034175038 0.0166594665498 0.00189246085938 -0.0352304242551 0.0444892458618 0.0303688943386 0.0191323906183 0.0491033941507 -0.0468194708228 0.0831049308181 -0.0386051237583 0.0293600931764 -0.0366477668285 0.0236075744033 -0.0156314596534 0.0265153981745 0.0194112658501 -0.021552272141 -0.041547562927 -0.061642087996 -0.0416487641633 0.00956119503826 -0.0594093799591 0.0218274705112 0.0465256646276 0.025968497619 0.0265343841165 0.0308743566275 0.00600895890966 -0.0387432649732 -0.00931035447866 -0.0177837014198 0.00471040327102 0.0153961302713 0.00715896952897 -0.0146237863228 -0.00234032212757 -0.0389396362007 -0.077222391963 -0.0482932403684 0.01054557506 0.0158036537468 -0.071193382144 0.0150415766984 
rubber 4.81741699332e-05 -0.0194239020348 -0.0190064553171 0.0561920851469 0.0165314730257 -0.0165534876287 0.0687965005636 0.0719755217433 0.00208441913128 0.00779217015952 -0.00205913069658 -0.00622089067474 0.0409343503416 -0.0012170948321 0.0469991676509 0.00536134885624 0.018883716315 0.0062742815353 0.0194710940123 0.0169783663005 0.0646796897054 -0.0034794905223 0.00391787430272 0.00129688612651 0.034203696996 0.0711077302694 -0.0874615684152 0.0590240582824 0.0859023705125 -0.00448266603053 0.0509653575718 0.0403730124235 -0.0333839207888 0.0186721347272 -0.0741385519505 -0.0750370174646 -0.0224003940821 -0.0501417554915 -0.0723513513803 -0.00111919175833 0.040556371212 -0.079518340528 0.0763701424003 -0.0293196793646 0.0616151951253 0.0689756125212 0.0480432212353 0.0795510783792 0.02751872316 0.00566282961518 -0.0452061854303 -0.0304977018386 0.0744005218148 -0.0117604993284 -0.0851194187999 -0.0314857959747 -0.00314835365862 -0.00624124985188 0.0304830726236 0.0653035789728 0.0256487578154 0.0181070864201 -0.000793062208686 -0.0324839130044 0.0571285784245 0.0261144973338 0.0559804327786 -0.0643581524491 -0.0334184244275 -0.0386193133891 -0.0331718102098 0.0576248802245 -0.0778440982103 -0.0789798572659 0.0243751443923 -0.00744024896994 0.0249248873442 0.0887877270579 0.0102329580113 0.0737266466022 -0.0587959997356 0.0132114570588 0.00706758024171 0.0637041255832 0.0494963377714 -0.00938592664897 -0.00190203182865 0.0110660037026 -0.0753109306097 -0.0351205542684 0.0526674948633 0.0761467814445 0.0459642447531 0.0351107008755 0.0298488885164 0.0507732331753 0.0402542762458 -0.0899150446057 0.0104457214475 0.0424948111176 
you 0.0611884109676 0.104037933052 0.0771985426545 0.0014199835714 -0.0245640985668 -0.114491440356 0.0131415408105 -0.0888620316982 -0.0789955258369 -0.00191861321218 -0.0746267214417 -0.0314407423139 -0.0763162150979 0.0456868596375 -0.0879859700799 -0.0276299342513 -0.0935177952051 -0.0934931635857 -0.0638236403465 0.0421847403049 0.0793161168694 0.0438486523926 0.0111787617207 0.0324233286083 0.0338130071759 -0.00112501136027 -0.0248776022345 0.0446897819638 -0.0074807475321 0.0694191083312 0.0318316109478 0.0420875698328 -0.0737251490355 0.0219327155501 -0.0471860729158 0.00253416504711 -0.0634333342314 0.0875405222178 0.0587677769363 -0.0358854942024 0.0318010337651 0.0453510582447 -0.0724516361952 0.0582216270268 -0.0385392531753 -0.0583881810308 -0.0254397504032 -0.0990378186107 -0.0635844245553 0.062194339931 0.00718679605052 0.0459327250719 0.0185827929527 0.0819762721658 0.0226455852389 0.0531814396381 -0.0768887847662 -0.0310148447752 -0.066408880055 -0.0321650505066 -0.122749112546 -0.0853367447853 -0.00472311908379 0.0320844613016 -0.0633353888988 0.00818396359682 -0.0106070544571 0.0556625649333 -0.0770608857274 -0.0201965179294 0.0663528218865 -0.0661318600178 0.0403965525329 0.00845929328352 -0.0246035754681 -0.0678536966443 -0.0330472253263 -0.0087823504582 -0.0217938348651 -0.111907526851 0.0766384974122 0.015780992806 -0.0629196614027 -0.0354481115937 -0.0569850243628 -0.00958171393722 0.0647651851177 -0.0792095884681 0.0221626516432 0.0361348763108 0.0149720693007 -0.0311411507428 -0.0111891943961 -0.108265705407 0.0206585358828 -0.0653588101268 0.047123812139 0.0538423582911 0.0113845234737 -0.0185526516289 
could 0.0381674021482 -0.00195404421538 0.0372856594622 -0.00331857614219 0.000875567842741 -0.0230667814612 -0.00727363443002 -0.0108551969752 -0.0492395311594 0.0633494406939 -0.0468073412776 -0.0556649565697 -0.0265894923359 -0.010695790872 0.074440293014 0.0344253890216 0.00954405404627 -0.0530285611749 -0.0534060113132 0.0645710304379 -0.0353608056903 -0.0333357155323 0.0250577908009 -0.020784560591 0.019942060113 -0.0372181758285 -0.0191954560578 -0.00520246429369 0.0185850951821 0.0615994371474 0.0192329622805 0.0210209321231 0.00605997769162 0.0324521623552 0.0413696207106 0.00784870795906 -0.0271814726293 -0.00967271905392 0.0653911679983 -0.0239415895194 -0.0407750420272 -0.00479506887496 0.0146135976538 0.0137899573892 0.0254928432405 -0.0132217844948 0.0340935140848 0.0381118394434 -0.0176696721464 -0.00751491170377 -0.0240528471768 -0.00546335242689 -0.0550617836416 -0.0399987213314 0.0472337119281 0.0136779416353 -0.00546542089432 0.0579921528697 -0.00503036100417 0.0214210450649 0.0269742831588 -0.022279523313 -0.00824876036495 -0.0364313274622 -0.0262995660305 0.0146246608347 -0.0180795043707 0.00872404687107 -0.0159445032477 -0.0368872359395 0.0418928936124 -0.00699467258528 0.0313484072685 0.0039652553387 0.0247889906168 -0.0585498102009 -0.0234032776207 -0.00262821977958 -0.0890084728599 -0.0188291147351 -0.0170068778098 0.0579339787364 0.00663385074586 -0.00460801972076 -0.00920920912176 0.0589954666793 -0.0123417396098 -0.04709815979 -0.0458569228649 -0.0453387051821 -0.0102707399055 -0.00695811817423 -0.00349715002812 -0.0460597127676 -0.0240509994328 0.0275167301297 0.0137021290138 0.0423234254122 0.0252890661359 0.045712351799 
tell -0.0367381833494 -0.0645982325077 -0.0201566610485 -0.0313696786761 -0.0459923222661 0.0365394540131 -0.0249889846891 0.00772206159309 0.0105533003807 -0.00927778799087 -0.00422599073499 0.0365455448627 0.0136615065858 0.0199416205287 0.0484630875289 -0.0133551871404 -0.0300976037979 0.0176183823496 0.00275625451468 -0.0035738046281 0.0199005715549 0.0281616616994 0.0110371569172 -0.0477180965245 0.00908252596855 -0.00936129782349 -0.0509842187166 0.0269095730036 0.0330404005945 -0.0127328475937 0.0229801367968 0.0200578626245 0.0349432937801 0.0327049829066 0.039739292115 0.0233615357429 0.0263192448765 -0.0587265007198 0.0095157744363 -0.0228705108166 -0.0135220428929 0.0399023368955 0.0597538463771 0.0152106750757 0.0573674365878 0.00172728300095 0.0312147121876 0.0179229360074 -0.0192961487919 -0.0169235188514 -0.0501729436219 -0.0648250207305 -0.0424215085804 0.00616435706615 0.0293456837535 0.000975118018687 0.00345539604314 -0.0159241389483 0.0495161190629 -0.024526944384 0.00870664045215 -0.0150864422321 -0.00146767334081 -0.0456675291061 0.0476856641471 0.0343455038965 -0.00509902276099 -0.036371383816 0.00556459417567 0.0498145073652 0.00973562896252 0.0102525334805 0.0414154417813 -0.0369272381067 0.0385923571885 0.0242067463696 0.00450598960742 0.0071014338173 0.0635584816337 0.0718603432178 0.0138989072293 -0.0686773732305 -0.0231122244149 0.000140525080496 0.0128735434264 -0.0211859643459 -0.00831873062998 0.0314408540726 0.0320821367204 -0.0238156318665 0.0520521476865 0.0272137969732 -0.00656863395125 0.0392771549523 0.0103891110048 0.00522374873981 -0.0377619490027 0.00287850270979 0.00864439178258 -0.036505907774 
they 0.0208937954158 -0.00365496356972 0.0468959957361 -0.0231074746698 -0.00839251186699 -0.0490504279733 -0.00317985680886 -0.0375332795084 -0.0278683174402 0.0666020438075 0.00846003275365 0.0141266779974 -0.0748218744993 -0.00283647654578 0.00338480714709 -0.00927888043225 -0.0974397435784 0.0232853777707 0.0387477837503 0.0586935952306 -0.00964822713286 0.0520766563714 0.0417268425226 0.0676623806357 -0.0274279639125 0.0377497971058 -0.051906671375 -0.0133256111294 0.00450009806082 0.0227064099163 0.00345440395176 0.0330430939794 -0.0814899876714 -0.0330678485334 -0.0455817356706 0.00824847910553 0.0296878200024 0.030902357772 -0.0175671949983 0.0156490337104 0.0383017957211 -0.0331468880177 -0.000107103369373 0.0512967817485 0.021430881694 -0.0485069490969 -0.0391016304493 -0.00757885118946 0.0255274828523 0.0660514310002 -0.0249820239842 0.0182550996542 0.032266382128 0.0270949937403 0.0242531727999 -0.00433470774442 0.00639026612043 0.0155976517126 0.0103621194139 -0.0785119384527 0.0138611895964 -0.0123247075826 -0.0221379157156 -0.0540282055736 -0.0327857509255 0.0153046278283 -0.00575027428567 0.0475086271763 -0.00495828781277 0.0201569423079 -0.00146101601422 0.0212619639933 -0.04626275599 0.00806369073689 0.00105435866863 0.0203622411937 -0.0365416780114 -0.0343561917543 0.00616449350491 -7.70786282374e-05 -0.0235259309411 0.0803342610598 -0.0313981436193 -0.00728365080431 -0.0255756657571 0.0691882446408 0.0412920713425 -0.0248376671225 -0.044943716377 -0.0352150909603 0.0220679603517 0.0217261407524 -0.0417651049793 -0.00323527026922 0.0159578789026 -0.0262924395502 -0.0293628033251 0.0693496465683 0.029652889818 0.00408506020904 
had 0.0201632622629 -0.0269228070974 0.0378110557795 0.014705250971 -0.0226934347302 0.0225506108254 -0.0581893101335 -0.0489416308701 -0.0413406640291 -0.0111043909565 -0.00504129240289 0.00856780447066 0.0111839482561 0.0871137753129 -0.0728215053678 0.0171076133847 0.0107336994261 -0.0595807135105 0.0208747442812 0.0210107378662 0.0423657000065 0.053886897862 0.00517342146486 0.026189096272 -0.0324131287634 -0.056891348213 -0.0145934829488 -0.0571037903428 0.0207280870527 0.0297362580895 5.46692399439e-06 -0.0401994623244 -0.0475395545363 1.4530627368e-08 0.000287711824058 0.0259261280298 0.0246753357351 0.00759893003851 0.0333303622901 -0.0248561743647 -0.0503641925752 -0.0344030000269 -0.0353610515594 0.0259365737438 0.0231542736292 0.0205558780581 -0.0535363666713 -0.0323566049337 -0.0119216004387 0.0306737311184 0.0275426357985 0.00967711396515 -0.0378333665431 -0.000289310177322 0.0634022057056 0.0169320721179 -0.0247366148978 -0.0134266717359 -0.0222502686083 0.024435557425 0.00292737060227 -0.019592422992 -0.0536375306547 0.0474790818989 0.0216764733195 0.00646251253784 -0.0410967096686 0.0358045846224 -0.0554906539619 -0.0249070357531 0.0366347506642 0.00320135150105 0.0344282612205 0.00878507271409 -0.00716526294127 -0.0262843687087 0.00388938374817 -0.00135836796835 0.0226225201041 -0.0489781536162 0.0398091748357 -0.0111028617248 -0.0314521379769 0.022683756426 -0.0767209902406 0.00230363034643 -0.00889112986624 -0.0496085844934 0.00269873044454 -0.0154987610877 0.00987320020795 -0.0248003639281 0.020190153271 0.0136242508888 0.00895509310067 -0.000197568937438 -0.0448341630399 -0.0607879236341 -0.033455748111 0.0130240600556 
