2104 100
<unk> -0.036158934 0.012854418 -0.01969579 -0.021672117 0.0013751679 -0.036128737 0.006437581 0.009834499 0.0016649087 -0.037537366 -0.014629714 0.04122967 0.03156595 0.011364238 0.0022220907 -0.004787073 0.003826623 0.017420366 -0.0025067844 0.002316276 -0.02234534 0.006203473 -0.048053898 0.047682915 0.005945276 -0.017188398 -0.004042782 0.013495227 0.022047086 0.02014899 0.0051746983 -0.00962774 0.0405792 -0.027653888 -0.0002354444 0.01743836 -0.02524314 -0.015723743 -0.0027995696 -0.03640101 0.04013066 -0.020298336 0.015547699 0.008575078 -0.00666177 0.043057546 -0.010130646 0.016160658 0.007412025 -0.018793363 0.010858064 0.011131073 -0.011398616 -0.017767634 0.03128701 -0.017306907 -0.015329066 -0.027204592 -0.021729833 0.006019667 0.047820494 0.013841773 0.012891433 -0.06261879 -0.054235585 -0.04250517 0.0027028278 -0.0353768 -0.0005796116 -0.018994778 -0.024843859 0.025769612 0.01695219 -0.031581394 0.031547595 -0.005316835 -0.014162256 -0.001090627 0.0315161 0.013046394 0.022493267 0.017807744 -0.029418549 -0.0027356895 -0.011052958 0.0055865524 -0.022450816 -0.0028358083 0.013290486 0.019365573 0.015091334 -0.012343127 0.03899892 0.0008164608 -0.050823018 -0.020864032 0.015701305 -0.026258232 0.023148814 0.03391499 
wow -0.14447072 0.07201074 -0.08889971 -0.13854453 -0.09234656 0.051733572 -0.012027995 0.06324431 -0.16514559 -0.06471549 0.109560594 -0.027747238 0.09142566 -0.0599581 -0.033849582 -0.10379424 0.08305156 0.074923165 -0.10262212 -0.14217746 0.05955219 -0.15545268 -0.07015931 0.12859772 0.03492271 0.07873266 0.035849486 0.1092684 0.16193587 0.15009163 -0.009070843 -0.14659011 0.10673903 -0.12207144 -0.01284074 0.08104202 -0.05755356 -0.16995874 -0.017447382 0.15115386 0.03121886 -0.10959987 0.019574402 -0.13578548 0.10724922 -0.094468236 0.070599586 -0.022097334 0.060066342 -0.11989932 -0.015073651 0.037058678 -0.07162133 -0.018865073 0.08794614 -0.07399056 -0.08799887 -0.13789575 -0.08276223 0.099509366 -0.054904986 0.01752597 -0.094710946 0.09311597 0.14261506 -0.12813759 -0.15622823 0.021688953 0.071185574 -0.06452541 0.012664013 -0.09565573 -0.14544946 -0.010413409 0.09925882 0.10568394 -0.021892 0.16198786 -0.045108557 -0.13722044 -0.10059964 0.052659694 -0.012308582 -0.067062445 0.004415409 0.16650656 0.04957447 0.01949292 0.087079 -0.16293484 0.16086479 -0.13621269 -0.0016601455 -0.16516328 -0.0003906776 -0.030906994 0.17788501 0.043513507 0.075403236 0.12770371 
loved 0.1467181 -0.08666232 -0.16466856 -0.28629813 0.1335106 0.11492678 0.16274665 0.2594372 0.18491378 0.23347874 0.12502599 -0.13355978 0.21084411 0.21787055 0.19383992 -0.18173277 0.27340052 -0.16037887 0.16720088 -0.21490557 -0.27416787 -0.19707167 -0.17251576 0.2437825 0.2727907 -0.019657318 -0.045840587 -0.23790574 -0.035600007 0.24882492 -0.18605074 -0.27265248 -0.12296309 -0.2357287 0.20776622 0.24222739 -0.15217629 -0.26592302 -0.2873317 0.24876599 0.15204424 -0.19154465 -0.23582001 -0.22943132 -0.2306675 0.1762498 -0.18269548 -0.2793499 -0.117285125 0.052000336 -0.2725112 0.18438466 -0.21319905 0.161957 0.29039994 -0.1281689 -0.23935764 -0.1923469 0.14583041 0.26427078 0.024499973 0.25036886 -0.27873874 -0.070820436 -0.22180781 0.017848188 -0.18056895 -0.19244651 -0.0673788 0.122985 0.09605717 0.20667422 -0.2071381 -0.22673015 0.25702477 0.23427013 0.24147312 -0.05835027 -0.113762945 0.08898196 -0.1491305 -0.14077577 0.038808458 0.22877015 0.026830267 0.1837789 -0.17516017 0.14652224 0.20235135 0.16731454 0.0031842694 -0.12942927 0.2518466 -0.25384563 0.14702946 -0.26587582 0.18598984 0.24833639 0.26324797 0.24097894 
this 0.029013433 0.047278162 0.1005563 -0.061800182 -0.09333778 0.07004376 -0.114384815 0.10811223 0.053176075 0.01650563 -0.108925045 0.032571398 0.05797582 0.02686564 -0.020637523 -0.037980963 -0.005352005 -0.1032084 -0.043044034 -0.07266585 0.095565334 -0.06473587 0.114036635 0.08851315 0.04431441 -0.01577685 0.057196736 0.111222625 0.081679836 -0.06253639 -0.16792555 -0.07060058 -0.08000334 -0.018305909 0.097252086 -0.055994593 0.008300139 -0.03675692 0.032829512 0.12100089 -0.21844989 -0.054475356 -0.019470975 -0.12160757 0.056816414 -0.1329596 0.089638665 -0.04242374 0.021212006 0.10331577 -0.060201343 -0.064067915 -0.043464374 0.06279478 -0.053944 0.07406148 0.009980427 -0.0010218386 0.0769138 -0.08804908 -0.10108062 0.12293955 -0.06209291 0.13934642 0.011500409 -0.03581111 -0.050607145 0.1761461 0.027482858 -0.12780271 -0.0830495 -0.1876284 -0.048026793 0.064160496 -0.04201357 0.167236 0.013707339 0.11131902 0.040425275 -0.15237997 -0.038456243 0.093589514 0.0055978606 -0.015085673 -0.057376213 -0.023594148 0.1004415 -0.069525965 0.075051576 -0.15166049 -0.0069105164 0.026110873 -0.13266996 -0.061693344 0.09916544 -0.035535254 0.035231486 -0.07460284 0.009296157 -0.1268685 
place -0.11156249 0.10770817 -0.046430405 0.07575517 -0.100540265 -0.09050312 0.043710567 0.104385264 -0.07482059 0.059737857 -0.07687958 -0.09814233 0.1424341 0.07242063 0.13147354 -0.11874187 0.09526304 -0.1977803 0.07293734 -0.22024493 -0.11110092 -0.16527529 -0.033734687 0.08972294 0.1532955 0.23224713 0.19384542 0.028534474 0.06760122 0.15703166 -0.059927426 -0.10345163 -0.11237116 -0.04915369 0.036958657 0.12389918 -0.042188656 -0.15532044 0.08906277 0.27963808 -0.111754306 -0.16686884 -0.02045084 -0.22083165 0.000849959 -0.053684104 -0.043277983 -0.23079415 0.12401851 0.16017586 -0.14167939 0.075915135 0.2210227 0.0417975 -0.20239615 -0.1899469 -0.2624884 -0.14994201 0.00048000764 -0.046329603 -0.0771442 -0.026491402 -0.06363292 0.22749098 -0.15687564 0.036912344 0.17621902 -0.039673287 -0.008128767 -0.079648785 0.18640764 -0.00964261 -0.13215944 -0.017306425 -0.012900951 0.166721 0.19808444 0.003140806 -0.09330744 0.058309477 0.0063788905 0.1224499 0.108369924 -0.019992253 0.13555641 0.0978707 0.009977251 0.23153633 0.09451794 -0.015212633 0.2137011 -0.0038921547 0.07133626 -0.07686782 0.026704079 -0.027720463 0.15033595 0.1631374 0.13130498 0.14351845 
1 -0.043683335 0.086248465 0.010688118 0.0023622154 -0.017978104 0.017904572 0.03552335 -0.043624558 0.07110566 0.06067003 -0.017843552 -0.019452684 -0.032240402 -0.007538059 -0.038872737 0.031769864 -0.10400028 0.02917732 0.013357128 0.04944078 -0.06882459 0.06802034 -0.06361727 0.00601364 0.02556968 -0.011537378 -0.032828607 -0.08243197 -0.004389414 -0.04165234 0.03131695 0.082780086 0.022250794 0.05288248 0.099489965 -0.022197187 0.03304969 0.0027240152 -0.08809149 -0.10343637 -0.09645733 0.028584298 0.03926304 0.068293035 -0.033031624 0.01575103 -0.0007570586 -0.0012495872 0.050648693 0.012606395 -0.011735455 0.10529784 0.0022173265 -0.022008877 -0.0081699155 -0.018018937 0.038981225 0.02733942 -0.0005934017 -0.010984343 -0.038620353 -0.033166904 0.020602062 0.08512415 -0.027086772 0.028347736 0.026483513 0.008602707 -0.06516178 0.046785917 0.09336208 0.061975446 0.034860462 -0.10286954 -0.04933517 -0.02705451 0.06342404 -0.11480967 -0.007024975 -0.00028977072 -0.012920355 -0.06584761 0.07172227 -0.07143933 0.02827392 -0.052248836 0.05588386 0.04255932 -0.045694243 0.011776695 -0.029928694 -0.06336088 0.08089959 0.07458932 0.050654642 -0.015833767 -0.03502025 0.031958617 -0.06616098 -0.07241694 
crust 0.10374978 -0.11919749 0.086673796 0.15822232 0.07567497 -0.13039553 0.119657114 -0.08974849 0.11779658 0.1344321 -0.13749169 0.14111815 -0.12201174 -0.21081446 0.11754274 0.16011348 -0.20336902 -0.0997769 0.15862648 0.19134203 0.030337397 0.06798924 0.17033303 -0.21083862 -0.12237943 -0.14972337 -0.10915585 -0.11781579 -0.17359976 -0.10948927 0.15435828 0.08335992 -0.19172443 0.1549344 -0.13538605 -0.15175779 0.15830728 0.13374569 0.1470806 -0.10884853 0.023613919 0.1805557 0.08494846 0.17623468 -0.08327892 0.069450706 -0.07987096 0.10863624 -0.10373314 0.14615408 0.17518768 -0.1497693 0.21567683 0.08185014 -0.13254525 0.026292983 0.12618089 0.10187926 0.14971676 -0.20931572 0.13364686 -0.16432488 0.047206115 -0.115166314 -0.084192775 0.19990867 0.17046832 -0.101299584 -0.09649612 0.085523166 -0.089392655 0.112755805 0.08902228 0.12499684 -0.17805026 -0.1745244 -0.16366951 -0.18018815 0.08593091 0.14053753 0.121756956 0.09643303 0.20252734 0.11391701 -0.15287638 -0.13023455 0.038979948 -0.08559986 -0.11824731 0.14071286 -0.15468377 0.1425004 -0.14804414 0.19951499 -0.114280395 0.16769098 -0.19765584 -0.0737817 -0.18417887 -0.23728752 
is 0.12702593 -0.11725184 0.014880096 -0.07093304 0.021364363 0.046519227 0.045469668 0.03227496 0.15796496 0.08668709 -0.022900708 0.07285733 0.09293394 0.1363083 -0.04135342 -0.03609175 0.09204163 -0.040182468 0.0872069 -0.018136444 -0.018154914 0.047401737 0.021287486 0.05754729 0.009647026 -0.12706292 0.017851358 -0.102010414 0.062201828 -0.028533595 -0.058681495 -0.061596356 0.05027665 -0.061284557 0.044671137 0.05376781 0.027153473 -0.073134825 -0.023856534 -0.035269935 0.04493104 -0.045370806 -0.14514461 -0.03084309 0.017755458 0.07900276 -0.010257994 -0.062685005 -0.19975422 -0.027053898 -0.022470336 -0.04266438 -0.10381349 0.04509008 0.16354838 0.03750573 0.001586138 -0.0046003433 -0.042727105 0.14168547 0.050617535 0.049012806 -0.06978731 -0.015111335 -0.050600052 0.053231064 -0.15540555 -0.06553056 0.037105348 0.027299624 -0.09803082 0.026469113 -0.014621678 -0.078930944 0.07497644 0.0262678 0.085891105 0.015810004 0.08630854 -0.10759324 -0.071774974 0.04472047 -0.08880188 0.08075124 -0.026906153 0.067069106 0.012340312 -0.07422103 0.09501471 -0.072063476 -0.09564035 0.016393954 0.07436553 -0.12997548 -0.028369708 -0.0649829 0.08797444 0.033480287 0.0778573 0.026891477 
not 0.03935568 -0.001077246 0.3049434 0.22326571 0.046189673 0.005927549 0.14570872 -0.3744472 -0.1028695 -0.1498574 0.0014069686 0.08432603 -0.24103579 -0.29220426 -0.02486209 0.28140616 -0.37177107 0.0045510023 -0.27737084 0.40420517 0.2578222 0.15045148 0.019257946 -0.20196067 -0.3807778 -0.1522344 -0.16047889 0.35521585 -0.21732935 -0.21813023 0.21018858 0.3322757 0.1502749 0.3031073 -0.21326068 -0.3567129 0.27223524 0.31980744 0.16164044 -0.27881372 0.004228037 0.32319817 0.41173345 0.3569142 -0.0019917483 -0.06736055 0.30396044 0.3846152 0.10297282 0.09079971 0.33312982 -0.2638876 0.2974878 -0.36644828 -0.2325184 0.33884084 0.3712262 -0.081050634 0.13016032 -0.3046175 0.047702778 0.05437195 0.376545 -0.21751969 0.26753315 0.15137795 0.32559505 0.028246976 -0.21409781 -0.049211826 -0.19632442 -0.2381377 0.3614374 0.05442539 -0.3528993 -0.35827267 -0.32720357 -0.28715312 -0.02603751 0.1648689 0.3619533 0.029058484 0.088691294 -0.30798948 -0.22581576 -0.37464458 -0.1728633 -0.14145315 -0.27450132 0.096597455 -0.25671524 -0.058848664 -0.092714444 0.36327365 -0.107509665 0.40888464 -0.2736253 -0.36226895 -0.37130675 -0.2743278 
good 0.0577637 0.14908649 -0.13877307 -0.21059257 0.025481215 0.19313857 -0.1981816 0.32615086 0.08037294 0.08407602 0.000504039 0.01959005 0.20811339 0.2855867 -0.118606195 -0.1756523 0.29261833 0.071290456 0.23210818 -0.31521058 -0.18390371 -0.04318567 -0.082702704 0.11528093 0.33220544 0.049643103 0.17944476 -0.28065178 0.16518053 0.043607555 -0.22763044 -0.27789605 -0.03581617 -0.2658292 0.12730336 0.3123115 -0.2373356 -0.23477344 -0.15323728 0.19400735 0.0424941 -0.21242717 -0.25270098 -0.3281514 0.112861484 0.15149944 -0.20015255 -0.2516017 -0.11612391 -0.053968813 -0.2724036 0.13697441 -0.27665883 0.21095572 0.22966045 -0.17269784 -0.2418028 0.10790423 -0.18244165 0.3099689 -0.109576315 0.13206513 -0.11494594 0.092558436 -0.18143965 -0.20594582 -0.24379443 0.060276713 0.1907099 0.08119656 0.17914337 0.20437388 -0.2875535 -0.103003934 0.34696436 0.23467669 0.29169312 0.19587886 0.008593811 -0.18937257 -0.36274803 -0.060121827 -0.17676453 0.14717484 0.31972086 0.3039746 0.10542307 0.04330824 0.33098596 -0.19386439 0.2155261 0.08768859 0.049468398 -0.31367722 0.067636624 -0.37614977 0.30021206 0.3087641 0.28575674 0.16379552 
0 -0.0069576614 0.04306313 -0.045209955 0.047045436 0.020978037 -0.04591911 -0.03813691 -0.01678139 -0.041588664 0.049246836 0.019116964 -0.030299878 0.041934837 0.023480747 0.016615305 0.005611539 0.023424063 0.018605683 0.007830024 -0.023741448 0.014496554 -0.0055391677 0.040544774 0.02414162 -0.011511765 0.0017845631 0.010296512 0.00953548 -0.00887873 -0.0479674 -0.047833826 -0.023675216 0.0054537877 -0.013333607 0.034476507 0.020782087 -0.0015332103 -0.03205253 -0.021742154 -0.0013245232 0.0149161555 -0.010084413 0.00020227581 -0.006423235 0.013700832 -0.002605401 -0.026220417 -0.029625047 0.004597999 -0.03465457 0.048429396 0.0299034 0.043238077 0.014847938 0.013485339 0.01058346 0.005338192 -0.0078961365 -0.008927345 0.011841048 -0.047892835 -0.034664094 -0.023128962 -0.039835144 -0.036165167 -0.038994886 0.024572741 -0.0069091693 0.049820814 0.02615342 -0.0058938377 -0.006300926 0.03855889 0.0067929737 -0.04459524 -0.008438002 -0.04653666 -0.030703474 -0.016347528 -0.036717437 0.03126285 -0.033109177 0.027242903 0.013959672 -0.024356378 0.005310964 -0.04024906 0.04734477 -0.020579815 0.04667512 -0.013572574 0.022454549 -0.01386733 0.04363669 0.049687777 0.034248997 0.040254805 -0.036198676 0.00360943 0.026708905 
tasty 0.032579694 0.022014635 -0.14394368 0.02799178 0.10215759 0.11027307 0.059870433 0.11318948 0.031007858 0.120315045 0.10919382 -0.1428437 0.11267086 0.14986716 -0.003493635 -0.07193456 0.1319576 -0.1865415 0.080117054 -0.09388152 -0.044979688 0.008799595 -0.14108512 0.068975165 0.12964217 0.2155831 0.07383194 -0.099779435 -0.1741781 -0.012721302 -0.14352329 -0.075381145 -0.06702675 -0.10666171 0.02950398 0.1912178 -0.122949295 -0.13552168 0.04416569 0.13336584 0.084405914 -0.123959124 -0.08554332 -0.16844355 0.039466247 0.053396277 -0.17717262 -0.1764254 -0.0836722 0.09250367 -0.04323109 0.09843105 -0.07240216 0.048804663 0.048269622 -0.15377636 -0.21271974 -0.12941308 -0.021390157 0.040886514 0.10001182 0.12991478 -0.06790372 0.0818771 -0.08813063 0.11569214 -0.0013136592 -0.040132627 -0.005354626 0.09760913 0.1551507 0.009687575 -0.16369265 -0.0829708 0.07591176 0.06281167 0.12719531 -0.052657936 -0.19027331 0.031582516 -0.1506957 -0.11927131 0.12304973 0.16555257 -0.0020633005 0.16148573 -0.113176815 0.08418626 0.13055569 -0.0129460925 0.08535788 0.019667165 0.14230368 -0.10530408 0.054791015 -0.061343454 0.08693188 0.17721646 0.10599781 0.09853556 
and 0.010510633 -0.025593389 0.119054265 0.09454804 0.054763038 0.08614152 -0.11594427 0.023567786 0.077086344 -0.025286855 -0.097854584 0.1409632 0.0391749 0.14753121 -0.11820166 -0.0033396836 0.051324844 -0.12806061 -0.021196986 -0.05763819 0.023661042 0.04671422 0.19140615 -0.048661474 0.09180812 0.03505022 0.061880756 -0.04804211 -0.022664724 -0.15332562 -0.15213606 -0.017884037 -0.21234082 0.0053139166 -0.009089276 0.024553625 -0.0499839 -0.13584192 0.07915538 -0.004035064 -0.0783498 -0.07157813 -0.10481619 -0.107140355 0.13090762 -0.13901152 0.048789166 -0.04326242 -0.11979952 0.14081225 -0.064628206 -0.123448 -0.08846397 0.12913597 -0.0862694 0.005251371 -0.012232233 0.12037228 -0.04924757 -0.041614834 -0.09897167 -0.012374093 -0.055830844 0.020795219 0.07402397 -0.02954022 -0.05768053 0.0906581 -0.010916468 0.07834287 -0.004124187 -0.14502595 -0.13135962 0.10719854 0.020254334 0.11177576 0.10452412 0.09498364 0.06731933 -0.18492207 -0.06633704 0.12701698 -0.06980327 0.12363391 -0.0027557688 -0.050206266 0.11055414 -0.14579089 0.037169423 -0.098850265 0.0044851773 0.20799324 -0.07287394 -0.1407445 -0.00077187177 -0.032801885 0.039105054 -0.023691246 0.019761616 -0.071949385 
the 0.013744528 -0.026084471 0.005598103 0.014603076 0.008285905 -0.074522324 0.028012695 -0.009861244 -0.00413786 0.06241404 -0.12255456 0.12970479 -0.05249904 0.04359872 -0.06856026 -0.030255407 0.07358427 0.044123184 0.09263898 -0.05597305 0.054627825 0.042970072 0.12748156 0.00566238 0.12600912 -0.1005678 -0.01811106 -0.057969578 0.0028548057 0.005771279 0.011217165 -0.020792104 -0.015126834 -0.04923738 -0.05889685 -0.03780212 0.058611024 0.030461203 -0.053994607 0.03295524 0.086408675 -0.011614321 -0.0826022 -0.045254257 -0.031798575 0.107235 -0.121853694 -0.005931369 -0.04080962 -0.09845502 -0.012298319 -0.10305875 -0.096625976 0.08575677 0.0071817497 -0.12604934 -0.06876258 0.09986591 -0.12917955 0.11412715 -0.01068501 -0.14664185 -0.051582903 -0.11148506 -0.060189307 -0.027843516 0.014601047 -0.11980247 0.11589403 -0.04587439 0.06360241 0.052427683 -0.008791219 0.04571008 0.11717472 0.0015984994 0.022894828 0.025945466 0.1302663 -0.037812624 -0.06742735 0.2010458 -0.074738584 0.036967494 0.031206386 0.11814935 0.16218503 -0.142239 0.049089693 -0.033994462 -0.029957797 0.19120692 0.07061185 -0.03667042 -0.11387328 0.046908688 0.04735394 -0.015183439 0.04955895 0.025282783 
texture -0.110415205 0.07917766 0.18906398 -0.1375038 -0.085629374 -0.15447752 0.11328759 -0.07561233 0.064109795 -0.19915152 -0.21237497 0.07450476 0.16971199 -0.13325049 0.15058534 0.09886028 -0.1324873 0.21170524 -0.13207525 0.086117506 -0.10734776 -0.14786753 -0.14618962 0.0834317 -0.09065838 -0.087086946 -0.200228 0.13912101 0.15096304 0.1274465 0.22567791 0.10908494 0.077687 -0.09757151 0.14789265 -0.12117574 0.11003537 0.18317494 -0.094816074 -0.15126406 0.117954366 0.06761043 0.19999057 0.117138945 -0.11992217 0.078689195 0.086082496 0.0888683 0.11926106 -0.139346 -0.14184299 0.084037706 -0.1533518 -0.12309116 0.15678506 0.21465264 0.08826145 -0.119496584 0.15566057 0.13886964 0.22405432 0.13832062 0.19675717 -0.13679366 -0.118702695 -0.17787725 0.12322391 -0.18010283 -0.052588962 -0.1481902 -0.19595394 0.14003973 0.09097531 -0.12780628 -0.16776195 -0.17689237 -0.09462497 -0.08581017 0.15179394 0.16075462 0.17222483 0.10266529 -0.10741347 -0.12550445 -0.04751559 -0.12072903 -0.12551974 -0.07504724 -0.12200003 0.1682924 -0.065034725 -0.1158491 0.055327382 0.12626517 -0.12775342 0.08621277 0.13762929 -0.08475111 -0.12802136 0.16440487 
was -0.02502015 -0.005884299 0.17890944 0.022560943 -0.15348274 -0.06093621 0.008824804 -0.016057627 0.006733508 -0.031466756 -0.022934342 0.09432312 -0.06737384 -0.10161792 0.05095708 0.09428234 -0.06779118 0.0124980165 -0.07968764 0.03722614 0.063676395 0.0027653452 -0.00426162 -0.11456046 -0.1025465 -0.07677073 0.01774985 0.03265749 0.0121117635 -0.026302943 0.043079324 -0.015092406 -0.058361016 -0.017320123 0.006942495 0.0022856963 0.041352376 0.14034186 0.026120367 -0.07977241 -0.123095565 -0.025626887 0.064385846 0.020708118 -0.014641076 -0.08366756 0.15752016 -0.008381539 0.0063866638 -0.0038181306 0.06599856 -0.10231651 -0.0020622471 -0.00896935 -0.10500094 0.12399664 0.11689027 0.006458752 0.03027787 -0.015834576 0.017138312 0.10703595 0.0023713876 0.07607821 -0.011829304 -0.0063894386 0.1398751 0.12367042 -0.008481969 -0.08110286 -0.1949923 -0.03640241 -0.016903866 0.022222195 -0.10335229 0.029736338 -0.027949106 -0.016379176 0.04128176 -0.04055163 0.07963064 -0.024181532 -0.008293905 0.04137818 -0.062316805 -0.10015127 0.017263379 -0.044697437 -0.054841835 0.045739755 -0.068794675 -0.04934611 -0.13880166 0.08817534 0.106434494 0.06347831 -0.02488902 -0.09593742 -0.019590326 -0.046975836 
just -0.20984206 0.24771333 0.111666985 0.008370606 -0.07757823 -0.21463384 -0.12791482 0.12403691 -0.10023982 -0.004334132 -0.13802238 0.08360439 -0.0037147976 0.059084956 -0.081907414 0.056225415 0.15090357 -0.09418755 0.030314827 -0.17204973 -0.12715907 -0.052606422 -0.028942768 0.0077517102 0.15673523 0.06580927 0.20307055 -0.06979703 0.13074581 0.17714489 -0.008222782 -0.022325777 -0.027535489 -0.05719076 0.15585583 0.08171934 0.083677925 -0.12470688 -0.08704396 0.11517336 -0.090154275 -0.1142458 -0.08921451 -0.15892121 0.00987376 0.08255584 -0.116249755 -0.17581764 0.27497822 -0.024640465 -0.18166792 0.00935472 -0.054858997 0.052973386 0.017285377 -0.21001956 -0.14022177 0.041624386 -0.19978961 0.016910503 -0.14625631 0.10482697 0.017571412 0.21394706 -0.16205956 -0.15449472 0.15007891 0.019342577 0.09697115 -0.17894797 0.21617925 0.05442366 -0.049444895 -0.09205416 0.07179439 0.13171315 0.107770085 0.15299588 0.08797338 -0.08903257 -0.0869016 0.12607121 -0.15492924 -0.0015935461 0.21541104 0.07005248 0.13767895 -0.038307633 0.0722689 -0.10913726 0.15694259 0.14699195 0.11825766 0.033162296 -0.13504137 -0.1422424 0.10375482 0.16993302 0.0526574 0.11558523 
nasty 0.08042033 -0.02521388 0.1667416 -0.1252238 -0.08786998 0.19189495 0.019305795 -0.081321694 0.01476026 0.1530487 -0.10536707 0.047811188 -0.2073572 -0.11050353 0.20038462 -0.069856085 -0.10734991 -0.14267407 -0.18668751 0.14034276 0.115639955 -0.10492578 0.12092137 0.2149065 -0.02160968 -0.16175522 -0.16886052 0.101855226 0.04076767 0.06838349 -0.12044194 0.1619834 -0.17214078 0.13901447 0.17397776 -0.12384899 0.050625544 0.057288535 -0.15564875 0.15194118 -0.21740003 0.08975398 -0.03479307 0.09460574 -0.12234937 0.14786665 0.19627358 0.10720196 -0.06075715 0.168058 -0.10150991 -0.14490178 -0.05982088 -0.007509331 0.0054151 0.18430124 0.15826583 0.034062948 0.13523756 -0.17774074 0.03876119 -0.049289204 -0.04160005 -0.08972773 0.15195432 0.002195563 -0.0050570546 0.13181186 -0.14338483 -0.12185622 -0.10605609 -0.19379112 -0.05319102 0.003775435 0.022558155 0.15164767 -0.12760843 -0.004665586 0.02665488 -0.09645233 0.06713223 0.13762745 0.013941128 -0.085092664 -0.15839733 -0.102188244 -0.035539534 -0.117734656 -0.026554186 -0.009705228 -0.16647913 -0.09644388 -0.080008395 0.034238346 0.064165935 0.07016878 -0.15850247 -0.1682446 -0.17626801 -0.13467315 
stopped -0.11670496 0.066296734 -0.06606531 -0.05338147 -0.117235415 0.10132434 -0.11271352 0.07986528 -0.07289024 -0.08434885 0.044891886 -0.12430765 0.05648769 -0.008894118 -0.10207848 -0.04598272 0.07545893 0.10406203 -0.087169655 -0.030464996 0.0015501265 -0.022143671 -0.119133495 0.12677681 0.117990635 0.09358202 0.095537834 0.0858706 0.07013209 0.09052707 -0.053259745 -0.028067823 0.11817154 -0.045050673 0.11395702 0.105398364 -0.079864316 -0.090553276 -0.06924883 0.034618452 -0.017153658 -0.04073404 -0.03166386 -0.08548524 0.119983174 -0.06068932 0.086517364 -0.082442276 0.068001434 -0.06269761 -0.022963967 0.10391926 -0.1082984 -0.06908256 0.037573498 0.080061816 -0.06388871 -0.10335174 -0.08707499 0.09740825 -0.021981569 0.073421285 -0.06567997 0.11192973 0.071899146 -0.07794672 -0.042228267 0.108804636 0.023005094 -0.0841629 0.115593344 -0.082277775 -0.06332427 -0.11579027 0.042827547 0.058175985 0.056552384 0.063965894 -0.10143557 -0.053916045 -0.067558065 -0.07804086 -0.08904224 -0.042657603 0.11371595 0.11446793 -0.031393472 0.101246774 0.06904507 -0.1212785 0.06362959 -0.03751531 0.1244176 -0.07091166 0.11492405 -0.07658087 0.1016881 0.06614863 0.06067373 0.11936441 
by 0.18136132 -0.09978717 -0.018416993 0.09017362 0.14324707 0.008755808 -0.018376859 -0.06748382 0.10020538 0.104500346 0.13133134 -0.023113716 -0.08533385 0.065654 0.030880135 -0.03109835 0.049632955 -0.14644074 0.16983034 -0.013610532 -0.054953434 0.12194171 0.17505433 -0.10703126 0.022964401 -0.021445712 0.02119023 -0.19208378 -0.10825954 -0.10520035 -0.010350008 -0.020151401 -0.085122794 0.04820414 -0.01643112 -0.08775254 -0.077751294 0.041662354 0.053353116 -0.069860645 -0.07381006 -0.03735641 -0.18870069 0.04568745 0.059257414 -0.084589064 -0.09219371 -0.04499457 -0.10323203 0.12721905 0.040783435 -0.081074424 0.06559772 0.11616801 -0.054379098 -0.055046 0.031260807 0.14741993 -0.0039919238 -0.0969645 0.09967228 -0.14844674 -0.05706181 -0.0012457853 -0.011760078 0.123664185 -0.037888356 -0.04529278 -0.037975233 0.16653965 0.0053136065 0.112901635 -0.021086888 0.18023778 0.1384609 0.052277848 0.04900706 0.05493342 -0.043088526 -0.0406943 0.018248862 -0.13888475 0.09896423 0.15741237 0.073898494 0.071241595 0.13022034 0.024840599 -0.09882575 0.09058091 -0.009107929 0.08029705 -0.097143866 -0.07698814 0.11770831 -0.071384236 -0.045748312 0.02745969 0.027540838 -0.10505607 
during 0.0011834188 -0.04107713 0.04723268 -0.123461254 -0.010102745 0.011984891 0.035383232 0.04148927 -0.0679385 0.10692311 -0.067564696 0.07387858 -0.040222228 -0.039849453 0.06897342 0.018636456 0.07511145 -0.021731835 0.08335529 -0.123358294 -0.018206421 0.044189114 0.14314935 -0.06081253 0.022826187 -0.12425637 0.027639393 -0.0015264248 0.091818966 0.059328593 0.055895608 0.012278892 -0.11018436 -0.013181241 0.084071785 0.005420986 0.014499642 -0.065357864 -0.078248374 0.079824015 -0.06192687 -0.060015526 -0.004639183 -0.091973014 -0.02791221 0.008741572 -0.029567685 0.069405735 0.12237459 0.036707997 -0.09699033 -0.05333926 0.04937493 -0.0015235333 0.014399302 -0.09997325 -0.053899027 0.065526105 -0.11362608 0.008849161 0.0014146429 -0.056981187 0.07285498 0.06886708 -0.12608685 -0.009013844 0.08758224 -0.05451866 0.116536535 -0.043945707 0.08274415 0.015410513 -0.09395892 -0.032803208 0.07742185 0.042203754 0.114815705 0.030907273 -0.04770129 -0.097012855 -0.052081916 0.020602308 -0.09617172 -0.058551356 0.02964789 0.018112903 0.015843302 -0.07881184 -0.04688333 0.020890683 0.01819038 0.051052816 0.040660217 0.03948833 0.039593596 -0.014679638 0.067112096 0.013442708 -0.0039314427 -0.0485111 
late 0.080112725 -0.03810206 0.005044919 0.12876758 0.105193846 0.08152126 -0.06878551 0.07315482 -0.05939373 0.01982253 0.1150258 -0.006330188 -0.11260154 0.03055477 -0.050609365 -0.05883335 0.014435931 -0.06830415 0.053411953 -0.061642956 -0.017885355 0.01858036 0.038976096 -0.07706945 0.046923365 0.04547652 0.04441093 -0.027523663 -0.03905335 -0.04559051 0.04699946 -0.06764339 -0.01719697 0.07128331 -0.05413588 -0.038652744 -0.00056292507 -0.06817929 0.0618516 0.07343602 -0.06267352 -0.041625805 -0.10997082 -0.087453015 0.046715047 -0.013454576 0.008656163 -0.03971307 -0.10701198 -0.020262219 0.068849415 -0.05424648 -0.03656141 0.075937234 -0.041365296 -0.09695949 0.03639906 0.03396378 -0.034471683 -0.053008653 -0.10551831 0.006147887 -0.11580184 0.08276193 0.06026412 0.06220353 -0.0817409 0.059178177 0.08913891 0.0965189 0.0065001193 -0.07023546 -0.10797576 0.064470254 0.08223825 0.04232241 0.01514324 0.075999744 -0.09205158 -0.048319656 -0.061411865 -0.09972756 0.057743598 0.067085356 0.102828816 0.067310125 0.06925927 0.027235039 0.0316952 -0.06911895 0.0802643 0.025763482 -0.0380154 -0.01929942 0.06029408 -0.033255197 -0.024625948 0.024126777 0.025655678 -0.031648234 
may -0.04482752 -0.029589357 -0.13283396 0.10906699 -0.06520257 -0.039636288 -0.011890442 -0.08496474 0.07523429 0.022756318 -0.06227744 -0.09301321 0.015137481 -0.0044987286 0.018120162 0.06361649 0.07566873 -0.008740114 0.117062785 0.04229066 -0.0343388 0.01685041 0.0028717224 -0.06868956 0.018683773 0.12940021 0.049371198 -0.039348487 -0.0014748342 0.07002142 -0.008481287 -0.053356025 0.057311818 -0.08688075 0.0004839072 0.067122936 -0.10499309 0.012680087 0.09873844 0.006002829 0.0013188268 -0.11559629 -0.02780107 0.0361831 0.12824734 -0.07567856 0.034277126 -0.034639567 0.018225482 -0.0200077 0.019852705 0.019746235 -0.07167833 0.05882589 0.008118163 0.010203578 -0.01598076 -0.07936673 -0.08737716 0.04648157 0.059630617 -0.056481756 -0.14132358 0.02327555 -0.007306008 0.060626876 -0.009788585 -0.12055096 -0.05100212 -0.055910103 -0.002690487 -0.035678245 -0.029778225 -0.034543924 -0.006139667 -0.074302234 0.08165508 0.044759925 0.015123571 0.07283753 0.03432743 -0.0802801 0.05404769 0.07159764 0.013584598 0.049074125 0.039304353 0.08995981 -0.027911432 0.05693917 0.08056672 0.085822016 -0.024191987 0.0715951 0.011410903 0.0684287 0.050061237 0.05542364 -0.022191947 0.072455265 
bank 0.074274585 -0.05946512 0.027551321 -0.020353703 -0.031519152 0.0051955283 -0.027704801 0.039935272 0.011185546 -0.050508592 -0.0705188 0.063180335 0.09826399 0.103458 -0.060263705 -0.0052359705 0.025736505 -0.053549204 0.022152111 -0.052850958 0.09925537 -0.0007294847 0.0048731854 -0.0453487 -0.038560677 -0.07736737 0.07617162 -0.09091636 0.019377967 -0.030600553 -0.047033805 -0.04986603 -0.06989798 -0.061907034 0.017486483 0.056039926 -0.017553503 -0.032109804 -0.05034908 -0.08296849 -0.077312775 -0.049546797 -0.0061592474 -0.101256415 0.0778651 -0.032669164 0.042826984 -0.091067 -0.10320065 0.038013093 -0.023785153 -0.0143619655 -0.022358334 0.0392187 -0.040810928 0.029765075 -0.03235896 0.05815865 -0.022263028 0.05413974 -0.096733674 0.015744394 -0.027232675 0.003257477 0.052889213 -0.006630993 -0.034868795 0.09592752 0.00838505 -0.057021003 -0.024201576 0.010566958 -0.010526418 -0.03866425 0.016246876 0.02969853 0.019830469 0.08080383 0.030617116 -0.012434908 -0.049753528 0.08450498 -0.06538612 0.027619693 -0.058257096 -0.047532722 0.06699118 -0.09917324 0.025763817 -0.0058018262 0.004310293 0.022745255 -0.104196526 -0.07693776 0.09120609 -0.015894186 0.039466266 -0.06327083 0.06937625 -0.07798467 
holiday -0.0914871 0.09145278 -0.07320782 0.03356319 0.059399396 -0.02985362 0.027926067 0.010735456 -0.03554058 -0.081335895 0.060757585 -0.0047949688 0.083250195 0.093733825 -0.094941534 0.07407841 0.10032459 0.04715477 0.0344572 -0.06700635 -0.058011442 0.016550377 -0.094963044 -0.07873841 0.0046116556 0.04115116 0.05019581 -0.06765253 -0.052401002 -0.03393772 0.059496257 -0.10953213 0.059420414 -0.07258439 -0.06591382 0.077248424 0.012297441 -0.051517997 0.06652217 -0.047462407 0.06169419 0.007723633 0.10074566 -0.048010644 0.05744616 -0.056073334 -0.047321536 -0.07799494 0.090452164 -0.03620575 0.03054623 0.029945886 0.00837958 -0.06858483 -0.031535152 -0.09284333 -0.046476565 -0.05526702 -0.07294713 0.066262 -0.05560642 0.07987406 0.024580793 0.07603919 -0.06488285 0.02279611 0.041288838 -0.017081203 0.084497415 0.10964909 0.08129857 0.04538236 0.021723673 -0.024569282 -0.07432872 -0.07274454 0.0065358155 -0.024879621 -0.07700037 0.04871046 0.036300376 -0.08550843 -0.038700152 -0.010923565 0.036322597 0.0875922 -0.019669896 0.09685207 0.026964027 -0.038415693 0.07737169 0.051523406 0.045860138 0.0430922 -0.04306919 -0.0061928323 0.052546237 0.034565307 0.064983636 0.054080706 
off -0.11512472 0.05937112 0.13216224 -0.06435195 -0.06095486 -0.058999564 0.06468244 -0.14244501 0.13394399 -0.016764766 -0.025976365 0.025506295 -0.037487417 -0.18190998 0.057794534 0.08791204 -0.17635494 0.09893896 -0.15018135 0.0434033 -0.05954285 -0.04244463 -0.07360263 0.10135656 -0.05939913 -0.13101268 -0.11191012 0.14275803 0.044323277 0.06702678 0.079363 0.14933991 0.10920217 -0.0053911926 0.10832668 -0.06939317 0.08406062 0.0965236 -0.13079429 -0.06713669 0.052060474 0.08148605 0.017924385 0.1472273 -0.13267171 0.08506071 0.04854162 0.107075505 -0.033443656 -0.08058931 -0.06407978 0.08475468 -0.08591852 -0.07122578 0.09135682 0.03839726 0.11051443 -0.016555762 0.16408436 0.078231 0.10339318 0.051521283 -0.01806845 -0.0896421 -0.058805726 -0.009844178 0.046372864 -0.0874856 -0.09859841 -0.021806687 -0.14759651 0.0924759 0.11550581 -0.03844249 -0.037796475 0.00023628352 -0.03243733 -0.07934729 0.10480731 -0.0008056665 -0.008695216 -0.0054986826 0.063810796 -0.031654306 0.0007443871 -0.08041865 -0.086396776 -0.05027916 -0.10085601 0.15381883 -0.09749158 -0.1553988 0.0073883827 0.04869182 -0.060835753 0.117867224 -0.0066597476 -0.09725288 -0.07106787 0.035854254 
rick -0.032377012 -0.03816069 0.059981838 0.0009556918 -0.086857796 -0.04786617 0.045556962 0.10623397 -0.09808444 -0.02610819 0.007703059 0.07104442 0.061019026 -0.03772389 0.08906602 -0.07716366 0.05535958 0.05226311 -0.09560204 -0.08857757 0.08497074 -0.088464715 0.07886177 0.092427984 -0.025193203 0.03430859 -0.085056804 0.040817052 0.010575368 0.1019775 0.055709846 -0.026768168 -0.09063575 -0.018770525 -0.030002525 0.08425991 -0.05607535 -0.022714818 5.1591112e-05 0.087125316 0.074999966 -0.019097548 0.05603485 -0.106617354 0.0738435 -0.06444294 0.04613161 0.01832557 -0.08055641 -0.07119925 0.06985485 -0.09098059 -0.012037061 0.052796356 -0.014268988 -0.0059949993 -0.06331213 -0.08865181 0.040302068 0.042332605 0.08690084 -0.06987684 -0.08888335 -0.093559764 0.045860372 0.036888134 -0.09889905 -0.04367853 0.04479204 -0.08721451 -0.06779402 0.028842608 -0.102458015 0.022723148 -0.054998502 0.09411813 -0.07793024 0.08836687 0.04222463 -0.050337564 -0.09535482 0.033443 0.014734541 0.023509672 -0.057897452 0.0006969733 0.039655123 -0.011326367 0.0853439 -0.002317905 0.026156532 -0.09616619 -0.055867676 -0.02214025 -0.0713341 0.085671194 0.031975772 -0.071783744 0.05134959 0.02640895 
steve -0.027125377 0.03491815 -0.0687395 0.040057797 0.07375862 0.0016309875 0.068605475 0.09270533 0.03724639 0.028706891 -0.009789892 -0.06428205 0.049326196 0.01078865 -0.009385452 0.058745615 0.053974666 -0.07575948 0.06807239 -0.071943104 0.057580464 -0.053882536 -0.007438461 0.03231079 0.07354365 0.021532075 0.030307326 0.03734608 -0.026241805 0.01655017 -0.046112172 -0.076614775 0.08954052 -0.06435968 0.013619109 0.053176437 -0.0041812835 -0.06436671 0.0049177613 -0.012850206 0.020110412 -0.103176124 -0.07767601 -0.0103872605 0.023095394 0.043971527 0.018679446 0.028781526 -0.05397301 0.054351218 -0.090980016 0.015403117 -0.07541412 0.04449897 0.024111401 0.035309523 -0.097440384 -0.06827984 -0.024606444 0.06721908 0.05116281 0.018066209 -0.0447288 -0.07227145 0.02034446 -0.06799882 0.091373175 -0.009892268 0.03852686 -0.011273292 0.016691243 -0.030909857 -0.06520253 -0.065083064 -0.04534784 0.02850577 0.06331219 0.02135683 0.076516196 0.07192754 -0.0141411 0.044892605 -0.04621719 -0.04039692 0.03919458 0.051129095 -0.03309746 -0.02492537 0.040778976 -0.014949913 0.042249292 0.09645711 0.032815576 -0.030514408 -0.008641709 -0.008919665 0.05898408 0.09729166 0.0020029007 0.07299249 
recommendation -0.012208279 0.12782203 0.13533898 -0.07736216 0.095951065 0.090131216 -0.010195736 0.123701684 0.038537912 -0.080795474 0.16222775 0.07686329 0.09581743 0.14306276 -0.15363562 -0.065405674 0.024722414 0.020677485 -0.11628332 -0.05775395 -0.09060908 0.09961741 -0.10919351 0.03641638 0.100686945 -0.015957572 -0.12763129 0.089969076 0.046020985 -0.1061502 -0.102216326 0.0051290076 0.14259829 -0.10973035 -0.074426405 0.014967038 -0.014203419 -0.0473069 -0.07995283 -0.041098557 0.07844374 0.06902482 -0.08405189 -0.0671597 -0.07588393 0.07665699 -0.08520479 -0.028806878 -0.166697 -0.13413297 -0.082281485 0.1257306 -0.11728789 0.122672535 0.10229232 -0.118235804 -0.07121955 0.100664474 0.034596045 0.12281512 0.060334958 0.07048398 0.10881392 -0.021132236 -0.13467446 -0.05567472 -0.05710268 0.15806964 0.110013686 0.08594274 -0.1040132 0.12756072 0.021229055 0.079227544 0.094466805 0.04876828 0.071029045 0.12974389 0.0985905 -0.073995925 -0.04805179 -0.04406637 -0.10156263 0.062326234 0.003204476 0.13330933 0.1442096 -0.13592985 0.1267739 -0.091693334 -0.054039523 0.0073813144 -0.05140478 -0.10104016 -0.0678048 -0.06374669 0.08738692 -0.036039785 0.08441481 0.17276359 
it -0.08485994 -0.028431611 -0.05849971 0.16425681 -0.097723 -0.16471475 0.022992548 -0.06854745 0.026056979 -0.096086 -0.013541885 -0.046246815 0.042957377 -0.15343134 0.09116206 0.05028357 0.19257449 -0.034245968 -0.020288652 -0.036369666 -0.09788921 0.04896492 -0.056457616 0.045461338 0.049166154 0.16223717 0.051976535 0.15461612 0.028925244 0.2131581 0.046989057 0.005514173 0.036162533 -0.104881056 -0.075898126 0.0473251 -0.054511253 -0.11350979 0.1700049 0.016810415 0.12551984 -0.07641771 -0.09199809 -0.049687058 0.101606205 -0.06881162 -0.06618807 -0.12792523 0.066707015 -0.03752003 0.044113807 0.04338754 -0.097202875 0.18224522 -0.024321811 -0.20295814 -0.09919478 -0.032286882 -0.017624224 0.13461591 0.13768722 -0.086071394 -0.19299187 0.009716945 -0.100898854 -0.06534031 -0.022651915 -0.04168736 -0.017977647 -0.014000715 -0.050989952 0.08058126 -0.032784563 0.15806481 -0.029767403 0.002371075 0.15728913 0.03946241 0.14490294 -0.07802533 -0.062310226 0.036284313 0.13735214 0.15053101 0.13514107 0.14687747 0.11252098 0.15714571 -0.025786214 0.0612732 0.077726245 -0.081724316 -0.09210939 -0.12733799 0.094402485 0.051621344 0.10137338 0.102593616 0.022947924 0.2355256 
selection -0.06014222 -0.029557616 -0.020833068 0.048302136 0.015475192 0.04742151 -0.116189264 -0.02515566 -0.045921005 -0.08481986 -0.003179106 0.03408526 0.06593842 -0.06282134 -0.035944834 -0.07341796 0.036910318 -0.078710236 -0.01458652 -0.084889665 0.017467499 0.047969215 -0.03156032 0.063455716 0.029625835 0.17447636 0.057277054 -0.025067415 0.12198734 0.043388538 -0.010903412 0.0116314255 -0.12476761 0.01387526 -0.04016158 -0.0138258 -0.061738156 -0.10382847 0.14183643 0.09504428 -0.010027097 -0.14585516 -0.0142574925 -0.11325868 0.11517237 -0.08141835 3.9138642e-05 -0.0014424236 0.037081655 0.11132958 -0.05031304 0.030629009 0.0056730374 0.08043659 -0.035193212 -0.172681 -0.09122043 0.045496643 0.007186532 0.00034852713 0.039418444 0.0020991 0.007159619 0.068610646 0.031129666 -0.13582225 -0.019746408 0.101863354 0.049718026 -0.028472401 0.06722194 -0.06519429 -0.09176286 0.11451464 0.048378266 0.02773373 0.059407532 0.15189345 0.04436179 -0.06764417 -0.061839372 0.0666293 -0.008598072 0.09302536 0.12380281 0.07419858 0.07249039 0.027615942 0.0492795 -0.075189024 0.15390888 -0.011119125 -0.06691579 -0.041481197 0.105388336 -0.015272512 0.08764366 0.06095032 0.10522095 0.0871146 
on -0.038081795 0.055511937 -0.023217153 -0.10309339 0.012548173 -0.027361497 0.038165007 0.13990872 -0.016441079 0.08807548 -0.11164678 0.034390695 0.021576995 0.21655536 -0.14905822 0.1405873 -0.036187943 -0.00643858 0.15591735 -0.023189906 0.09555683 -0.123220876 0.103329524 -0.1291322 -0.0054930784 -0.036540326 0.14942843 -0.120959185 -0.05312204 -0.004834914 -0.06939981 -0.14705049 -0.002246534 -0.1201234 0.14373283 0.07509666 0.10967124 0.028646065 -0.099538535 0.062166937 -0.06220933 -0.13036048 0.02086382 -0.1106164 0.0140411565 0.034148723 -0.014849343 -0.07236135 0.06444579 -0.104068026 -0.112118445 -0.078308105 -0.09929927 -0.01873304 0.1361243 0.061817583 -0.10726313 0.0474182 -0.19385532 0.1299803 -0.18114728 0.09770546 0.012843329 0.11433019 0.07096483 0.04919353 0.021778857 -0.031723812 0.09890468 -0.03048802 0.07051391 0.060700417 -0.041455697 -0.2448722 0.0056875693 0.011863688 0.08178606 0.08306428 -0.015400526 -0.006839188 -0.09688384 0.045723446 -0.18935147 0.029255928 0.008865371 -0.005806489 0.012364867 -0.15659076 0.059056878 -0.17877719 0.075047255 0.17582977 0.18266389 0.08786825 -0.13806899 -0.093324095 -0.0043055112 0.10606483 0.04602728 0.03036244 
menu 0.061876465 0.01854542 -0.05360889 0.08690144 0.035676036 0.03526324 -0.14745177 0.09079637 -0.08498909 -0.05480261 0.11967146 0.017548565 0.034491368 0.086109124 -0.04423847 -0.11664487 0.09147072 -0.10119139 0.008408162 -0.116822414 -0.0041763242 0.15988997 -0.0032045913 0.023821838 0.1306043 0.09002131 0.029368745 0.06348448 0.06500057 -0.10881137 -0.12663648 0.033676155 -0.054070923 0.025960593 -0.1703546 0.006087216 -0.10735927 -0.18449041 0.07809344 0.035711564 -0.0053352052 -0.062599756 -0.16963147 -0.09407556 0.08566859 -0.020221598 -0.12781306 -0.049780045 -0.025432719 0.03627189 -0.024014013 0.09139546 -0.07247192 0.093559965 0.046944935 -0.13889663 -0.08838316 0.051274277 -0.06681658 -0.004439241 -0.028340138 -0.032021515 0.01966648 0.094228245 -0.0027597179 -0.0944904 -0.10878077 0.1588777 0.05584466 0.13296477 -0.020422174 -0.009931927 -0.06278159 0.17613825 0.08351528 0.026001249 0.05048177 0.23427409 0.058940083 -0.0932099 -0.08995815 -0.0876659 -0.024829803 0.09165223 0.08549379 0.07951031 0.14613843 0.009923484 0.105714425 -0.062515125 0.09863677 0.012252465 -0.121245675 -0.07682232 0.08404351 -0.0944233 0.055641107 0.07561471 0.07783153 0.025926711 
great -0.22003794 0.23176752 -0.18711722 -0.20288195 -0.24943294 0.13436224 -0.2728114 0.32110843 0.03654233 -0.10117042 -0.12881237 -0.011343263 0.3547345 0.19467507 -0.020486597 -0.30272868 0.27892905 0.0047695176 0.04993473 -0.31080714 -0.20172815 -0.3223933 -0.15929753 0.29670852 0.33948922 0.25437936 0.2803353 -0.09566964 0.28240144 0.29458803 -0.31058827 -0.31970114 -0.021333719 -0.35519618 0.28832564 0.30183893 -0.28228527 -0.3866039 -0.118144095 0.2581914 -0.2139889 -0.34477204 -0.28159648 -0.30503336 0.23186456 -0.08219983 0.21143115 -0.3308073 0.18406418 -0.06842982 -0.2671074 0.20265692 -0.2198196 0.21878454 0.20037153 -0.23645365 -0.34050423 -0.30131584 -0.158113 0.2869403 -0.14976141 0.28092387 -0.2979975 0.27091327 -0.18772131 -0.28334752 -0.28672272 0.2227631 0.23992531 -0.25770986 0.076599106 -0.12753843 -0.26488325 -0.14010291 0.22087622 0.25667158 0.26622796 0.32664374 0.034033258 -0.19156283 -0.2267958 0.10154875 -0.19098006 0.14437768 0.25765878 0.29875463 0.16310918 0.17243469 0.2446064 -0.24420784 0.3118198 0.042580556 0.069594264 -0.33130774 0.22042319 -0.3003531 0.33118388 0.27810705 0.32120168 0.21148828 
so -0.14537266 0.13375044 -0.19062154 0.16256942 0.08391085 -0.08490105 0.018784268 0.043326557 -0.24959564 -0.1623528 0.17653486 -0.14217944 0.10571875 -0.046583362 -0.040204067 -0.081288636 0.0909745 0.21064422 -0.091475 -0.15477616 -0.23081361 0.09071006 -0.21163416 0.05654704 0.036684174 0.18904401 0.027030066 0.07958924 0.093569554 0.0026224726 0.13035952 0.01262464 0.18371472 0.04126649 -0.12882723 0.10041724 -0.115161724 -0.120771505 0.061329972 0.08676373 0.14405793 -0.04408609 0.04785025 -0.07455606 0.10143939 -0.08385992 -0.114937514 -0.09867238 0.114549145 -0.17133632 -0.026020095 0.25422767 0.04865273 -0.047172762 -0.059159223 -0.22328193 -0.081739426 -0.09302834 -0.07307755 0.09739604 0.0042451653 -0.02078996 0.18817092 0.019866098 -0.09813673 -0.054182738 -0.004536333 -0.055977277 0.066781275 0.12980296 0.13376442 0.114503376 0.09937072 -0.0082593765 0.0032934507 -0.018821195 0.001111818 -0.054593682 -0.16859318 0.09921738 -0.0674097 -0.18157105 -0.03675701 -0.08705135 0.1606384 0.14940052 -0.0045648473 0.20347285 0.085790016 -0.0012750154 0.0766155 -0.0979184 0.07458489 -0.08600834 -0.08533196 -0.054854844 -0.03759553 0.13674353 0.06593266 0.18029213 
were 0.13170065 -0.023061294 0.027927663 -0.087992094 0.07452083 0.09886817 0.14910868 0.081190355 -0.03196622 0.08699794 -0.00022880976 -0.075013384 0.009659718 0.046591334 0.17154063 -0.19776675 -0.055676788 -0.1690351 -0.022392211 0.034609277 0.16253597 -0.07821819 0.07680463 0.002004386 -0.08925823 0.025898483 0.0028539337 0.0826896 -0.05118643 -0.10294304 -0.04084018 0.0764955 -0.18663143 0.11289909 -0.010876133 -0.008821104 -0.06168394 -0.17248929 0.086471446 0.1250217 -0.115196675 0.04909289 0.08034325 -0.0044590123 -0.012210842 -0.07672295 0.095119156 -0.0036749449 -0.07746505 0.119323574 0.03395921 0.026137017 0.16465956 -0.00070369407 -0.15842322 0.05694647 0.030408047 -0.053325165 0.075301304 -0.15269534 -0.060597494 -0.062295035 -0.07681836 0.1159604 0.071503796 0.14701982 -0.08286565 0.11156679 -0.052992992 -0.052992202 0.11407044 -0.08990189 0.009218249 0.033782516 -0.070249006 0.115444906 -0.075654656 -0.04043551 -0.07698438 0.0399345 -0.015205022 0.01687067 0.03473355 -0.041238733 -0.09724199 -0.036235806 -0.07449087 0.07843906 0.073219605 -0.043460745 -0.05242809 -0.0371367 0.038078763 -0.06714252 0.057892065 0.044197697 -0.060625564 -0.08306038 -0.013626405 -0.06682769 
prices 0.1456541 -0.10042499 -0.10709466 -0.021292094 -0.022484547 0.12917902 -0.013401644 0.17000024 0.14646721 0.09708969 0.1450587 -0.16994186 0.18302125 0.21271566 0.013364632 -0.114743635 0.11522928 -0.123775266 0.06447577 -0.11038269 -0.05766253 -0.11991327 -0.054311465 -0.023383057 0.10845524 0.12668827 0.041566573 -0.03423959 -0.11325545 0.055266865 -0.14241202 -0.23019983 -0.10100115 -0.076477766 0.03944375 0.25028688 -0.11694403 -0.12444767 0.070004135 0.10973379 -0.025694152 -0.07263336 -0.20097348 -0.13343821 0.026089007 -0.05064282 -0.11045131 -0.17989144 -0.11528083 0.098002076 -0.08648426 0.1722455 -0.17626841 0.17692053 0.14605157 0.106542535 -0.18807718 -0.102174774 0.09660105 0.15223019 0.02626303 0.041890092 -0.1320253 0.046266265 -0.044772305 0.07933463 -0.016977768 0.049367953 0.0007743029 0.09251596 -0.02007852 -0.050419483 -0.20660692 -0.034757733 0.12941398 0.0785102 0.19408362 0.10278726 -0.11814924 0.015046943 -0.07989297 -0.11978276 0.096240014 0.19994259 -0.015652593 0.16047795 -0.028574029 0.10471677 0.21163656 -0.0842953 0.063232146 -0.05502452 -0.036261197 -0.15850836 0.18938345 -0.13345525 0.084538475 0.1045733 0.13281395 -0.01368569 
now -0.09489479 0.066088654 -0.035078246 -0.094178684 -0.0378591 0.0784289 -0.09991949 0.027669236 -0.12212347 -0.08354825 0.0010610856 0.0068298634 0.042614363 0.020248547 -0.1454448 0.077520385 -0.14366919 0.16769147 0.04618195 0.0412922 0.10988536 0.030234894 0.050740182 -0.064784564 -0.06523774 -0.00020995186 0.120182686 -0.042816352 0.01297652 -0.061518144 0.0619935 -0.025389085 0.15740211 -0.005360897 -0.0907361 0.0546062 0.037757732 0.021718299 -0.067089334 -0.058447868 -0.00835744 -0.059144452 0.15998262 -0.0053370073 0.10497765 -0.06579118 -0.006295457 0.024945283 0.08025755 -0.19230184 0.026430525 -0.079451226 -0.024699347 -0.20028968 0.026311195 0.066906855 -0.01219023 0.001763474 -0.15529218 0.078981176 -0.17396581 0.021526294 0.12744802 0.06358091 0.116646245 -0.02602887 -0.0952734 -0.0006307156 0.10985207 -0.06695519 0.079433426 -0.06541861 0.060654685 -0.15591857 0.017546944 -0.02490673 -0.034854338 -0.009292474 -0.061576724 0.017854173 -0.057860475 -0.11648751 -0.20528677 -0.080783404 0.11494213 0.010127365 -0.049041107 -0.033179045 0.026592642 -0.16462278 0.011433606 0.11342521 0.030069495 0.09698032 -0.18850213 -0.015060921 -0.020189978 -0.039947025 -0.03903028 -0.07087052 
i 0.06947339 -0.07405831 0.018492064 0.071238525 0.03589944 -0.0008568561 0.014680873 -0.042873368 0.023310456 0.038311057 0.054706827 -0.0088363085 0.020476796 -0.028290162 0.048734758 0.034316394 0.035574693 -0.07811275 -0.020615755 0.06770406 -0.10643823 0.08973622 -0.008494744 -0.017210172 -0.020593164 -0.051419742 -0.09207693 -0.05777078 -0.026504323 -0.031846 0.040521815 0.06218276 -0.030685168 -0.016049583 -0.10119431 -0.03658866 0.044208724 0.018018907 0.06968293 -0.06730513 0.07655986 0.077308096 -0.009884925 0.040741086 -0.016085282 0.001980924 -0.07657014 0.04196232 -0.051980376 0.06928103 0.07411214 -0.008344937 0.03405259 -0.010604614 -0.035138447 -0.012384347 0.018322524 0.007586912 0.018100452 -0.016088812 0.09132997 -0.005701724 0.048180923 -0.09199438 -0.037933417 0.06471371 0.02370693 -0.029991597 -0.061517004 0.056358792 -0.032721136 0.093094274 0.054273248 0.060435202 -0.030610548 -0.067080066 -0.036923368 -0.03283104 0.012285919 0.05271695 0.004610552 -0.00121855 0.08221242 0.06124092 -0.040632147 0.0031140156 0.048266385 -0.011325994 -0.08740224 0.08767093 -0.029464645 -0.044570945 -0.06273406 0.061462518 0.0035229404 0.066080734 -0.0998449 -0.041352205 -0.028752409 -0.016516225 
am 0.09150107 -0.108687006 0.018900279 0.085814215 -0.06422194 0.056549765 0.018439833 -0.10158248 -0.034467198 -0.09824223 0.09109343 -0.0053009405 -0.06007221 -0.19182128 0.06707013 0.015589305 -0.051645167 0.029944682 -0.13016586 0.15982848 0.2123117 0.045127686 -0.016129687 0.07181879 -0.10411778 -0.067700036 -0.15123087 0.14218637 -0.04736542 -0.03251419 0.023427408 0.067987345 0.046088167 0.10028515 -0.08688937 -0.14974825 -0.073178664 0.15293524 0.0978071 -0.11589954 0.06894925 0.04947924 0.06172418 0.14567032 0.106656455 -0.07372678 0.10722456 0.116740465 -0.06257153 0.06609467 0.11526476 -0.049857356 -0.035550725 -0.0406058 -0.13340797 0.13128276 0.14601147 -0.060010877 0.078877434 -0.0509297 0.1110533 -0.07312793 -0.011405114 -0.11992399 0.14552166 0.07104226 -0.05011962 0.11738493 -0.025120687 0.014553088 -0.13369596 -0.10942831 0.08192119 0.18587895 -0.104503326 -0.0588578 -0.13353822 -0.013263253 0.05968493 -0.038327083 0.06648507 -0.043392163 0.08667519 -0.037304338 -0.12199491 -0.06151492 -0.006763365 0.017022014 -0.12875915 0.0245978 -0.10877803 -0.068020865 -0.117949925 -0.002042685 0.048452217 0.1620457 -0.08623512 -0.21136156 -0.050461248 -0.123947345 
getting 0.0872797 -0.071280986 0.0060252775 -0.15373853 0.16038592 0.09936731 0.12663887 -0.10538319 -0.05430236 0.062756754 0.034767322 -0.08716955 -0.16533133 -0.016633736 0.01254773 -0.006997887 -0.117744036 -0.022886647 0.016075002 0.09089625 0.08788834 -0.0026615153 0.06869503 -0.14790256 -0.13135943 -0.09253874 -0.1404689 0.0001410705 -0.087262996 -0.1638376 0.051722214 0.122097835 -0.043585453 0.19118701 -0.08312187 -0.16938455 0.16681868 0.0831607 -0.09974718 -0.012010155 0.011363479 0.11600774 0.12889528 0.089150466 -0.19698068 0.082671985 -0.06425355 0.12998758 0.006821581 0.0078003053 -0.0071444344 -0.13664263 0.05817797 -0.07237527 -0.03462783 0.10283855 0.1395273 0.1272804 0.08589237 -0.054588784 -0.1309992 0.008500988 0.20753117 -0.011558255 0.027494851 0.12984288 0.07705264 0.01055507 -0.05867984 0.103866905 0.12605874 0.03604785 0.15016173 -0.1292215 -0.08838498 -0.034080368 -0.071227655 -0.15749525 -0.102759466 -0.057505168 -0.09486336 -0.10908282 -0.11221822 -0.10757482 -0.10359853 -0.16710746 -0.10094871 -0.14149868 -0.09973897 0.029316185 -0.1024041 -0.0853253 0.14088443 0.14321563 0.010164264 0.08394738 -0.08439833 -0.13457555 -0.13976465 -0.12256684 
angry -0.10034775 0.09512325 0.07964166 -0.06106304 -0.12674013 -0.111590035 0.07156825 -0.05998943 0.1436634 -0.16314803 -0.1512219 0.09226097 0.12591809 -0.119383365 0.10758248 0.10005379 -0.13844287 0.095736764 -0.1176253 0.13757531 -0.11497108 -0.076078855 -0.08310511 0.087389104 -0.060976945 -0.06346714 -0.11719011 0.12277587 0.11478446 0.09243876 0.054669555 0.14123975 0.067718685 -0.12557411 0.048749585 -0.10066615 0.08757237 0.12873967 -0.05012121 -0.113457285 0.047992956 0.10201377 0.05582139 0.10223028 -0.05574419 0.0348494 0.15354018 0.099152654 0.053508088 -0.04977436 -0.09480712 0.024060482 -0.12993361 -0.1267735 0.06616426 0.136769 0.06717661 -0.08811971 0.0941428 0.053086173 0.101361126 0.13270216 0.076181926 -0.121948965 -0.03985757 -0.06505054 0.04709127 -0.09070743 -0.16847686 -0.050259907 -0.061808214 0.11839019 0.1115211 -0.13116112 -0.12480614 -0.076117866 -0.090598926 -0.07729505 0.119593844 0.12310795 0.09534266 0.072235204 -0.13186187 -0.1087963 -0.14415592 -0.108105764 -0.061838135 -0.07120954 -0.1316734 0.058376174 -0.097416535 -0.104455546 0.08906017 0.06660332 -0.109037325 0.066058666 0.035728227 -0.043259878 -0.13512759 0.124898754 
want -0.113632485 0.027555276 0.14800638 -0.10824711 -0.15416376 -0.051911335 -0.025978172 0.028102582 0.054714084 0.105315894 -0.13386996 0.09827111 -0.10653759 0.06487655 0.033253573 0.02762929 0.03538663 -0.04094695 0.06154176 -0.022669215 -0.013742042 -0.13465327 0.077445254 0.020586452 0.104264155 -0.09785666 -0.012500308 -0.10795987 0.1647532 0.09510168 -0.048812333 -0.08398162 -0.07751584 -0.117334306 0.17112783 0.08066247 0.08048708 0.0011342176 -0.16764005 0.12291052 -0.066275306 -0.06675691 -0.20302317 -0.06340227 -0.16745023 0.13148424 -0.066314965 -0.028721612 0.066248655 -0.09547536 -0.17282864 -0.059078265 -0.18256271 0.18673715 0.09674812 0.019744866 0.0019988716 0.19031371 -0.043807387 0.03036005 -0.04243795 -0.043441072 -0.12803742 0.0964082 -0.021388324 -0.09975368 0.050218757 -0.008523611 0.109904155 -0.08999054 -0.042815425 0.017126946 -0.07380683 -0.068420395 0.16062844 0.13737915 0.07210751 0.12986942 0.09983422 -0.176693 -0.18769136 0.13117312 -0.055753157 0.14626817 0.09238017 0.09566611 0.17758475 -0.12737978 0.06192574 -0.059988998 -0.028258285 0.06471862 -0.027680308 -0.031141615 -0.008448441 -0.071075425 0.07680036 0.043528035 0.13953732 0.0029512367 
my -0.078200966 0.06619481 0.0862028 -0.04062362 -0.068055674 -0.07754531 -0.07079805 0.0030508898 0.0015828483 -0.05148962 -0.12978862 0.19697376 0.013664244 0.008459495 -0.1425302 0.12619598 0.007802577 0.046994574 0.0014522385 0.01734019 0.064207785 -0.007835273 0.05179446 -0.009267906 0.0022800849 -0.04932127 0.11157578 -0.078273155 0.10172098 0.058314223 0.099001855 -0.04162781 -0.022627084 -0.08444894 0.051537976 0.106140114 0.12106304 0.027523214 -0.089439526 0.028611405 -0.10857006 -0.07195503 -0.00391246 -0.072715014 0.05364218 0.04328538 0.011182867 -0.02127757 0.050753318 -0.16505104 0.01206052 -0.14188467 -0.08285671 0.032228496 0.026898112 -0.014954857 -0.05398014 0.04731543 -0.100363776 0.100563 -0.15004504 0.08643342 0.015077427 0.09756507 0.034236815 -0.05530117 0.048733708 -0.02226382 0.13428646 -0.12098851 -0.044072255 0.035410658 -0.010152569 -0.13225655 -0.010284937 0.06650726 0.061718054 0.10177855 0.105712265 -0.08992702 -0.08290281 0.11584532 -0.08310783 0.031890687 0.038575634 0.029262109 0.117519684 -0.19809783 0.048308358 -0.16735838 0.061320253 0.1684058 0.07242396 0.060920168 -0.12703957 0.025617186 0.036234833 -0.078719065 0.0009167493 0.04742473 
damn 0.031129748 0.002100229 -0.025925659 -0.15820685 -0.04331104 0.20850325 -0.15009105 -0.05524922 0.10426214 0.075601086 0.01822727 -0.0025916542 -0.022021191 -0.09489922 0.015821943 -0.077015296 -0.10698719 -0.008778456 -0.14416915 0.09448445 0.039893173 -0.120059684 -0.042838227 0.105941035 0.18995236 -0.086288996 -0.092959404 -0.02482136 0.06135809 0.09252159 -0.099950485 0.04402919 -0.061848845 0.028628457 0.13337988 -0.08473 -0.068976566 0.13253649 -0.19909257 0.08337281 -0.18804304 -0.0118701095 -0.1582395 0.031693626 -0.06783116 0.07425302 0.100878574 0.07843439 -0.01900327 0.090615384 -0.17917365 -0.004155617 -0.12662598 0.0384031 0.15704545 0.102523096 0.086092085 0.059124026 0.006626959 -0.07137285 0.0012410773 -0.022517826 -0.044637382 0.06265898 0.07341534 -0.17558098 -0.10974991 0.17649876 -0.08052129 -0.050605692 0.017093465 -0.18820745 -0.1411417 -0.032226775 0.14744554 0.12270794 -0.07445932 0.116458446 -0.045869567 -0.06485342 -0.030590497 -0.046827387 -0.043265134 -0.0837305 0.026516322 -0.08980762 -0.06457896 -0.03565486 -0.08933168 0.08983816 -0.075694166 -0.14837717 -0.09575899 -0.093269385 0.1856361 -0.12747265 -0.030870147 0.013051791 -0.04045838 -0.14856082 
pho -0.09379447 0.11232709 0.11743474 -0.103493676 -0.09009057 -0.14183801 0.027040096 -0.025210908 0.09887224 -0.13056535 -0.089924544 0.13083667 0.037591275 -0.08106331 0.050659522 0.115960516 -0.063822 0.095296696 -0.091874756 0.045310907 -0.15307029 -0.044206154 -0.15800464 0.09864663 -0.05017245 -0.077839956 -0.07243678 0.120819904 0.08665124 0.09075996 0.018742684 0.091457725 0.14480005 -0.099407285 0.15445669 -0.069949746 0.05513494 0.054098133 -0.13094497 -0.088211864 0.05554789 0.027075022 0.06309234 0.03173843 -0.10562241 0.09369924 0.099429 0.082405634 0.05238091 -0.0915205 -0.067332394 0.10824874 -0.039915904 -0.082412474 0.09367098 0.026259528 0.06322705 -0.1261725 0.038758505 0.0852757 0.11114071 0.10080314 0.071106926 -0.03334859 -0.10486933 -0.11290658 0.052154172 -0.04244162 -0.1025874 -0.10182407 -0.117559835 0.14910643 0.14893311 -0.11495603 -0.08989482 0.0040083285 -0.07976048 -0.0059339255 0.1894613 0.008045027 0.12601575 0.08683543 -0.11720134 -0.054257814 -0.08298365 -0.090779446 -0.030529829 -0.11015978 -0.03195503 0.07506765 -0.064038396 -0.14334035 0.04371686 0.016351257 -0.10258076 0.12824804 0.041624505 -0.14471637 -0.043362413 0.18224476 
honeslty 0.14412345 -0.13825047 0.082065314 0.14787169 0.07675114 -0.12607528 0.07453615 -0.14976865 0.16117182 0.14676635 -0.16611616 0.11654782 -0.17155921 -0.1445365 0.09431732 0.110455394 -0.12354456 -0.109819114 0.14545937 0.110267386 -0.027306251 0.09528573 0.092271134 -0.15005034 -0.082142495 -0.17160499 -0.14882153 -0.094926134 -0.14336531 -0.13371654 0.14258982 0.12505129 -0.103372976 0.08163464 -0.10446927 -0.15326697 0.16614121 0.105693564 0.103719816 -0.112571284 0.13783866 0.07943713 0.13591315 0.11159008 -0.16665211 0.07432055 -0.12968536 0.12283186 -0.09800447 0.13767071 0.115940444 -0.13354371 0.100538716 0.09571387 -0.06602704 -0.03257026 0.13204992 0.12774672 0.07178711 -0.1232931 0.12317116 -0.083881564 0.17959985 -0.064942524 -0.14147471 0.08676372 0.15711376 -0.06358127 -0.086042255 0.058076166 -0.09698039 0.10468101 0.1309437 0.16881096 -0.10977547 -0.1072856 -0.13171478 -0.1064283 0.089095354 0.12566477 0.06790509 0.149548 0.10725547 0.11421512 -0.10388188 -0.115945525 0.11173602 -0.13644524 -0.16211033 0.1263663 -0.12930468 0.14802524 -0.130401 0.085707076 -0.13926406 0.13578966 -0.08784519 -0.08831964 -0.07077572 -0.19183291 
didnt 0.15636863 -0.11467912 -0.091852665 -0.033997342 0.16635513 0.12114539 0.10021813 -0.017395588 0.07201146 0.09615699 0.11078983 -0.13014999 0.012362085 0.025724482 0.026508288 -0.08931772 -0.09256195 -0.039378203 0.021860134 -0.0058984454 0.027046515 0.05678523 0.006055575 0.0049970164 -0.098677605 -0.049287535 -0.17720781 0.047115747 -0.1208137 -0.122156024 -0.056549765 0.06325942 0.09293013 0.054417092 -0.111552104 -0.17008513 -0.08586028 0.10091909 0.01082734 -0.045356747 0.08391607 0.049547717 -0.0050786734 0.0796344 0.05458194 -0.069647826 0.035601545 0.14719895 -0.18666779 0.045419022 0.08406955 0.019812396 0.06737901 -0.045057796 -0.030413508 0.06371108 0.08840296 -0.10274899 0.046081536 -0.012609974 0.06084975 0.058711715 0.028963102 -0.08607612 0.05988837 0.15276577 -0.12707876 0.00036622357 -0.06978336 0.14772697 -0.06662899 0.013113036 0.09679535 0.007060224 0.010309468 -0.013150823 -0.058411796 -0.13329592 -0.1842755 0.115595244 0.11796445 -0.16877186 0.11017352 -0.08156633 -0.111501426 -0.07590887 -0.08551289 0.023062436 -0.052768275 0.15645133 -0.072737135 -0.038011428 -0.023836251 0.00041338635 0.0758883 0.11103275 -0.015757477 -0.01461209 -0.11051981 -0.12791826 
taste 0.1745936 -0.18095067 -0.15523948 -0.07087316 0.113085404 0.09569388 -0.019600453 -0.057020135 -0.10952413 0.11789877 0.09835287 -0.041542206 -0.060416173 0.15334155 -0.12198628 -0.08221823 0.021000372 -0.02348968 0.1385054 -0.018624047 0.14294387 0.12042883 0.14032258 -0.051315676 0.017077133 0.03011467 -0.04278657 -0.1255379 0.007928425 -0.08189216 0.003035436 0.03813842 -0.07613049 0.13145992 -0.14530978 -0.15242843 -0.040938117 0.029872535 0.02763792 0.013397542 -0.01615099 -0.0061241486 -0.033815376 -0.048771728 -0.020123152 0.023689045 -0.12609549 0.035328437 -0.09067056 0.103504546 0.07607617 -0.035078295 -0.03874869 0.062036745 0.03305721 0.02972932 -0.0071404567 0.110642076 -0.07172367 -0.13068448 -0.06696615 -0.16722369 0.018493392 -0.055185817 0.10745313 0.11343614 -0.080783464 0.08059939 0.08500151 0.09897928 0.05250504 -0.07850479 -0.059201133 0.041988704 0.104382984 -0.0318689 0.016190397 0.018353958 -0.09088277 -0.09936747 -0.14280055 -0.059986185 -0.09878744 0.0190795 -0.10109855 -0.026656974 0.09117248 -0.0906032 -0.0021332677 -0.07836015 -0.034671724 0.14106138 0.0013246213 -0.08168816 0.0372138 -0.058196973 -0.030311374 0.047920953 -0.017952133 -0.10581551 
that -0.055731423 0.135752 0.12318039 -0.0040365756 -0.02868154 -0.14101408 0.0067835725 -0.11939866 -0.014963381 -0.05904729 -0.1028882 -0.005765199 -0.12000128 -0.07017428 -0.08317056 0.01414599 -0.14629397 -0.077729024 -0.077555194 0.14824177 0.1497443 -0.009984665 -0.014591429 -0.024394989 -0.07019794 0.02240978 0.059739377 0.123937935 -0.031226868 -0.028671991 0.12472979 0.15057713 0.020895155 0.11359497 0.09896381 -0.13300776 0.12766032 0.1089384 -0.08618638 0.0472255 -0.093556345 0.07561006 0.15038452 0.08932886 -0.04919811 0.01946962 0.11049028 -0.0033130425 0.12066842 0.027028542 -0.012412995 -0.114490435 0.09584563 -0.058436193 -0.0829219 0.079924084 0.08196414 0.059475638 -0.029238297 -0.08194586 -0.07669634 0.010722069 0.08323627 0.07235702 0.07205842 0.00016007619 0.08858736 0.024601653 -0.004366385 -0.061948296 0.007314079 -0.08149399 0.09457966 -0.01980672 -0.13647023 -0.054620992 -0.022639742 0.05478917 0.08507707 -0.019776681 -0.003555661 0.08172636 -0.045784235 -0.13457799 0.021493625 -0.13749188 0.051904876 -0.0037497068 -0.13447723 -0.12901635 0.044820294 -0.006066514 0.06914956 0.16315998 -0.0029452296 0.062328763 -0.097221956 -0.06668197 -0.12410484 -0.09524299 
fresh -0.18207455 0.14500855 0.07219505 -0.1314347 -0.07644073 -0.062967665 -0.05931381 0.2110833 -0.082381725 0.07405572 -0.17175923 0.12296052 0.07287801 0.088148534 0.1375145 -0.20177437 0.015467863 -0.16384426 -0.007847524 -0.19652474 -0.019442026 -0.1986424 0.12839712 0.21853876 0.07397116 0.06386298 0.11507115 0.04627998 0.1355051 0.06915145 -0.09174999 -0.022100082 -0.2747143 -0.06709905 0.04313587 0.026483655 0.0206442 -0.25519687 -0.013539833 0.2805603 -0.123811044 -0.09548111 -0.09637355 -0.2857001 -0.021034524 0.0537365 -0.044563968 -0.09764971 0.072925106 0.06418496 -0.20477809 0.011331014 -0.0025055588 0.07518266 -0.14936846 -0.14056472 -0.1378613 0.0013660523 -0.014839587 -0.002361296 -0.1696307 0.050765138 0.026685447 0.16634484 -0.056665864 -0.10427779 0.036554873 0.13217613 0.102614105 -0.17424418 0.14608215 -0.13494517 -0.080896765 0.013363044 0.09217606 0.24087721 0.070690505 0.13505428 0.04982531 -0.1221784 -0.044422805 0.20706558 -0.14212608 -0.023915764 0.0610306 0.10854454 0.12592235 -0.09306399 0.20161566 -0.22105287 0.085016616 0.14073594 0.023952728 -0.12321981 -0.063129954 -0.10012618 0.10669947 0.052763183 0.14505681 0.04663437 
potatoes -0.039276455 0.060802728 0.11886737 0.0984822 -0.14023879 0.021579053 -0.11994568 -0.006640636 -0.0030541152 -0.099814095 -0.13403004 0.08464379 -0.0824161 -0.041281804 -0.12804995 0.052868266 -0.105620764 0.1128687 -0.087480895 0.09044582 0.12236977 0.06866744 0.08226898 -0.10819454 -0.060072932 -0.100928634 0.12698838 -0.0026366645 0.099550486 -0.12641561 -0.016267693 0.023346221 -0.03659886 0.064276665 -0.08944175 -0.078199536 0.07116427 0.1033259 0.0910648 -0.14063306 -0.11145989 -0.04365809 0.055233646 -0.013788019 0.079341084 -0.05797189 0.13590549 0.08764908 0.05181243 -0.0022791778 0.025442535 -0.1048861 -0.01056611 -0.09251823 -0.07275025 0.09585994 0.12601717 0.10102925 -0.08671706 -0.01894105 -0.0978176 -0.016427679 0.096415505 0.14323927 0.13492687 -0.048501674 0.044509664 0.09245438 0.1003292 -0.074234344 -0.017951205 -0.1126047 0.030143103 0.040437486 -0.07726429 0.019023348 -0.07386654 0.07395805 0.1333508 -0.101659134 -0.024549056 0.118975505 -0.09387708 0.049153414 0.012350603 -0.121156745 0.09485606 -0.07629886 -0.024191845 -0.12835813 0.029250087 0.09234399 -0.14003201 0.04053057 -0.049398303 0.025344413 -0.02335587 -0.051347844 -0.03484384 -0.111272916 
like -0.10322688 0.022277748 0.04910644 -0.021559205 -0.1324589 -0.055137817 0.049570788 0.055278543 0.062038653 0.051133353 -0.063092984 0.072297834 0.013262566 -0.059000857 0.15529397 -0.021442253 0.030998742 -0.071967475 -0.06758821 -0.052291967 -0.07154666 -0.115241244 -0.039984614 0.1562358 0.0060020797 -0.08511984 -0.007417276 0.12730883 0.0864192 0.12269477 0.06716136 0.0133669805 -0.053867083 -0.03430965 0.02455969 0.03809217 0.052153494 -0.020797025 0.01021382 -0.0062349197 0.040905442 0.011485864 -0.05797399 0.014635369 -0.09376086 0.06522263 0.060388356 0.006060261 -0.0038818063 -0.046268474 -0.0653893 0.055590305 -0.117041394 0.06423356 -0.057844386 -0.0665067 -0.013038448 -0.07418424 0.07370396 0.062032327 0.055259142 0.024145659 -0.16131862 -0.018050697 -0.12313132 0.017401898 0.049350843 -0.0306004 -0.023865744 -0.08962914 -0.080815196 0.09187223 0.013273436 0.016673353 -0.03758801 0.034278534 -0.058370333 0.049719967 0.14233498 -0.04599943 0.060711592 0.11592764 0.018233245 0.014110377 -0.03312662 0.028814403 0.047680423 0.016908543 -0.03660695 0.008964233 0.033218157 -0.033754665 0.03668204 -0.012196388 -0.062714614 0.0043528434 0.079738885 -0.060446132 0.046410553 0.0606023 
rubber -0.09274438 0.08234868 0.10532025 -0.092591345 -0.049381565 -0.09397773 0.13341545 -0.06225509 0.100078076 -0.15295945 -0.09321935 0.11927999 0.11187556 -0.124767736 0.109252945 0.0876944 -0.071348235 0.122363 -0.104467966 0.11087779 -0.052289724 -0.05505666 -0.08916221 0.092910446 -0.1100604 -0.11599085 -0.11821813 0.11570319 0.1504223 0.057464864 0.12271473 0.12427768 0.09516828 -0.11074578 0.10875743 -0.059187394 0.0665654 0.076673 -0.119846046 -0.055939175 0.11061302 0.13103999 0.10908078 0.12887332 -0.027805403 0.09013034 0.11297039 0.06798885 0.089379154 -0.04613812 -0.07530924 0.027357748 -0.06715286 -0.103202775 0.08604609 0.13626157 0.1295459 -0.07257508 0.11096749 0.07896588 0.16996592 0.06933567 0.17292978 -0.08977074 -0.09341509 -0.11027795 0.058612697 -0.07598982 -0.11380137 -0.10149164 -0.10756801 0.0751197 0.042621084 -0.076947734 -0.05413999 -0.11963446 -0.0879023 -0.11345408 0.13999498 0.11075696 0.052599028 0.083465025 -0.06798995 -0.04476555 -0.04207673 -0.11871519 -0.09949722 -0.13488224 -0.07456134 0.09534975 -0.113320075 -0.06922052 0.09362444 0.052250586 -0.09271958 0.066318646 0.061745055 -0.115441196 -0.08855427 0.05251032 
you -0.17751975 0.23873411 -0.22021423 -0.067212865 -0.091557644 0.18051939 -0.20634665 0.2819174 -0.12441091 -0.13083757 0.1041249 -0.18008076 0.17727455 0.02148758 -0.117226 -0.1566897 0.14019029 0.10780842 -0.16483833 -0.24568218 -0.03674636 -0.19182192 -0.21790121 0.19594406 0.15723148 0.23526926 0.20506597 0.017974045 0.19240624 0.11318446 -0.21376139 -0.15172566 0.0934758 -0.17459232 0.117282346 0.17120636 -0.1828581 -0.20762412 -0.08345417 0.23495701 -0.12445157 -0.19460161 -0.134555 -0.25535753 0.12806317 -0.10644238 0.19219616 -0.20334794 0.11977807 -0.13864894 -0.27988967 0.22536191 -0.09585756 0.055044513 0.122558855 -0.050586052 -0.26790896 -0.17960869 -0.14229572 0.11825062 -0.15840165 0.24558492 -0.108892694 0.33782405 0.0010095404 -0.1831095 -0.19717282 0.21706215 0.20278017 -0.07402299 0.2002567 -0.12034035 -0.12044391 -0.07476692 0.12442574 0.21264213 0.26376948 0.20790148 -0.1700221 -0.18649617 -0.18000132 -0.22399062 -0.124329284 -0.0058579426 0.26306942 0.16549402 0.015486065 0.1947948 0.18102711 -0.13601252 0.23860754 -0.06327282 0.022589047 -0.17309637 0.22524573 -0.24770474 0.23732658 0.23553383 0.18964103 0.05038892 
could 0.11807667 -0.14654279 -0.05113798 -0.08264966 -0.076205425 0.16976221 -0.01864206 0.0024637172 0.16019218 0.026986282 0.102297865 0.10171341 0.05561432 0.08919016 0.08630388 -0.064959645 0.10932733 -0.08312053 0.03988348 0.067529984 0.05555492 -0.11095245 0.025526311 0.082611926 0.16481201 -0.1114656 -0.05811027 -0.023973506 0.076963305 0.12360028 -0.08807701 0.016825736 -0.062260427 -0.0027977198 0.112007156 4.6458288e-05 -0.13582094 -0.075649105 -0.034243833 -0.013333811 0.03877807 -0.028205492 -0.12932009 0.018903926 -0.041718774 0.15401733 -0.0019416409 0.04712497 -0.11905244 0.12632528 -0.15136988 0.0016701987 -0.14814372 0.14114211 0.0894008 0.025439233 0.0657728 0.047284596 0.039954763 0.003013052 0.101955555 -0.106966615 -0.12127865 -0.12948115 -0.03651408 -0.08585478 -0.18129455 0.022638405 -0.08532677 0.04419069 -0.11696853 0.0053299954 -0.1275807 0.08532728 0.12499621 0.09803106 0.002286494 0.10049823 0.10905934 -0.06474215 -0.090552345 0.050191507 0.08298175 0.10376153 -0.11749163 0.081837945 0.031095225 -0.06825045 -0.031836208 0.038521472 -0.03267851 -0.073155046 -0.08179716 -0.19482315 0.14264108 -0.057193704 0.15509148 -0.029967641 0.07127812 -0.012931611 
tell 0.014430922 -0.14852749 -0.11606703 0.0061571025 -0.09982962 -0.011605023 0.04285285 -0.016304778 -0.071597084 0.031621125 -0.017360266 -0.012440623 -0.039487753 -0.081413634 0.12565821 0.0481956 -0.027322618 0.088161595 0.11310276 -0.041516114 0.023761397 -0.072626516 0.13601181 -0.06817428 -0.08136386 -0.0054764966 0.072512284 -0.02705294 -0.015028256 0.11002656 0.1252869 -0.08733886 -0.050932586 0.023793494 0.08075227 -0.017535113 -0.06697343 0.036724586 0.02582864 0.026094992 -0.046190504 -0.04405075 0.099999 0.06884925 0.0785504 -0.0460484 0.14726028 0.03263427 -0.019914337 0.023591664 0.10344547 -0.02812112 0.07422777 -0.058055304 -0.12008426 0.026349505 0.047522016 -0.037493166 -0.075223535 -0.015958041 -0.038680293 -0.1437593 -0.10526237 -0.03977102 0.081606865 0.086918384 0.026772033 -0.16441312 -0.027649283 -0.061312836 -0.012366511 -0.035636697 -0.041454956 0.001970048 -0.03856638 0.02886742 -0.08736447 -0.06392127 -0.077824734 0.08110388 0.09180097 0.10222361 0.066585824 -0.01973951 -0.05042309 -0.04202365 -0.078975834 0.11479108 -0.003943603 -0.008847142 0.06082409 0.08753789 0.056474086 0.050929286 -0.033004355 0.0828653 -0.001197648 0.0024649655 -0.07812221 -0.0059663113 
they -0.06549869 0.10528497 -0.020472648 -0.15467401 -0.008560862 -0.0071992725 -0.026458787 0.04491444 -0.077548236 0.0012883965 0.0320977 -0.0671994 0.08354133 -0.04418994 -0.014255701 -0.021186534 -0.10783905 0.0766111 -0.034609776 -0.1132114 -0.087748766 -0.07401479 -0.086054705 0.03259524 0.0049610487 0.09239718 0.03183258 -0.059775274 -0.0015609817 0.113807455 -0.033831913 -0.040994305 0.08477867 -0.0473145 0.14838043 0.05849594 -0.025669323 -0.024456056 -0.18957473 0.13298151 -0.050027695 -0.06139705 0.0597095 -0.08962133 -0.14937434 0.055271562 -0.0064403894 0.009528007 0.15943976 -0.057008307 -0.1358704 0.044953004 0.05605616 -0.08617881 0.14738125 0.047599643 -0.101919405 -0.081556484 -0.063715905 -0.014435115 -0.066149615 0.09615574 0.049257834 0.114028744 -0.028601727 -0.113931224 0.022699112 0.01407498 0.024855522 -0.065664746 0.051923014 0.03386934 -0.0011999964 -0.18014587 0.05617712 0.036014553 0.0051900786 -0.036559675 -0.119322255 0.11452743 -0.026444767 -0.065785825 -0.11647078 -0.1380527 0.03307417 -0.03395836 -0.045116834 0.07902298 -0.025609935 0.018038249 0.050324216 -0.10366995 0.16193093 0.021702368 -0.05230268 -0.069146834 0.060898002 0.13670239 0.072756015 0.066841856 
had 0.027778031 -0.05005832 0.0936048 -0.07339089 0.050161753 0.1418333 -0.09933054 0.1115928 0.06849536 0.0015990281 -0.06399688 0.007951238 0.0761173 0.028741026 -0.043525998 -0.028903699 0.08021 -0.004464473 -0.02232832 -0.06783549 0.069324695 0.06877721 0.05842895 -0.010693876 0.044873204 -0.05740018 0.034058217 -0.12831578 0.084489 -0.12905169 -0.13896154 -0.004224431 -0.06351694 0.0018375531 0.07928944 -0.010155607 -0.010687213 -0.10820937 0.034557134 -0.07569384 -0.0068121594 -0.1080583 -0.06840783 -0.13542022 0.11858702 -0.03514669 0.12698407 -0.06339618 -0.08957471 0.052202147 -0.03332952 -0.060715415 -0.023774326 -0.01462617 -0.02712275 -0.05249825 0.034498755 0.010382077 0.041536365 0.045202624 -0.024206713 0.07345941 -0.023973925 0.011159215 0.015561127 -0.027486335 -0.085054785 0.09282652 0.0743792 -0.010468169 -0.07192104 -0.01903753 -0.057526756 0.03269885 -0.03088657 0.09656333 0.016801845 0.0591748 0.017335711 -0.12782809 -0.056454424 0.11665415 -0.020163134 0.09253315 0.017488092 -0.012500066 0.017252877 -0.024267424 0.05935965 -0.054012917 0.037996493 -0.006134199 -0.020853564 -0.09231995 0.049467485 0.0100833615 0.08256772 -0.0065643117 0.06417635 -0.064039245 
been 0.0856406 -0.08639213 -0.14690919 0.0059866854 0.13730903 0.17351446 -0.104630195 -0.046138965 -0.040172163 -0.06568979 0.01803757 -0.07475828 0.06510908 -0.04644431 -0.056793362 0.018889168 0.006893483 -0.123814985 -0.0034781923 0.07957309 0.14129719 -0.01438152 -0.06046538 -0.04996504 -0.044523336 0.13418834 0.10189485 -0.031824626 -0.09363496 -0.017671479 -0.13797311 0.04414331 0.07642965 0.022668755 -0.026003724 -0.0650793 -0.10093775 -0.006754747 0.0030435792 -0.019734196 0.06667095 0.0016414814 0.11479115 0.020885978 0.13636525 -0.09134798 0.10481216 0.054863416 0.04246679 0.16793871 0.04029698 -0.043645505 0.0985835 -0.033463012 -0.0058625396 0.06258831 -0.005675288 -0.1427166 0.020237857 -0.1180719 0.04340828 0.083906464 0.06768123 -0.01760787 0.15729198 0.05156445 -0.053836416 0.08136352 -0.016946934 -0.022820072 0.009089665 -0.14780062 0.05721952 -0.024196036 -0.11389237 -0.06000025 -0.0001508118 -0.058520205 -0.0624365 0.11109591 0.14867783 -0.01112 0.028122727 -0.09863912 0.047085244 -0.06504532 -0.11710252 0.094608665 -0.07923585 -0.015297543 0.04426602 0.051124524 0.054337293 0.07953331 0.097768374 -0.021713508 -0.058819678 -0.015090976 -0.12366079 -0.063083224 
made -0.0395023 -0.011173193 -0.13228248 0.022248121 -0.025744984 -0.050868012 0.09925386 0.10103299 0.07209672 -0.015872642 0.08634037 -0.08108444 0.1510188 0.09802264 0.109830976 -0.04316232 0.04454474 -0.08785558 0.0052824067 -0.13140413 -0.10528809 -0.07123997 -0.14367506 0.1340992 0.108540036 0.16058029 -0.002944821 0.06867129 -0.044294722 0.13627934 0.022879533 -0.1298277 0.039129887 -0.065536045 -0.076483995 0.12450087 -0.08849262 -0.12007476 0.05475036 0.12718455 0.09533896 -0.067576766 -0.016628824 -0.07615534 -0.021350576 0.01122861 -0.13768288 -0.092763595 -0.009590516 -0.038301483 -0.011411409 0.17977741 -0.028506072 0.0478735 0.008204267 -0.06851764 -0.13981266 -0.11638862 0.124852315 0.12856811 0.08840643 0.07707002 -0.098794505 -0.056158222 -0.10409515 0.0060678124 0.0051694605 -0.041875105 -0.021829816 0.038203992 -0.0040908772 0.107408725 -0.05638261 0.012225211 0.02479784 0.031931993 0.106082074 0.032102812 -0.03890244 0.026977526 -0.042793028 -0.039168056 0.14077647 0.056870464 -0.05827563 0.14818017 0.0016377958 0.04988964 0.106677204 0.053562902 -0.013001936 -0.13103504 0.024391573 -0.03758043 0.061171934 -0.020450024 0.078361146 0.10007854 0.09464481 0.11991603 
up -0.012781167 0.09565108 0.15763481 0.006764048 -0.16312873 -0.04686445 0.04913051 0.026176458 0.05522379 0.041609693 -0.13975851 0.08942626 0.0003843852 -0.024866855 0.023189612 0.017874083 -0.10526435 -0.063792266 -0.018958068 0.09110652 0.0760964 -0.111595094 0.0676976 0.029123195 -0.13482065 -0.10156884 0.06253603 0.033955965 -0.012857142 0.05250502 0.003372209 0.03952977 -0.0961136 -0.028902663 0.17121482 0.004512892 0.13850747 0.036445417 -0.039356373 0.07093646 -0.10847113 -0.04071099 0.030697864 0.02131737 -0.047289576 -0.028055836 0.16615026 0.101767726 0.05303314 -0.0035939363 0.0471202 -0.061192546 0.06984269 -0.04230492 -0.13844788 0.06192345 0.104310684 -0.119172715 -0.013445954 -0.09421706 -0.12400609 0.07410756 0.007171609 0.14603522 0.12506747 0.024249315 0.06213427 0.038083147 0.03979961 -0.20423163 -0.058625877 -0.14011356 0.03547203 -0.022544386 -0.074146114 0.107711054 -0.05561579 -0.059750497 0.019622903 0.035560258 0.1280228 0.15421811 0.0058698533 -0.11447421 -0.093431965 -0.12601063 -0.013614168 -0.08161323 -0.0014990406 -0.052385844 -0.005728613 0.06444427 0.014923291 0.10875618 -0.004974841 0.107270904 -0.009108601 -0.12541215 -0.13931064 -0.09248858 
ahead -0.05091867 0.050139535 0.087314695 0.096545175 -0.022504563 -0.057505827 0.076131016 -0.025213843 0.06129005 0.043330308 -0.038103446 -0.022244869 -0.059010442 -0.10127536 0.104417056 0.10675658 -0.12240514 0.04483415 0.08478082 0.06254216 -0.07934696 0.08949727 -0.030696768 -0.052198283 -0.05367782 -0.06208355 -0.043546464 0.07167299 -0.03446106 -0.088394426 0.07778537 0.003661732 0.040008858 -0.033104256 0.0570494 0.065901786 0.09274693 0.028944384 -0.07028126 -0.09149036 -0.107045844 0.07671523 -0.026623968 0.12432418 0.050942935 -0.08706509 0.08245897 -0.0887776 -0.07594824 -0.034813922 0.03215374 0.079255715 0.09330305 0.12600626 -0.07329014 0.040598728 0.021031406 0.069300376 0.10403832 0.031113062 0.12391785 -0.11618113 -0.06651687 0.048599873 0.07526591 0.067690246 0.061392654 -0.08607628 -0.060090855 0.09683467 -0.111215055 0.1186224 0.10515543 -0.003588615 -0.067505 -0.016797718 0.08159368 -0.09062395 0.04727368 0.13041568 -0.016819008 -0.07944954 0.03731746 0.032400157 0.1060845 -0.13015026 -0.11062716 0.03675273 0.0027174272 0.017643379 -0.014266942 -0.071852975 -0.066851996 -0.06960907 -0.010410762 0.048571497 -0.089928895 0.02757325 0.03523835 -0.029880198 
of 0.07912809 0.031684905 -0.04824645 0.10983538 0.053254597 0.099317096 0.021159897 -0.066191316 -0.039315376 -0.0055318666 0.1299899 -0.0495558 -0.07651243 -0.11066234 0.04968079 -0.068323195 0.014869139 -0.21768452 -0.13984576 0.07283182 0.034244414 -0.017131492 -0.06483099 0.022967849 -0.10209051 0.081825405 -0.051875178 0.09841433 -0.04030058 -0.09475084 -0.07338834 0.17549312 -0.072106816 0.1552645 -0.064581126 -0.04965432 -0.09011416 0.01119462 0.14278235 0.10329365 -0.16531484 0.04492748 0.04505596 0.014370743 0.0661954 -0.12850416 0.08011058 0.032745626 0.021462569 0.1381507 0.040735323 0.05544887 0.124638386 -0.036094304 -0.24447036 0.0597081 0.05872701 0.05223625 0.049757462 -0.21327557 0.02942883 -0.06512014 0.09174142 0.08501102 0.1163274 0.11286362 0.021788353 0.21527247 -0.16781648 0.091304235 0.037334077 -0.14159706 -0.01996759 0.14217144 -0.013564559 0.020374276 -0.014640556 -0.09753805 -0.09307335 0.012248131 0.038161412 -0.028746875 0.122527905 -0.003260461 -0.048535626 -0.076508716 0.0024211293 0.14779113 -0.09903099 0.009169455 -0.0015862075 -0.07510268 -0.03377585 -0.040665362 0.17290711 0.07291627 -0.071166895 -0.054102663 -0.026558671 -0.11911355 
time -0.013875547 0.05445718 -0.1409218 0.05749056 -0.0001843027 0.051241934 -0.06247922 0.05545565 -0.021315977 0.04882824 0.024780778 -0.012358855 -5.3192143e-05 0.13670896 -0.13369821 0.03738954 0.0926119 0.13297862 0.0743103 -0.14933574 -0.0741514 0.09175226 0.070669726 -0.0483895 0.09177915 -0.03766965 0.08892512 -0.14297768 0.06452348 -0.018190501 -0.006539332 -0.05863009 0.04223932 -0.058909405 -0.070206024 0.06343642 -0.06784822 -0.026746253 0.06046706 0.023900097 0.034692273 -0.044761166 -0.0026404958 -0.07801922 0.14496441 0.016696416 -0.037533578 -0.013438015 -0.07068929 -0.08998066 0.04635126 -0.011014339 -0.1190818 -0.028151195 -0.015031941 -0.101219036 -0.06323272 0.13508856 -0.12835933 0.0901635 -0.029738745 -0.035181083 -0.019126972 0.0010327166 -0.07899574 0.025061226 -0.044753443 -0.05774718 0.2092609 0.03298783 0.15207204 0.079932705 -0.07485116 -0.0049378527 0.06709629 0.006140395 0.019087194 -0.06147698 -0.039626107 -0.15820265 -0.17605974 0.02652024 -0.061785422 0.060071673 0.11673053 0.025892599 0.037466776 -0.059918333 0.008598725 -0.07897729 0.0718906 0.15978992 0.07010674 -0.061602682 -0.07527872 -0.012806908 0.05210381 0.11143896 0.043874245 0.10454219 
being 0.045916673 0.023066502 0.19091299 -0.117987216 0.10239394 0.16936629 0.08223395 -0.05240206 -0.09448833 0.07115959 -0.08428935 0.003443696 -0.16861407 -0.13173869 0.12853095 -0.067234516 -0.14739522 -0.0025358682 0.040570684 -0.031799518 0.14272022 -0.080015175 0.070457436 -0.039665926 0.05413236 -0.082262985 -0.042634506 0.043930307 0.10668547 0.024535216 0.045422345 0.09546395 -0.18079786 0.121929474 0.1505335 -0.13783127 0.14392099 -0.005494092 -0.21864022 0.13471118 0.017895302 0.017275648 0.14343023 -0.10178386 -0.112407826 0.08865335 0.16189489 0.20309292 0.10621524 0.14306082 -0.03062593 -0.019863611 0.07080719 -0.020460207 -0.093880996 0.03702912 0.16138999 0.09364803 0.08754211 -0.00941706 -0.027371975 -0.056275412 0.07294784 -0.020559995 0.11288392 0.024294209 -0.066414274 -0.035211913 0.03406383 -0.02084248 0.012614484 0.07212442 0.0099159535 -0.05219812 -0.14557922 0.039049193 -0.041056536 -0.11680674 -0.008132438 -0.06538638 -0.031379893 0.06695962 0.08279224 -0.076548524 0.109567896 -0.17268626 0.049128447 -0.031121815 -0.15668498 0.030953316 -0.02725358 -0.08015139 -0.070845395 0.1732553 0.11523089 0.042831182 0.021813946 -0.07485375 -0.14343718 -0.12985611 
kept 0.032768693 -0.027949741 0.025542922 -0.15790026 0.013406071 -0.060588345 0.10469995 0.06592888 -0.11722262 0.030331 0.038946036 -0.01597579 0.02091018 -0.09147635 0.0033697304 0.07499733 -0.15465227 0.03378138 0.1291626 -0.05104163 -0.07015442 0.02067199 0.019381382 -0.046928056 0.0053503606 0.06933854 -0.035869427 0.14783762 0.025707422 0.06353897 0.15553822 0.022120047 -0.018441988 -0.0769727 -0.042857714 -0.029184122 0.05581116 0.07075849 -0.13175067 0.025131665 0.008167334 0.020205729 0.117075935 -0.09858401 -0.05444258 -0.11798432 -0.006013356 0.046344798 -0.0052131773 0.0012052023 0.026810179 0.1376477 0.05451605 0.1457297 0.07693884 0.0357338 -0.09153704 -0.06324996 -0.0038942161 0.075430885 0.07401852 0.14780565 0.13547598 0.0154134305 0.025405234 -0.011744419 0.039736554 -0.036903076 0.099338375 0.08677399 -0.10407119 0.041662186 -0.0071352604 -0.015379563 -0.09592151 -0.15536653 0.1432414 0.054586533 0.008429386 0.014559002 0.072970144 -0.15109 0.086118974 0.121528275 0.0047866865 0.09462895 0.13942087 -0.01932725 0.049720995 0.08986691 -0.037042037 -0.13667761 -0.09735985 0.08611694 0.03858735 -0.030420769 -0.039578978 0.1033482 0.07995085 -0.05010513 
under 0.0041114483 0.036016203 0.0092393365 0.02556736 0.068689816 0.04372384 0.058142994 0.09225031 -0.09061669 0.067085735 0.039134953 -0.003291817 -0.097574286 0.05390852 0.0466232 0.072483204 -0.109976426 -0.038610663 -0.07695461 0.054243002 -0.06491936 -0.04590568 0.016618202 -0.03843804 0.028277218 -0.061988737 0.025714125 0.12873286 0.052612096 0.035818346 -0.0733743 -0.022865774 -0.09911215 -0.0051571466 -0.019190624 -0.0023205413 0.0806952 0.034376998 0.06509002 0.030070389 0.037074495 0.011571501 -0.017306434 -0.08372918 -0.014975721 -0.06007601 0.077729315 0.097612135 0.0639938 0.06375797 -0.1229646 0.010497855 -0.02070066 -0.017329618 -0.06080017 0.030029204 0.027506674 0.032749254 -0.03424967 0.010907487 -0.08807769 0.08134995 0.103492685 -0.0148701975 0.056684434 -0.038535256 0.040664405 -0.09874953 0.04333054 -0.06544117 0.035355847 0.03490793 -0.049493987 0.03463259 0.0005546319 -0.07413937 -0.068789735 -0.08441013 -0.031851932 -0.045871235 -0.058959275 -0.07830479 0.042560633 -0.04948777 -0.016824989 -0.083928406 -0.10612796 -0.0838031 -0.037173256 0.022610497 0.0017283773 -0.06948598 -0.07673503 0.061939493 0.08104427 -0.07482367 -0.053670213 0.041995063 -0.049699843 0.057591535 
a 0.08477369 -0.114160754 -0.057134036 0.084733956 -0.012438054 0.17072803 -0.06880348 -0.051599573 0.10939141 -0.12037232 0.037657548 -0.09238093 0.07104941 -0.0061109457 -0.2554168 0.14682916 -0.09344088 0.10700737 0.07697193 0.076678775 0.049881894 0.14045852 -0.025938272 -0.23597652 -0.06467381 0.049364194 0.13017468 -0.103077516 -0.10367859 -0.13366623 -0.06083937 -0.06974303 0.16680813 -0.0881696 0.009508011 0.068177365 -0.028775891 0.12380792 -0.030585606 -0.15865755 0.00023285937 -0.05409329 -0.016147587 0.0035847526 0.19853413 -0.11537514 0.11867485 0.009027178 -0.064644024 -0.0818656 0.07934292 -0.010500445 -0.07921759 -0.040208817 0.13740146 0.121656865 0.065898634 -0.06870884 -0.09030538 0.07529202 0.013911904 0.088345006 0.0024002658 -0.019986609 0.15512976 0.042348567 -0.09330034 0.07431063 0.12917285 0.09028289 -0.06079026 -0.11568054 0.011717038 -0.0028101893 -0.02838235 -0.07816854 0.02283882 0.0579408 -0.011455757 -0.031330682 -0.050633077 -0.112331696 0.006894512 -0.0033035753 0.01608505 -0.07933105 -0.011869469 -0.058115307 -0.047533777 -0.014048343 -0.017005011 0.077062055 -0.092028335 0.008016843 0.026288211 0.0071483264 -0.07071933 -0.008089318 -0.039889514 -0.13727662 
warmer 0.030709544 -0.09855668 0.02532948 -0.03331448 -0.06965886 0.06277415 0.08271804 -0.050819635 0.10863929 0.01230151 0.030279068 -0.060775112 0.0014209399 -0.013468989 -0.008499841 0.012487598 0.09792909 0.07399533 -0.06789668 -0.062232107 0.07455619 0.0061131506 -0.034617152 -0.0833857 -0.025039176 0.02615543 0.07312769 -0.08990329 0.012596293 0.100512296 -0.007814098 0.033928663 0.01293701 0.038274128 0.00645455 0.059961442 0.044401605 0.055590693 -0.019812852 0.031138964 0.10120088 0.008645136 0.080514446 0.089374095 -0.04377243 0.0032539887 0.060901158 -0.09456945 -0.053946845 -0.06946806 -0.062865905 0.07534887 -0.057524648 -0.0014635057 -0.008774179 -0.0016209576 0.0360552 0.007863532 0.041560013 0.066318035 -0.03550885 0.09728411 0.02098788 0.072635375 0.08325491 0.08363868 0.009078095 0.037926886 0.02075831 -0.03926813 -0.010290827 -0.015009382 -0.01818048 0.0829397 0.03649971 0.0034518696 -0.044771466 -0.10162252 -0.018508174 0.110950686 0.026332911 -0.08245357 -0.0804887 -0.010050761 0.0363735 0.019979933 0.101165734 -0.028308034 0.054560136 -0.040584777 -0.029126326 -0.10755511 -0.0013740605 0.07554091 0.047085367 0.016231172 0.09016089 -0.047869436 -0.026258927 -0.02289358 
fries 0.12358675 -0.019390348 -0.23898372 0.050288893 0.17849116 0.09066155 0.010801625 -0.020944837 0.10996423 0.029249929 0.1849099 -0.21440598 0.1879071 0.062423147 0.073636755 -0.08087805 -0.008794134 -0.16102009 -0.009338867 0.0031191378 -0.19364144 0.0651166 -0.24832258 0.09098308 0.04430764 0.13634804 -0.01055988 -0.17764132 -0.16068374 -0.006089516 -0.17162582 0.023658419 0.057293 0.012432948 0.023521082 0.065619625 -0.23655732 -0.05214192 -0.019799924 0.010369308 0.20126957 0.078532465 -0.05282086 -0.059393972 -0.071239896 0.050464723 0.013952886 -0.14360754 -0.12740192 0.14608291 -0.07489699 0.25127217 0.07841879 -0.015932301 -0.030685665 -0.009982472 -0.0098889405 -0.18945806 0.18206638 -0.025155533 0.13912217 0.20060422 -0.0070671393 -0.01612519 -0.17784134 0.1837079 -0.096070275 0.0068399035 -0.1770624 0.14732479 -0.036734298 0.024185807 0.010613037 0.00941371 -0.010120525 -0.029207867 0.1455978 -0.12730792 -0.13582839 0.15423724 0.11461558 -0.11009008 0.20206812 0.026447544 0.09335231 -0.007961036 -0.17710432 0.21788016 -0.044943016 0.17150156 -0.0012016688 -0.15825383 0.14455238 -0.08529356 0.12525296 -0.08924991 0.018092018 0.19094272 0.010632374 0.023808336 
too -0.0384184 0.050607994 0.1155268 -0.003667585 -0.10624541 -0.012276017 -0.12765639 0.025029175 0.008714169 -0.14095923 -0.09799389 0.04311555 0.026831213 -0.10800504 -0.07388643 0.106129155 -0.07652443 0.009110565 -0.021076974 -0.0075008795 -0.010095189 -0.0006734543 0.06325265 -0.05272198 -0.08187381 -0.040992983 0.07422937 0.047271244 0.08235531 0.022691417 -0.013158531 0.044357736 0.022906834 -0.005642394 0.0056215995 -0.014065864 0.008634146 0.01373398 0.022810929 -0.044204284 -0.107028514 -0.055570018 0.024080021 0.011419021 0.01114022 -0.093030676 0.065746255 0.024270337 0.013369956 -0.027060822 0.038195055 -0.035227906 0.07061606 -0.0630537 -0.086291626 -0.007832626 0.024305783 -0.025318252 -0.079640426 -0.01364977 -0.110202424 0.022445183 0.068469845 0.08051372 0.0372701 -0.09830972 0.07673113 0.056782678 0.08611657 -0.081949934 -0.0666861 -0.10000365 0.021593224 0.050386656 -0.097157605 -0.020904507 0.026071161 0.012032695 0.069784164 -0.11581365 0.02550321 0.14062184 -0.007346106 0.016250275 -0.031450916 -0.08668537 0.10320282 -0.07518826 -0.035013687 -0.026694497 0.010745167 0.055463277 -0.065208405 0.08959077 -0.0023225874 0.048409842 -0.03728275 -0.021403067 -0.0023358264 -0.005665122 
touch -0.08157549 0.0614249 0.08768661 -0.1386666 -0.1767428 -0.090893134 -0.052889384 0.1399289 -0.116084516 0.07726023 -0.11573674 0.12144946 -0.029956855 0.06053175 -0.020568842 -0.08383766 0.11371726 0.057790063 0.059920933 -0.14966434 -0.030024325 -0.12904789 0.15433234 0.08131407 0.066755615 -0.074888475 0.05900097 -0.06466946 0.1282731 0.13567841 0.06834694 -0.10835172 -0.1194602 -0.157937 0.051494464 0.16473787 0.064733654 -0.12066648 -0.031074923 0.07796764 -0.0285039 -0.13217628 -0.13111147 -0.1594286 -0.079381235 0.057985805 -0.14998373 -0.085329235 0.093992576 -0.15032157 -0.044599567 -0.09756742 -0.15952305 0.13234046 0.051901206 -0.12145645 -0.15572906 0.10250283 -0.12548067 0.100300565 -0.1314547 -0.10918306 -0.08604556 0.11712431 -0.11716917 -0.09464209 0.02721439 -0.11393984 0.16561475 -0.1444976 0.11763529 0.14813486 -0.1406655 -0.13156095 0.059634976 0.11798323 0.042681277 0.09391553 0.1582479 -0.12731351 -0.14193887 0.18102778 -0.09805227 0.17881443 0.04235503 0.13895036 0.10700922 -0.07681283 0.079164825 -0.08113862 0.1451514 0.043298617 0.039165575 -0.119518064 -0.13232587 -0.056603756 0.1476349 0.049753986 0.16689155 0.09707883 
service -0.17642373 0.19149126 -0.0034175576 0.022053309 -0.049970552 -0.09560969 -0.042423345 0.003111903 -0.08057942 -0.023858737 -0.08664823 0.03758157 0.051175565 -0.10845316 0.07033355 0.070811704 -0.010476851 -0.027362946 -0.14273354 -0.03518281 0.003214895 -0.04746701 -0.103049174 0.052613787 0.046560556 0.07184064 0.04678728 0.07156968 0.016807111 0.091947235 0.03696115 0.10355126 0.058347203 0.009688153 0.09912255 0.0030712557 -0.008085789 0.06448259 -0.03931923 0.026043369 0.055972867 -0.039535396 0.120581985 0.03679439 0.04039568 -0.0054007843 0.056351095 0.032922693 0.12135367 -0.01366396 -0.08136214 0.057453383 0.05657396 -0.042249046 -0.047157977 -0.025612256 -0.034788284 -0.10499409 -0.054343544 -0.04418492 0.028139288 0.06366716 0.059618957 -0.0032303806 -0.00023044477 -0.028729765 0.041309156 -0.03625677 -0.05469511 -0.109963916 0.05551012 0.016911024 0.111051306 -0.00628804 -0.103702344 0.059016645 -0.03057458 -0.07472679 0.019864827 -0.0030466283 0.079732865 0.041494418 -0.0292102 -0.097759165 0.0415074 0.029544841 -0.028972395 0.009410324 -0.0029749768 -0.029088024 0.084275045 -9.9295205e-05 0.046186794 0.08728042 -0.08887206 0.01970675 -0.018598206 -0.05293319 -0.029612461 0.12013047 
very -0.09403387 0.042841658 -0.012597975 0.13772976 0.029013658 -0.20210443 -0.019617025 0.0057612094 -0.020706333 0.0046640476 -0.11052194 0.13076663 -0.03495999 0.013030126 -0.062243387 0.083169706 7.7221805e-05 -0.12945463 0.14920197 -0.05736119 -0.13257919 0.044400506 0.0050722626 -0.051128704 0.06432306 0.046528324 0.13179658 -0.04839425 -0.058857687 -0.040034387 0.05040644 0.039307214 -0.084609166 -0.011791901 -0.01928627 0.08564561 -0.0069717914 -0.07519631 0.12656252 0.055632472 -0.086246885 -0.0065146904 -0.12331926 -0.028771646 0.054972846 -0.049270313 -0.16808434 -0.078355424 0.04033621 0.030786343 0.015787123 0.02014 0.1313451 0.07710442 -0.06416631 -0.10105992 -0.12506573 0.05379299 -0.020046439 -0.0221708 0.0378244 -0.052730646 0.0074117784 0.025221571 -0.08266624 0.028931731 0.14186504 -0.05860939 0.040281005 0.053330045 0.061420124 0.03545805 -0.0034119836 0.005256925 -0.0060074544 0.0077844947 0.1446432 -0.00061553414 0.05380901 -0.018518418 -0.020560082 0.07325154 -0.008985532 0.17735618 0.077189386 0.08697015 0.12911548 0.057267033 0.03303915 -0.044170056 0.11102819 0.11493275 0.05855834 0.024591828 -0.08060623 -0.04057184 0.033822637 0.12598576 0.07464608 0.09901684 
prompt -0.16981591 0.19671643 0.1725015 0.21819471 -0.13576584 -0.18291026 -0.19581282 0.18632199 0.19280986 -0.14481428 -0.25377306 0.20266776 0.2040219 -0.14974223 0.22552793 -0.23784028 0.17890505 -0.21366152 -0.22590764 -0.15334302 -0.21112436 -0.21839014 -0.20196798 0.16952613 0.14447282 0.21810862 0.2190263 0.18286353 0.20979588 0.13620175 -0.20929676 -0.18180554 -0.20497924 -0.23117341 0.21938056 0.15738156 -0.23827413 -0.15067746 0.15260388 0.17606439 -0.19867921 -0.21651006 -0.2329523 -0.17954169 0.24516122 -0.13487495 0.14569312 -0.20146582 0.20464455 0.22517648 -0.1386488 0.15549773 0.2679388 0.20018679 -0.16456704 -0.13294654 -0.177629 -0.14964423 0.19876729 -0.14696406 0.18758932 0.1484329 -0.15312336 0.16406529 -0.16672736 -0.19722626 0.2358828 0.20458673 -0.18833776 -0.2107428 -0.1557983 -0.26181433 -0.17827372 0.19795004 -0.18722786 0.16537172 0.16839959 0.20335414 0.23732643 -0.20044558 0.1984682 0.1906158 0.20533508 0.21354236 0.18325378 0.20585178 0.16031231 0.13144195 0.25622803 0.27221972 0.2072751 -0.18377315 -0.23698959 -0.16215076 0.22578682 -0.19999889 0.1286952 0.24243674 0.17624137 0.14352353 
would -0.08489703 0.044773843 -0.05621917 0.12262886 -0.011374683 -0.122714154 -0.015129773 -0.018207494 0.0006496356 -0.035415314 0.0020942914 -0.04947863 0.018927854 -0.10450903 0.072536364 0.015431125 -0.038153775 -0.08581981 -0.08211209 0.04764705 -0.0132838655 0.0035934905 -0.08823456 -0.00603749 0.05384896 0.09506749 -0.0057859505 0.17536749 -0.046570208 0.11433961 0.019738518 0.07173504 0.058490362 0.08677967 0.07303187 -0.07901643 -0.008811869 -0.005278873 0.026338296 -0.007309883 0.01804196 0.042849876 -0.00944531 0.09412488 -0.011387067 0.078349136 0.02686943 0.004109634 0.057311535 0.020665597 -0.05053628 0.010348164 0.08668943 0.0012193499 -0.07576486 -0.03341584 0.021802973 -0.026887951 0.07317902 -0.0560562 0.13397087 -0.0059674885 -0.04230281 -0.024534237 -0.019181129 -0.055776887 0.034090072 -0.004454024 -0.11923958 0.023171231 0.060818166 -0.05176362 0.013178757 0.1356228 -0.0011549201 -0.04899329 -0.037566263 0.017752958 -0.029445956 0.11364911 0.10990731 -0.050171472 0.09311783 -0.026835697 0.106992416 0.00086583756 -0.03323244 0.11335324 -0.11409856 0.09426557 0.044484533 -0.046189494 -0.03108416 -0.0148872575 0.08261454 -0.010597767 0.017768817 0.085712776 -0.012321141 -0.0036882095 
go 0.085583575 -0.124975584 0.021127338 0.23050627 0.04325702 0.073080756 -0.2280137 -0.15452732 -0.024357494 -0.09498349 0.078341536 0.04459864 -0.13810903 -0.09517237 -0.18318866 0.044453 -0.08538719 -0.008957095 -0.1266837 0.1690276 0.1992057 0.23425637 0.10181556 -0.16292164 -0.047663916 -0.037053082 -0.010952645 0.08104913 -0.051467706 -0.16221608 -0.060765922 0.19212814 -0.045841035 0.25097513 -0.19858216 -0.18348105 -0.092508405 0.0855518 0.10509402 -0.10709952 -0.13389799 0.11173014 0.06912586 0.13661012 0.11296685 -0.17676021 0.12084947 0.09703059 -0.015105403 0.029766263 0.12996626 -0.11966432 0.09775271 -0.06808475 -0.048969667 0.060490668 0.15997157 0.13795054 -0.041812375 -0.2356822 -0.027576376 -0.19948149 -0.0016399317 0.07107033 0.17614654 0.0143832555 -0.13224724 0.22593386 -0.034687705 0.06869612 -0.047990244 -0.1863515 0.021236435 0.2846265 -0.05909919 -0.13212278 -0.10174642 0.046037264 -0.013571172 -0.07916447 0.053336624 -0.021529566 0.05777439 0.05759025 0.00984241 -0.11858247 0.18195736 -0.0045247935 -0.20142888 -0.07621618 -0.046773944 0.023200182 -0.293682 -0.05409396 0.078798935 0.04566081 -0.11508148 -0.15784349 -0.12767895 -0.17703035 
back 0.07657428 -0.10588165 -0.004363688 -0.10672616 -0.06506836 -0.016971365 0.10221988 -0.025178079 0.052897662 0.1233504 0.025986388 0.018616863 -0.029282238 0.035432417 0.021057732 0.044587143 0.033816908 0.12694205 0.0031470978 0.057428088 0.074796185 -0.084421225 0.059442714 0.038523957 0.007222414 -0.15074906 -0.08122166 -0.10389441 0.025824923 0.04064088 0.0661742 -0.027262116 0.05649369 -0.07852434 0.041444216 -0.040572677 0.110974714 0.07863132 -0.11929572 0.002037696 0.12265294 0.05756486 0.0032666961 0.062265135 -0.13371609 0.15779194 0.0106868595 0.1327439 -0.00068011374 -0.05065265 -0.010464767 -0.101420954 -0.1738033 -0.031273667 0.16391131 0.055816956 0.05306145 0.003055115 -0.06602554 0.04887065 0.04085201 -0.068787105 -0.04302927 -0.16596508 0.006653023 -0.0047072745 -0.047948293 -0.06547165 0.010192452 -0.082594015 -0.016155446 0.1303784 -0.055281404 -0.029428117 0.0486532 0.032207042 -0.10927057 -0.020165712 0.08696971 -0.028845688 -0.041761726 0.06322781 -0.0014309546 -0.053606432 -0.119837806 0.013350332 -0.026697475 -0.0837413 -0.08948607 0.08074113 -0.08994536 -0.046989247 0.07033274 0.07591494 -0.029574027 0.016526023 0.08897892 -0.07929581 -0.02582125 -0.027840475 
cashier -0.03691898 0.062320117 0.1411818 0.11983598 -0.05498802 -0.048689615 -0.06228641 -0.12346967 -0.095213 -0.096848175 -0.15470149 0.044533025 -0.13595319 -0.09889624 -0.080273435 0.10913773 -0.07475864 0.097473904 -0.073911436 0.058553077 0.06524587 0.052105974 0.090012446 -0.1341373 -0.13453096 -0.052230388 0.07668681 0.060314376 0.07784899 -0.08493869 0.07153493 0.055770475 0.07276212 0.11775487 -0.13300072 -0.066519596 0.0877275 0.07177205 0.10766596 -0.10360952 -0.123474896 0.14004016 0.06368779 0.1366545 0.0646086 -0.05082474 0.13393116 0.10659873 0.08972735 -0.062744215 0.08702509 -0.0860204 0.15151699 -0.12909697 -0.13197073 0.0427977 0.06107457 0.059844512 -0.029617755 -0.05672968 -0.09163247 -0.11023459 0.09050873 0.07251377 0.07850356 -0.10320492 0.13048649 0.041445017 0.11910746 -0.05673292 0.03607581 -0.08529054 0.105768576 0.11273676 -0.11296326 -0.054798163 -0.05778877 0.049333226 0.103204995 -0.031082023 0.14142315 0.10026474 -0.09981433 -0.085495204 0.100496456 -0.11474969 0.10949434 -0.105381034 -0.06326242 -0.032202695 0.024666572 0.044949967 -0.13203518 0.04161242 -0.12502608 0.09407554 -0.075214945 -0.06519892 -0.07987287 -0.12018327 
no -0.091973215 0.16592523 0.044687267 -0.13242497 -0.082194075 -0.045215577 0.09359742 -0.016875915 -0.041668493 0.009092581 -0.04898806 -0.07477471 -0.010512238 -0.024988355 0.08828199 0.06975933 -0.08023535 0.07190158 -0.11380403 0.08019153 0.07798475 -0.15484275 -0.094564356 0.056639284 -0.08802477 -0.04414996 -0.0554535 0.15854007 -0.009225881 0.02273759 -0.014135798 -0.020527016 0.08455226 -0.0199032 0.11944964 -0.04978361 0.01629429 0.014645706 -0.15101781 0.012192567 -0.058570825 0.061324783 0.07598887 0.08059728 -0.08307246 0.044050496 0.16320562 0.04474359 0.14024927 -0.0049621807 -0.083962 -0.033124913 -0.021924617 -0.15974694 -0.00638942 0.14664027 0.076500766 -0.07139377 -0.028196514 -0.008759564 -0.14882289 0.069738135 -0.043274045 0.014081183 0.028714009 0.07489315 0.00882148 -0.0072204755 -0.03947541 -0.062055275 0.080903634 -0.086626515 0.0460526 -0.24247003 -0.057508893 0.042726856 -0.0072200266 -0.0818804 -0.110993035 -0.048101947 -0.021969438 -0.0044802865 -0.035020437 -0.11640511 -0.010336673 -0.11790472 -0.2645586 -0.078555875 0.0008627038 -0.044028375 -0.046827007 -0.13965575 0.15271556 0.08588584 -0.010874595 0.069959074 -0.1102478 -0.021148194 -0.0836599 -0.040607568 
care -0.13844576 0.10480825 0.03602725 -0.0474792 -0.06419383 -0.076849006 0.09417838 0.00477186 -0.010134336 0.008227022 -0.13455933 0.060078613 0.020137336 0.06547672 0.017051635 0.12719887 -0.06126821 0.13975498 0.08411575 -0.047060017 -0.08293792 -0.0055583017 0.00032108405 0.0020731294 -0.035203848 -0.03829171 0.090334214 -0.0135560995 0.12557028 0.050091576 0.16717845 -0.046247657 0.072546415 -0.13040881 0.054347124 0.049514197 0.14439568 0.0586518 -0.0575454 0.01668036 -0.011985393 -0.07523662 -0.00398035 -0.058478627 -0.017751856 0.08849192 -0.011477014 0.013053276 0.115180135 -0.10852611 -0.113047406 -0.016327154 -0.08704562 -0.012274137 0.014198706 -0.051726934 -0.0226884 -0.005970198 -0.027572973 0.09996994 -0.070348404 0.08021964 0.082101755 -0.022990605 -0.12803786 -0.06028066 0.12440498 -0.081874125 0.10951798 -0.07360727 -0.017495306 0.09218091 0.06763331 -0.13500161 -0.05840609 -0.038066387 0.07394628 0.017936096 0.076867476 -0.023607148 0.02784573 0.14617641 -0.072204664 -0.09300595 -0.022613993 0.07224333 -0.059001155 -0.10149207 0.028628316 -0.047631916 0.009189408 0.034478772 0.13510205 0.08813666 -0.087758504 0.011049972 0.042705037 -0.04126636 0.029711368 0.09309545 
what -0.047561307 0.04577056 0.064314954 0.032334283 0.022398692 -0.075617515 0.034826525 -0.014001525 0.07969867 0.074825674 -0.12243213 0.07935183 0.0708616 -0.053895194 0.10652588 -0.026792374 -0.018430276 -0.14370303 -0.06522261 -0.049667776 -0.07454849 -0.011718827 0.02238288 0.034611996 0.037413947 0.0735651 0.08960474 0.09620533 -0.012800664 0.054980528 -0.10402262 0.0018310165 -0.139636 -0.011432362 0.04522382 -0.04096351 0.013204902 -0.10501873 0.068981215 0.09416795 -0.0062683225 0.0040862635 -0.061288986 -0.06438903 -0.027588578 -0.00649538 0.05124712 0.013164756 0.04355225 0.18106718 -0.048677918 0.10609427 0.13563474 0.006118161 -0.09206637 -0.04704332 -0.02827118 -0.056730833 0.14832419 -0.08930027 -0.013417193 0.11735953 -0.01934659 -0.015138982 -0.06562649 -0.013464545 0.04458842 0.06521446 -0.12954873 0.025485778 -0.038976964 -0.095706716 -0.049937304 0.025501868 -0.112644576 0.07800636 0.07737287 0.0045956196 0.004971486 0.08362918 0.12565519 0.13792013 0.07161843 0.047799606 -0.018295672 -0.02430327 -0.035359126 -0.0059274794 -0.005226976 0.046737354 -0.036599718 -0.027228149 0.049717363 -0.0640759 0.034726445 0.008941169 0.009585239 0.022816475 0.0027945638 -0.019348389 
